dense/kernel:0
(784, 128)
[[-3.09795104e-02  7.68409595e-02  3.20299864e-02 -5.94559312e-02
   6.96883276e-02 -4.24140953e-02 -6.23192564e-02  3.22966203e-02
  -4.06225733e-02  6.81412220e-03  6.61296621e-02  1.36593953e-02
   1.75245851e-03  4.04743850e-02  4.85065803e-02 -7.79814646e-02
  -7.32046142e-02  1.47963166e-02  7.22298399e-02  3.20661888e-02
   2.81030759e-02  7.85289630e-02 -3.85614969e-02 -9.33637470e-03
   3.80199701e-02 -7.42838085e-02 -2.92264745e-02  2.35772952e-02
   4.80405986e-03 -6.50540590e-02  5.48752472e-02 -3.35516781e-02
  -4.78857011e-03  1.84488893e-02 -2.20870450e-02  5.88243082e-02
  -4.40458022e-02 -7.32740387e-02 -3.25602815e-02  7.79136196e-02
  -5.80760092e-02 -7.28362575e-02  2.47082189e-02  4.64727804e-02
   3.60173732e-02 -1.89914666e-02  7.33643025e-03 -2.36769617e-02
   2.14932859e-02  1.45352632e-02  1.83463022e-02 -2.85419784e-02
  -3.25351208e-03 -3.58126760e-02  7.50763044e-02  4.52229753e-02
  -4.98914421e-02  1.66188478e-02  1.59119368e-02 -4.02234122e-02
  -7.07951933e-02  3.79845947e-02 -3.72816138e-02  3.73874679e-02
  -7.49905258e-02 -4.42982428e-02  6.61942288e-02 -5.27132675e-02
   5.46861812e-02  3.80906463e-02  4.53590825e-02  2.70353481e-02
   5.05017564e-02 -7.89997578e-02 -8.05557594e-02  3.20990458e-02
   1.52636990e-02 -7.25288689e-03  4.77226749e-02 -8.60732049e-03
   7.42688999e-02  4.94771972e-02  3.24777067e-02 -8.00519362e-02
  -7.71736801e-02 -2.56266333e-02 -1.45639852e-02 -5.53543754e-02
  -1.33167952e-02  4.26611230e-02  3.61976400e-02  3.87436450e-02
  -4.64648679e-02 -8.18207115e-03 -6.64514303e-02  4.89344671e-02
  -4.94224690e-02  7.71032646e-02  7.35967085e-02 -2.66722515e-02
   4.50205281e-02 -1.04007795e-02 -6.61731288e-02  4.72194478e-02
   5.61021045e-02  4.40157428e-02 -3.51235345e-02 -2.16513351e-02
   2.43552327e-02 -1.54628307e-02  5.53656891e-02  3.46837267e-02
  -4.20632586e-02 -1.47893727e-02 -4.58297580e-02 -5.03119081e-03
  -3.11823897e-02  2.43568569e-02  5.87131828e-03  7.51089826e-02
   6.14864901e-02 -7.55025595e-02 -6.94456697e-02  6.51362315e-02
  -6.33173063e-02 -6.49411455e-02  4.73385677e-02 -3.09484154e-02]
 [ 5.98314181e-02 -4.44581322e-02 -6.38380647e-03  4.66467515e-02
  -4.19733338e-02 -2.40036435e-02 -2.75208764e-02  5.79446480e-02
  -4.12645079e-02  2.84762457e-02  4.06623706e-02 -1.09716058e-02
  -7.91409314e-02  6.10064641e-02  1.60078406e-02  4.77286801e-02
   1.05226040e-02  2.71880478e-02 -1.43345520e-02 -6.38999864e-02
   7.20381513e-02 -6.96470588e-02 -4.66543622e-02  1.31968409e-02
  -7.67102018e-02 -3.74706835e-02  1.78535208e-02  6.77062497e-02
   7.00894371e-02  4.51932624e-02  2.39934698e-02  4.81403396e-02
   1.53949857e-02  5.37051484e-02 -2.06284150e-02 -1.23365372e-02
   1.57748908e-02 -2.73393877e-02  3.29539105e-02  6.92215040e-02
  -1.05558112e-02  1.23050958e-02  3.06618586e-02  5.06868288e-02
   9.73464549e-03 -3.47125009e-02 -5.95955551e-02  6.22037724e-02
  -4.91953194e-02 -5.10046296e-02  4.54250649e-02  1.75809488e-02
  -4.74711545e-02 -5.81958890e-03 -6.79658502e-02  3.17813456e-03
  -3.55912000e-03  8.72199982e-03  6.41213581e-02 -4.48372401e-02
  -5.91779798e-02 -7.84270465e-03 -2.31445991e-02  1.27152801e-02
  -8.73240083e-03  2.74392068e-02  1.50411353e-02 -3.52036543e-02
  -1.98986270e-02  7.29282275e-02  6.26447573e-02 -1.43018365e-02
   5.12269810e-02  3.99905816e-02  5.63214496e-02 -4.91634682e-02
   6.50908872e-02  5.96153811e-02 -3.48210074e-02 -3.29191424e-02
   1.12678856e-02  4.40834388e-02  7.89667442e-02 -1.05573609e-02
   7.79888108e-02 -2.92319804e-03 -1.11508667e-02 -2.65187249e-02
   2.52588540e-02  2.48592123e-02  7.45780766e-04  2.34086066e-03
   6.53315410e-02  1.00864917e-02 -5.78698628e-02  3.86502445e-02
   3.68921161e-02 -4.68320064e-02 -4.13732976e-03  4.14735973e-02
  -6.97982460e-02 -6.72578365e-02  6.01902604e-03 -1.41602159e-02
   4.45655510e-02  4.84136492e-03 -9.07607377e-04  4.19482887e-02
  -3.38589065e-02 -2.70629637e-02 -3.69318202e-02 -1.87255479e-02
   4.24053892e-02 -6.41463175e-02 -6.28995597e-02  2.44471878e-02
  -4.34204936e-04 -4.50039953e-02 -2.79125944e-02 -3.95993255e-02
  -5.32717556e-02 -6.55008554e-02  5.01124188e-02 -5.91394231e-02
   2.45972574e-02 -6.96429014e-02  1.18879527e-02 -4.99688685e-02]
 [-5.35141416e-02 -3.59162688e-03 -6.37248978e-02  5.29333949e-03
  -2.24735811e-02 -4.78415415e-02 -3.38423736e-02 -1.00790039e-02
  -3.96640897e-02 -4.01419029e-02 -8.08510929e-03 -8.07107240e-03
  -1.44204348e-02  7.91210458e-02 -3.03271934e-02 -6.96842298e-02
   3.92415524e-02 -5.80618344e-02  4.27243412e-02  3.50666642e-02
  -7.11363554e-03 -6.68645501e-02  2.74187326e-02  6.83156624e-02
   6.60023838e-03 -4.25072648e-02 -1.58614069e-02  1.87839642e-02
   5.64368814e-03 -4.17482741e-02 -4.65342551e-02  7.35737383e-03
  -9.95761901e-03 -6.36099726e-02  6.68788925e-02  4.75080535e-02
   2.15761438e-02 -6.32239431e-02  5.60917780e-02 -4.73286137e-02
  -2.43919976e-02  4.49853763e-02  6.01340905e-02 -6.17130212e-02
  -3.76018137e-03 -4.10594083e-02  6.97290525e-02 -1.88080631e-02
  -3.83193046e-02 -3.37966196e-02  1.42751038e-02 -7.21638799e-02
  -5.67925051e-02  5.78673109e-02  4.40555289e-02 -2.89875716e-02
  -6.30226880e-02 -1.25878230e-02  2.40565538e-02 -6.81006908e-02
   3.20632458e-02  3.85954753e-02 -3.28105390e-02  3.05192769e-02
   7.34902173e-03 -2.43425667e-02 -1.19374394e-02  6.99693188e-02
  -3.40171345e-02  2.94394270e-02  8.43699276e-03 -7.89982677e-02
   2.12532952e-02  8.07240382e-02  3.47565934e-02 -5.41263148e-02
  -2.88212039e-02 -4.86851372e-02 -5.79786003e-02  6.37277961e-04
   7.48603418e-02 -3.07939202e-02  1.67381316e-02  6.13906309e-02
  -3.59367579e-03 -6.06191680e-02  1.79650262e-02 -3.60629521e-02
  -4.94117737e-02  4.46100011e-02  5.96982762e-02 -7.30435848e-02
   2.81171501e-02  6.99036047e-02 -8.45700502e-03 -2.21687108e-02
   6.57342598e-02 -2.97230817e-02 -1.14366412e-04 -8.92779976e-03
   1.11282617e-03  1.44921243e-03 -8.07280019e-02  1.70191377e-02
   4.17142585e-02 -6.32360280e-02 -7.87798837e-02 -5.74573204e-02
   1.57544687e-02 -1.45828575e-02  7.46555403e-02 -6.72921017e-02
   7.26534426e-03 -4.43418697e-02 -4.32132483e-02  3.27413827e-02
   6.87659904e-02  4.93805185e-02  5.18934503e-02  5.97049966e-02
   6.73556104e-02  5.77717051e-02  1.12276077e-02 -6.20604530e-02
  -7.04860315e-02  1.05380192e-02  1.83924660e-02  5.97012416e-02]
 [ 6.04099110e-02 -5.89789897e-02 -7.89435953e-03 -1.18880644e-02
   4.08884212e-02 -2.13559791e-02  2.21672654e-03 -7.91545585e-02
  -4.02375683e-02  3.58519927e-02 -5.64523861e-02  4.48312387e-02
   7.02698454e-02  3.16587314e-02 -6.04438111e-02  4.82651815e-02
   3.80781740e-02 -6.62086159e-02  4.95727584e-02 -6.73438460e-02
  -1.18877739e-02  4.48361561e-02 -4.66979928e-02  4.55077812e-02
   5.96979931e-02  2.96266004e-02 -5.16076013e-02 -6.18168116e-02
   2.14513540e-02  4.66931239e-02 -7.91999474e-02  2.07015350e-02
   5.96193001e-02 -3.83361094e-02  2.32385993e-02  7.33621642e-02
   3.81637290e-02 -4.21137102e-02  4.72557917e-02  5.76242805e-04
   3.86609361e-02 -2.74443552e-02  4.38533276e-02 -1.68952122e-02
  -4.60477583e-02 -1.34582818e-03 -5.54156192e-02 -5.33929467e-02
   4.27495539e-02  1.06701031e-02 -3.54718752e-02 -5.46194613e-02
   2.48038843e-02 -4.83096465e-02 -4.59101871e-02  6.42679408e-02
  -4.49681990e-02 -3.73993441e-02 -1.73857138e-02 -3.43687832e-03
   6.02317229e-02  2.06992552e-02 -5.80925234e-02  6.00535497e-02
  -2.85939761e-02  3.82578298e-02  1.53951049e-02 -5.19531555e-02
   1.23695135e-02 -3.60757858e-03 -1.51847452e-02  3.66803259e-02
   2.29082853e-02  3.97457927e-02 -5.37518859e-02  1.25702843e-02
  -1.55692622e-02  1.71730518e-02  6.93002269e-02 -2.81362794e-02
  -5.69499582e-02  4.39071879e-02  3.11754644e-03 -2.51749456e-02
   4.89939526e-02 -2.87240669e-02 -5.73970377e-03  4.47748974e-02
   3.71940657e-02  2.38236412e-02  3.37634906e-02 -2.86505818e-02
   9.76472348e-03  8.90915841e-03 -7.07156360e-02  4.40690145e-02
  -8.40152800e-03 -6.28218427e-02 -8.00894499e-02  6.95669577e-02
   4.28055599e-02 -3.07353847e-02  1.32097602e-02 -7.01085478e-02
   6.84689358e-02  7.95473680e-02 -2.05306783e-02 -3.21466923e-02
   7.85438716e-03 -7.23720193e-02  1.97936967e-02 -7.45661557e-03
  -2.25065313e-02  4.65566143e-02 -1.45874619e-02  1.28976032e-02
  -2.85247862e-02 -6.00970760e-02 -4.31801789e-02  3.07678357e-02
  -3.74324508e-02 -1.49364397e-02 -4.02822196e-02 -2.05415860e-02
  -6.54235035e-02  4.10592705e-02  7.63188973e-02 -5.44251315e-02]
 [-4.62954640e-02  2.50966847e-03 -3.61904092e-02  5.55663928e-02
   7.79629573e-02 -3.66855487e-02 -5.08479513e-02 -5.07598855e-02
  -1.71486214e-02  5.61321154e-02  3.47657800e-02  3.66886631e-02
   2.87865475e-02 -6.89057112e-02 -4.68566604e-02  6.26587793e-02
   3.74699458e-02  1.58875436e-03  5.70878014e-02  7.61396810e-02
  -5.00244498e-02 -5.88011742e-02  8.69428366e-03  4.73323390e-02
  -1.33869946e-02  7.72185698e-02 -5.65640628e-02  5.34206629e-03
  -3.86186428e-02 -4.30559702e-02 -4.05404642e-02 -6.31573051e-02
  -2.50985995e-02 -4.02491316e-02 -6.08305633e-03  6.49220720e-02
   3.32997963e-02  1.75014138e-04  4.07586172e-02  7.51773939e-02
   2.99012437e-02  6.89172521e-02  5.98741546e-02 -7.26044849e-02
   1.62790939e-02  9.43103433e-03 -2.78159976e-04 -6.88768923e-02
   5.49049750e-02 -2.80592591e-03 -6.72749653e-02  1.18516907e-02
   1.45806745e-02  3.63860726e-02 -2.31681354e-02  1.21646971e-02
  -8.95239413e-03  4.23489809e-02 -7.49276131e-02  5.59207126e-02
   5.76811358e-02  1.71172768e-02 -3.62098441e-02 -6.05546162e-02
  -5.28913885e-02 -5.55469841e-02 -2.45107934e-02  3.82537693e-02
   1.81294084e-02  5.77781722e-02  9.05552506e-03 -2.78203487e-02
  -3.31861861e-02 -3.87156643e-02  3.50959376e-02 -4.77040857e-02
   6.34676591e-02 -5.71521409e-02 -1.68891251e-02  3.81542370e-02
  -7.23290741e-02 -5.82074299e-02  5.70025295e-03  7.77602941e-03
  -6.64671063e-02  5.93148842e-02  8.03547427e-02  5.14597222e-02
   1.40780136e-02  3.47071812e-02 -6.69588447e-02  6.71176091e-02
  -8.56574625e-03 -2.86810398e-02 -4.80444208e-02  4.04672697e-02
   6.43535629e-02 -4.81307507e-04  3.98993641e-02 -2.83588618e-02
   7.43263438e-02 -5.02033457e-02  1.88962296e-02  9.57447290e-03
   6.72658011e-02 -2.42887884e-02 -2.48272717e-03  6.27688691e-02
  -7.07663596e-03  1.53758451e-02 -2.95838267e-02  5.51593825e-02
   7.37599507e-02  3.97460684e-02 -6.99745566e-02  6.54846802e-02
   2.34242082e-02 -6.36414960e-02 -7.81613663e-02 -1.39570311e-02
   5.01917973e-02  2.09311545e-02  7.63519779e-02 -5.31774051e-02
   2.50258520e-02  5.83453700e-02 -2.52066441e-02  4.54570130e-02]
 [-2.06542127e-02 -6.99494183e-02  3.72119918e-02  2.95231640e-02
  -4.63945419e-03 -4.88864481e-02  1.10401362e-02  6.69687316e-02
  -1.73863024e-03  8.38141143e-03 -4.91968282e-02  1.54539123e-02
  -4.64769155e-02 -1.99734457e-02 -2.56773941e-02 -3.72835249e-02
  -3.19135524e-02 -1.79425552e-02  5.73256984e-02  5.67161813e-02
   6.02388307e-02  6.79569319e-02  4.18684259e-02  2.74318829e-02
   3.38634923e-02  1.47294402e-02 -4.67723273e-02 -7.48181418e-02
  -7.64120221e-02  3.60175222e-02  1.49444416e-02  1.39977783e-02
   3.37325111e-02  4.85338345e-02  7.43005201e-02  3.92614305e-02
   5.55989072e-02 -1.20088905e-02 -6.02052882e-02  5.27032465e-03
   1.18291005e-02  1.26780570e-02  6.06431887e-02 -3.51696201e-02
   7.68330321e-02  3.66257504e-02 -7.92524740e-02  3.14667001e-02
   9.12827998e-03 -8.50149989e-03 -2.48530805e-02  2.73839980e-02
  -7.81469196e-02 -4.70976941e-02  6.92739114e-02 -2.23582648e-02
   5.98429516e-02 -5.80887906e-02 -7.57362098e-02 -4.36030328e-03
   6.95041493e-02  7.28611872e-02 -6.03706911e-02 -7.19931275e-02
   7.98471197e-02  4.37103212e-04  5.09942397e-02 -3.59292477e-02
  -5.05074114e-03  2.80712023e-02  7.56852254e-02  3.51282135e-02
   4.67899218e-02  4.29106802e-02 -1.98281780e-02  5.32427058e-02
   4.69839051e-02  3.61373276e-02  1.19800344e-02  5.42524457e-03
   2.69748941e-02 -2.37888917e-02  4.29317430e-02 -7.17266202e-02
  -6.58240914e-02  3.80829126e-02  1.11578405e-03 -1.01851746e-02
  -1.54014081e-02  6.40642866e-02 -7.47976005e-02 -7.89253041e-02
  -7.72924200e-02 -1.33469105e-02  5.97275719e-02 -6.07129782e-02
   1.09417439e-02  4.02138233e-02  5.71805313e-02 -6.97129667e-02
  -2.26281136e-02 -1.42167807e-02 -3.90458442e-02 -3.21832821e-02
   5.17251715e-02  1.24933347e-02 -9.43968445e-03 -2.71555558e-02
  -1.25066787e-02 -3.70914973e-02  2.36075372e-02 -5.60761020e-02
  -4.79746088e-02 -5.02074882e-02 -8.10305774e-03  2.64391899e-02
   6.88438788e-02 -9.32819396e-03  7.60740712e-02 -5.31854853e-02
   2.24454030e-02 -7.78901875e-02  5.60207888e-02  4.59024534e-02
  -2.67182402e-02  7.01788291e-02  4.33675200e-03 -4.87542339e-02]
 [-3.73561792e-02 -8.97894800e-03 -6.02507591e-03 -7.34418184e-02
   7.42397383e-02 -4.15252484e-02  7.73147866e-02  3.57748568e-03
   6.76675886e-03 -6.21997081e-02  5.87590411e-02 -2.05160230e-02
   6.39086887e-02 -2.74976306e-02  5.59039935e-02 -7.80630112e-02
  -7.79759735e-02 -2.84813903e-02 -5.44702262e-02 -2.76227891e-02
  -3.51112932e-02 -4.92185242e-02  3.11085582e-02  6.37825504e-02
   4.28957939e-02 -2.45093405e-02  6.76177442e-03 -1.20330602e-03
   6.90425262e-02 -4.13847715e-03  4.20170426e-02 -1.81160197e-02
  -5.10741137e-02  6.30026385e-02  7.28178993e-02  3.30206305e-02
  -7.64829591e-02  5.83742484e-02 -4.97156940e-02  1.94301531e-02
  -2.39694342e-02  5.06915078e-02 -4.08531055e-02  5.34553751e-02
  -4.87397276e-02 -5.38216233e-02 -8.82478058e-03  4.81093600e-02
   7.32369199e-02  1.70917660e-02  3.65525782e-02  8.02835003e-02
   3.02823111e-02  3.29062343e-04 -1.68057531e-03  7.26980045e-02
   2.78282166e-03  3.36613655e-02  1.14189088e-03 -7.81976655e-02
  -6.29204288e-02 -2.07552351e-02 -1.84590816e-02  4.73828390e-02
   7.48249143e-03  4.04922739e-02 -2.58555003e-02  6.08259961e-02
  -2.70589627e-02  1.87510177e-02  3.28263789e-02 -1.11292675e-02
  -1.41631812e-03 -5.21973372e-02  4.33538184e-02 -4.76739965e-02
   1.01205856e-02  1.70992911e-02 -3.77423465e-02 -5.67361154e-02
  -6.05774373e-02 -5.16816974e-04  5.86743727e-02 -2.14597322e-02
  -3.53308022e-02 -7.67911524e-02  1.78570598e-02  6.61936924e-02
  -2.39906497e-02  3.74278650e-02  3.90762240e-02 -3.88039798e-02
   3.18662077e-02  5.90152666e-02  4.95480523e-02  4.69627306e-02
   3.36053818e-02  3.50481942e-02 -2.47214064e-02  1.80687383e-02
  -5.81473261e-02 -9.98297334e-03 -2.59817392e-02 -7.73620382e-02
  -1.90550089e-03 -3.38743180e-02 -3.53388675e-02  6.49379864e-02
  -1.66217908e-02  5.53695038e-02  2.25069597e-02  5.98016456e-02
  -4.33847979e-02  7.20071122e-02  8.40463489e-03  6.08433709e-02
   5.83616868e-02 -1.26629695e-02  2.45799050e-02 -7.92600363e-02
   6.67728409e-02  6.20253161e-02  6.10221922e-03 -7.79473856e-02
  -2.32401900e-02 -3.20642442e-03  3.32757384e-02  5.32911643e-02]
 [ 5.54519370e-02 -7.07898214e-02 -5.84673211e-02  1.24635324e-02
  -1.24256313e-03 -5.50730973e-02  1.54595748e-02  7.81383738e-02
   4.44264635e-02  1.23264045e-02  7.39580169e-02 -4.94037680e-02
   4.82051596e-02  9.06950980e-03  6.59233704e-02  7.74422362e-02
   4.39352766e-02 -7.09272921e-02 -7.29675815e-02  1.99815109e-02
   6.20227084e-02 -1.93087310e-02 -5.01475371e-02 -1.07750073e-02
  -5.61820343e-02  6.02168217e-02  3.81045565e-02 -3.13205048e-02
   5.75510338e-02  3.37669328e-02 -3.35638635e-02  3.28527912e-02
  -7.43283406e-02 -1.66790336e-02 -1.84634328e-03  2.03344524e-02
   3.98329943e-02 -1.84704736e-02  9.49870050e-03 -2.17415094e-02
   6.38859943e-02  2.66458020e-02 -1.61661580e-02  2.79536694e-02
   2.66022906e-02 -1.85497627e-02 -1.06917769e-02 -5.91619313e-02
   2.92073488e-02 -1.92729384e-03 -2.93704309e-02  3.40824574e-02
  -4.47440669e-02  5.91323599e-02  3.23104709e-02  3.44614089e-02
  -1.55449361e-02  1.35129467e-02  9.91407037e-03  5.25996462e-02
  -3.27531807e-02  3.38610560e-02  3.00747678e-02 -3.63025703e-02
   3.17579359e-02  6.09112009e-02 -3.34593020e-02 -7.46729523e-02
  -5.46202809e-03 -5.38316593e-02  3.39022279e-02  2.56140828e-02
   3.33592668e-02 -1.69126987e-02 -7.37619027e-02 -3.60456631e-02
  -3.15285660e-02 -5.59168495e-02  5.87739050e-03 -5.60134649e-02
  -1.56738460e-02 -4.73643318e-02  6.49544597e-03  7.84272477e-02
  -2.24703550e-03  6.72888383e-02  7.12276921e-02 -3.79795693e-02
   7.71570876e-02  4.59571183e-03 -2.43148357e-02  1.22803971e-02
  -5.95349073e-03  6.99773654e-02  5.20668998e-02 -1.94474645e-02
   1.11523420e-02  6.62860200e-02 -7.77444541e-02 -1.41418502e-02
  -2.95901336e-02  4.47509512e-02 -5.11156023e-03  4.76259962e-02
   3.16807553e-02  1.44273192e-02 -7.92160630e-03  4.26988676e-02
   4.55561057e-02 -5.40301464e-02  7.36183152e-02  2.48264670e-02
  -5.44317067e-03 -1.68038160e-03  6.12235442e-02 -5.73329143e-02
  -3.42989117e-02  3.36425304e-02 -3.75365093e-02  7.59076998e-02
  -6.06704354e-02 -7.49426782e-02  4.58361283e-02  4.83336672e-02
  -6.79888427e-02  5.57046756e-02 -4.69232611e-02  2.42316276e-02]
 [-6.91496581e-02 -3.98645326e-02 -6.44720197e-02 -6.15743846e-02
   2.06311643e-02  5.86082563e-02 -6.73382059e-02  3.47411186e-02
   7.91253075e-02  5.72232679e-02 -2.59541646e-02  5.35844490e-02
   7.65619501e-02 -6.20197058e-02 -6.94714710e-02 -4.62390371e-02
   3.00529376e-02 -1.82917714e-02  3.52737159e-02 -7.14735985e-02
   4.09046635e-02  2.87740380e-02  5.90290949e-02 -3.67554948e-02
  -6.98958486e-02 -6.51095957e-02  2.14331597e-02 -4.50013652e-02
   5.83206937e-02 -4.63010743e-02 -4.87436950e-02  2.78239623e-02
  -7.94144720e-03 -1.71112046e-02  9.96156782e-03 -7.05848113e-02
   1.69507712e-02 -3.13198455e-02 -6.96917549e-02 -2.85304114e-02
   4.43782881e-02  1.68573707e-02 -2.84386910e-02  7.51036927e-02
  -7.91657567e-02  4.27194238e-02 -5.71251437e-02 -7.62195662e-02
  -7.69351795e-02 -5.70146255e-02 -1.34941861e-02 -7.57582709e-02
   3.59021351e-02 -3.24237943e-02 -3.11276428e-02 -6.81888387e-02
  -8.10707137e-02 -7.19965845e-02  6.83910176e-02  4.38798591e-02
  -1.66827813e-02  1.98801979e-02 -7.23861605e-02  5.96971065e-03
   5.51239923e-02 -7.89499283e-03  4.79221568e-02  3.64442244e-02
  -3.51491198e-02 -1.25358999e-02 -4.16906849e-02 -6.30740076e-03
   6.69564083e-02  3.42688411e-02 -4.15408351e-02 -3.99106555e-02
   3.60258818e-02  2.42078379e-02  5.41655943e-02  1.94396749e-02
   7.35108331e-02 -7.51187578e-02  4.22681123e-02  6.71818852e-05
   1.70425549e-02  6.17569312e-02  7.84601793e-02  3.36231142e-02
  -5.08048683e-02 -3.35285813e-03  6.41404763e-02 -5.49638569e-02
   5.31833544e-02 -3.08599249e-02 -3.60429287e-04 -4.76352610e-02
  -7.19618350e-02 -7.60625005e-02  1.36621594e-02  2.88625285e-02
   4.56760004e-02 -6.99317008e-02 -3.91339511e-02 -3.42069566e-03
   2.60209814e-02 -1.35073215e-02  7.09061250e-02 -3.46277207e-02
   6.75215498e-02 -2.95241699e-02 -2.94496603e-02 -5.14423549e-02
   7.55721107e-02  3.62885520e-02 -2.32868344e-02 -4.73967940e-03
   2.96616256e-02  2.73131058e-02 -1.88797116e-02  6.56244382e-02
   2.51758918e-02 -4.47469503e-02  4.88572344e-02  5.85264191e-02
   1.13751963e-02 -9.85709578e-03  6.19825944e-02  2.67554671e-02]
 [-1.52057856e-02 -6.88687935e-02  6.39213249e-02  5.06253541e-03
  -4.97064888e-02  2.58613825e-02  3.84501368e-03  3.15293670e-03
   5.06853238e-02  3.71154174e-02  7.16578141e-02  6.03161976e-02
  -7.64966309e-02  5.58180362e-03 -3.10813859e-02 -6.62434027e-02
  -6.33841231e-02  3.43797654e-02 -2.69429125e-02 -5.49948588e-02
   4.59198430e-02 -3.11352313e-03  3.57410461e-02  6.91339746e-02
  -7.33541772e-02  7.11374059e-02  5.40580526e-02  2.26664990e-02
  -6.02006502e-02  3.21786031e-02  6.45736381e-02 -3.52198407e-02
   2.61435658e-02 -6.09951057e-02  7.03460053e-02 -7.20041096e-02
  -2.09826753e-02  4.87906262e-02 -2.54358351e-03  2.15077102e-02
  -4.54070419e-02 -7.41069540e-02 -5.49948364e-02 -4.69406284e-02
   4.34169993e-02  2.39151344e-02 -3.84396873e-02 -7.73742571e-02
  -4.00815085e-02  7.87348226e-02  7.17663392e-02 -5.65942526e-02
   3.67241874e-02  6.39580563e-02  4.35151160e-04  1.12854689e-03
   2.54663527e-02  4.18210104e-02  5.88762239e-02 -6.69130087e-02
   5.77972904e-02  3.69400755e-02 -2.43462995e-02  6.40879348e-02
  -7.01529309e-02 -3.23787145e-02 -7.24149719e-02 -7.17073679e-03
  -3.67318243e-02  2.60497555e-02  3.65905762e-02 -7.48301297e-03
  -6.09022602e-02  5.03961667e-02  2.67611444e-03 -6.22586533e-02
  -2.93688476e-03  6.17884025e-02  5.78977093e-02 -4.46720347e-02
   1.46560892e-02 -2.61037275e-02 -6.38462305e-02  3.77495214e-02
  -4.93217930e-02  2.58394480e-02 -5.50811253e-02  6.25294670e-02
   3.65896523e-02  8.10159668e-02 -4.69514579e-02 -8.52850080e-03
   6.93702921e-02 -3.83111089e-03 -1.27581730e-02 -7.81078786e-02
  -7.15207458e-02 -4.07936983e-02 -7.43819848e-02 -6.43885881e-03
   6.31496385e-02  6.57085702e-02  7.57759809e-03 -4.44653668e-02
  -4.95103039e-02 -3.95189561e-02  9.15507972e-03 -8.05349275e-02
  -6.96591437e-02  6.68692514e-02  7.79971108e-02 -5.25671840e-02
  -4.79097106e-02  6.45867512e-02 -1.39471292e-02 -7.69031569e-02
   4.78553697e-02 -6.61801100e-02 -6.66898489e-02 -2.75434814e-02
  -1.54483616e-02  3.30023393e-02  2.91736424e-02 -2.90072374e-02
  -2.64168344e-02 -1.36742890e-02  7.52765611e-02 -7.65220076e-03]
 [-4.97750044e-02 -5.90706356e-02  6.02758005e-02  4.26948071e-04
   5.65561727e-02 -5.14286235e-02  1.85565650e-02 -2.30245665e-02
   2.82348096e-02  1.71747133e-02  8.07323679e-02  7.56357983e-02
   5.44587746e-02 -6.61490709e-02 -4.48996648e-02  7.91436210e-02
  -4.08886895e-02 -5.65133020e-02  4.47622314e-02  7.38976970e-02
  -5.91028705e-02  5.21159247e-02  7.14664087e-02 -1.40772164e-02
   4.70088795e-02  5.65826669e-02 -6.49136081e-02 -5.21302149e-02
   4.63624522e-02  7.52787963e-02  4.03718501e-02  6.30255565e-02
   1.43864006e-02 -3.67180556e-02  6.89510778e-02  2.40239277e-02
  -4.03623953e-02 -2.51150765e-02 -1.21565014e-02 -2.17965282e-02
   5.64429089e-02  2.97339708e-02  1.68330595e-02 -2.88558565e-02
   1.36389956e-02 -7.99814090e-02  7.38715455e-02 -1.62132084e-04
  -5.41130081e-02  1.72912851e-02  4.22458127e-02  3.09318230e-02
  -6.53041229e-02 -6.25057742e-02 -3.11685242e-02  6.38034195e-03
   1.54249817e-02 -2.99367122e-02 -8.10169578e-02 -3.90959904e-02
   4.09530476e-02 -4.60895114e-02  3.43084335e-03  2.37060264e-02
  -3.13465707e-02  7.73438588e-02  3.70174721e-02 -8.50600749e-03
   7.55222067e-02  7.56190494e-02 -5.95733747e-02  6.34689704e-02
   6.01157919e-02 -1.09215751e-02  2.32235342e-03 -7.30629414e-02
  -6.76772445e-02 -4.44276184e-02 -3.58510986e-02 -6.26036823e-02
  -8.05209503e-02  4.30091545e-02  6.11855313e-02 -1.43601969e-02
  -4.35623042e-02  4.04424742e-02  5.72966784e-03 -3.99692096e-02
   5.72360083e-02 -6.02402166e-02  2.83911750e-02  7.92288855e-02
  -3.96448895e-02  8.65249336e-03  2.51557082e-02  7.81342611e-02
  -6.81172311e-02 -6.36115670e-04  3.48306745e-02 -2.12969780e-02
  -1.77877173e-02 -7.94513300e-02  4.81438637e-03  2.49956623e-02
  -6.85559362e-02  7.77351484e-02  3.64085436e-02 -1.26779824e-03
  -3.51012573e-02 -7.85999000e-02 -1.19666979e-02  5.32281324e-02
  -3.08632515e-02 -7.42243379e-02 -3.31103019e-02  1.94309130e-02
  -7.60623068e-02  1.64977908e-02  3.82965803e-02  3.53031456e-02
  -2.76818126e-03 -2.25661136e-02 -3.70133705e-02 -5.22965938e-03
   7.09092394e-02 -4.68073115e-02 -1.96808763e-02  1.19869038e-02]
 [ 3.73842418e-02 -3.38861160e-02  2.21578851e-02  1.83101818e-02
  -8.38100910e-04 -2.67131552e-02  5.67579493e-02  4.69483957e-02
   3.17086801e-02  1.89825520e-02  3.18623260e-02 -9.31671262e-03
  -6.77517503e-02  6.02211431e-02  3.43908295e-02  2.11699456e-02
   2.09788084e-02 -2.19805874e-02  2.60354802e-02 -9.35764611e-03
   1.92160904e-03 -1.17317140e-02  6.93049505e-02  6.17483929e-02
  -7.21393600e-02 -7.25957081e-02  6.59868047e-02 -4.20287587e-02
  -5.22856377e-02 -3.99022214e-02 -6.60673901e-02  7.66335949e-02
  -1.18231624e-02 -4.27699089e-03  4.44132909e-02 -5.20968363e-02
   4.94656041e-02 -7.29591921e-02 -2.39133835e-04  1.77724585e-02
  -6.03340268e-02  3.01947072e-02  4.81862053e-02 -5.69526851e-02
  -6.80263937e-02  6.40381053e-02 -7.52107054e-03  6.22260198e-02
   1.92116201e-03 -4.74046506e-02 -7.68464580e-02  6.05459139e-02
  -5.59062324e-02 -4.64384332e-02 -3.70031595e-02  4.26850393e-02
   2.56816521e-02 -4.24521305e-02 -5.45467511e-02 -7.60737807e-03
  -5.70167527e-02  3.26633453e-03  2.85788327e-02 -4.82150018e-02
   8.75100493e-03 -1.26811117e-03  6.59959689e-02 -5.05552851e-02
  -7.80518129e-02 -2.77209505e-02  1.89733505e-02  1.66191831e-02
   7.50012919e-02 -2.93673947e-02 -4.56831567e-02 -4.62704413e-02
   7.46897981e-02 -6.06869683e-02 -6.94423839e-02 -3.38045470e-02
   7.56891444e-02 -1.20956227e-02 -2.30169669e-02  2.36845985e-02
   3.25999036e-02  5.44049218e-02  5.70031255e-03  1.96815133e-02
   1.88030377e-02  2.51464248e-02  6.12059236e-03  3.18603292e-02
  -7.66322762e-03 -6.06365949e-02  6.90962151e-02 -5.67506403e-02
  -2.02490389e-02 -2.15128809e-03 -2.84154452e-02  4.70415726e-02
  -5.12333065e-02 -6.13737702e-02  5.51641211e-02  7.15884566e-03
   7.27409795e-02 -8.00437406e-02  7.70603046e-02  3.47490311e-02
  -5.99518642e-02 -5.07963002e-02 -3.21948640e-02 -4.50575240e-02
  -1.93248391e-02 -1.93626434e-03  2.73355022e-02  2.71987766e-02
  -5.62081411e-02 -2.69393139e-02  1.86166540e-02  3.24358046e-02
   5.43336645e-02  6.14230856e-02  2.14156955e-02  5.85929081e-02
   2.68238857e-02  5.71585223e-02 -5.28682619e-02 -1.65636763e-02]
 [ 7.86813721e-02  3.75892110e-02 -1.16559006e-01  4.52627167e-02
  -7.80936405e-02  2.24278378e-03  2.12619826e-02 -7.84637108e-02
  -1.04577824e-01  5.68027422e-02 -3.02624144e-02 -6.44221976e-02
   6.98324069e-02  3.44054475e-02  9.11606178e-02  1.21166319e-01
  -4.89061549e-02 -1.50044085e-02  6.55207932e-02  1.21513546e-01
  -1.03850976e-01  1.94373250e-01 -8.92104581e-02 -1.57942742e-01
  -3.77967022e-03  6.86756074e-02 -4.96149121e-04 -2.29028706e-02
   8.53773654e-02  1.23812482e-02  1.59677546e-02  1.43653214e-01
  -7.30444044e-02 -1.46964816e-02 -5.02897240e-03  2.12788247e-02
  -1.07625239e-01  4.31705564e-02  2.98123062e-02  4.40887325e-02
   1.38489783e-01 -5.25144748e-02  9.99268144e-03  1.40406579e-01
  -6.41189814e-02  3.77610102e-02 -1.79401189e-02  8.89912620e-02
  -4.94094267e-02 -5.22145405e-02  5.53589985e-02 -1.48508668e-01
   5.84504791e-02  3.96488905e-02  3.07464395e-02 -3.14793289e-02
  -4.19085287e-02  3.02130394e-02  9.07085463e-02  1.40342698e-01
  -5.41015267e-02 -7.50477538e-02  1.40851885e-02 -3.66190784e-02
  -2.72319485e-02  3.22453789e-02 -1.58521235e-02 -1.22720145e-01
   6.73111482e-03 -7.53816068e-02 -1.82862617e-02 -6.70943526e-04
  -3.35413255e-02 -1.83624756e-02  1.19328313e-02 -2.87315380e-02
  -5.42450137e-02  6.62823617e-02  7.52398074e-02  1.79247409e-01
   3.78374904e-02 -1.15708575e-01  1.01640224e-01 -6.58883750e-02
  -6.66924119e-02 -1.64758742e-01  6.09821603e-02 -7.75358900e-02
  -6.98967576e-02 -6.47003055e-02  1.36766225e-01  3.09137125e-02
   1.27041042e-02  1.91397965e-01  6.34147078e-02  1.88310239e-02
  -9.97498631e-03 -9.70926061e-02  1.08304834e-02 -6.68490380e-02
   1.05541363e-01 -2.53148247e-02  9.68719348e-02  2.36827997e-03
  -4.48344648e-02  3.71534079e-02  1.17235109e-02  5.16092405e-02
   1.23652250e-01  5.05525842e-02  2.83256825e-02 -8.49741101e-02
   6.92789927e-02  5.06628379e-02  1.42656177e-01 -4.68516164e-03
  -2.50853300e-02  2.60704085e-02 -5.17247468e-02  8.58210996e-02
  -7.39265829e-02 -7.78601766e-02  5.45787141e-02 -4.33843990e-04
   3.89668345e-03 -6.87585995e-02 -7.69220889e-02  1.39213696e-01]
 [ 6.92756549e-02  6.12861179e-02 -1.64041936e-01 -2.25311890e-02
  -5.29858023e-02  3.06712240e-02  8.75535142e-03  2.47317441e-02
  -3.18838768e-02 -1.30181983e-02 -1.89635530e-02 -7.93681890e-02
  -4.20175958e-04  4.90126684e-02  8.75619724e-02  7.21568316e-02
  -2.94169001e-02 -7.63885155e-02 -6.96776509e-02  4.62223403e-02
  -6.84742257e-02  1.21594250e-01 -6.18399940e-02 -1.05492003e-01
   1.40136639e-02  1.44263431e-01  1.20099463e-01  2.23996677e-02
   1.83294609e-01 -2.57370546e-02  1.64867565e-02  1.27806023e-01
  -4.34189923e-02 -1.18971564e-01  5.95184863e-02  5.53450026e-02
  -5.88802248e-02  1.59380361e-01  1.22089885e-01  1.50089031e-02
   1.37327850e-01  1.08915798e-01  7.65504017e-02  1.18573532e-01
  -4.38977182e-02 -1.07893422e-02  7.13556930e-02  1.21897317e-01
   3.85598503e-02  1.35763269e-02 -4.17289957e-02 -9.15854648e-02
   7.98590630e-02  1.40273636e-02  2.98503395e-02 -1.97608806e-02
   3.55118699e-02 -4.12168540e-02  1.15484754e-02  1.25054210e-01
   4.10337895e-02 -3.98227647e-02 -5.31070717e-02  5.59757240e-02
  -8.64372030e-02 -2.54114233e-02 -1.32124171e-01 -4.13570777e-02
   5.05207404e-02 -4.98854406e-02 -1.15200646e-01 -1.07668675e-01
  -3.54193598e-02 -1.49907637e-02  1.39088467e-01 -1.35845199e-01
  -4.10548449e-02  2.00675920e-01  1.05565183e-01  3.69627913e-03
  -2.69509852e-03 -1.60596043e-01  8.02212432e-02  1.05085470e-01
   1.44893937e-02 -1.53420895e-01 -1.15566440e-02 -1.65611431e-02
  -4.76291822e-03  7.68995807e-02  2.34251991e-01  1.00962454e-02
  -7.16858357e-02  2.03685969e-01  1.21882841e-01  1.03394039e-01
   7.08729029e-04 -3.44863161e-02 -1.27004227e-03 -2.83382460e-02
   3.55182178e-02  1.68861270e-01  1.34118468e-01 -1.10122867e-01
   1.06764458e-01  1.87925603e-02 -1.11857295e-01  3.87175977e-02
   5.83261251e-02 -6.79058433e-02  1.02111846e-01  2.62166038e-02
   1.25241429e-01  7.50815868e-02  1.60313711e-01  1.33617222e-02
  -4.10460029e-03 -7.70466700e-02 -7.53194392e-02  5.73210232e-02
   5.30139804e-02  4.63203974e-02  7.62325674e-02  9.04098805e-03
   3.80643457e-02 -4.89123240e-02  1.82797760e-02  1.30901814e-01]
 [-7.54405037e-02  2.49819253e-02 -5.53341024e-02  7.57794902e-02
  -3.21282856e-02 -3.91461700e-03 -8.31550453e-03  3.51856314e-02
  -1.99561007e-02  4.93310392e-03 -1.83203723e-02  1.86441690e-02
   4.64158878e-02 -4.09823842e-02 -1.03845410e-01  5.07292449e-02
  -4.26219404e-02 -7.13644177e-02  3.23529504e-02  1.21733598e-01
  -6.38357475e-02 -9.67328325e-02  1.53079946e-02  5.07371798e-02
   3.71009000e-02 -5.87303787e-02  1.76840797e-01 -8.83908868e-02
   1.15090720e-01  7.02830777e-02 -7.35843778e-02 -1.87810227e-01
   1.11189455e-01 -1.92396939e-02 -7.55727291e-02  4.94172834e-02
   3.73310372e-02  1.25528261e-01  1.27809942e-02 -3.52635384e-02
  -2.74977088e-02  4.84466553e-02  6.67676255e-02 -7.47714564e-02
   1.81418806e-02  6.19385019e-02  7.62754008e-02  4.69653234e-02
  -4.60180752e-02  1.25838220e-01  1.42607167e-02 -1.16237747e-02
  -1.08726416e-02  6.83597103e-02  3.01659107e-02  4.33846861e-02
   1.72015131e-02  1.01076104e-01 -1.65379122e-01 -6.70314357e-02
  -2.12704521e-02  5.14618494e-02 -4.91898656e-02  2.03309476e-01
   5.23093976e-02  5.24163768e-02 -1.24837868e-01  1.58078641e-01
  -8.53433385e-02  2.76938081e-05 -6.57896698e-03  8.27182271e-03
  -7.62346908e-02  1.02517992e-01  1.84281424e-01 -1.82343610e-02
  -5.32500967e-02  1.12236001e-01  2.21525505e-02 -6.14629835e-02
   4.28766832e-02  5.00553474e-02 -4.15233038e-02  7.35973287e-03
   1.67002603e-01 -6.74885511e-02 -2.45570913e-02 -4.90944721e-02
   1.24668695e-01 -2.34658271e-02  2.15533078e-02 -1.30232900e-01
  -1.60693750e-02 -6.30432963e-02  9.93992761e-02 -1.32429212e-01
   2.02798024e-02 -1.70324534e-01  7.77371600e-02  5.53991571e-02
  -5.37324473e-02  1.18482091e-01 -1.38117718e-02 -8.07471648e-02
   8.41020271e-02  1.37254134e-01 -1.38922080e-01 -3.30123343e-02
  -4.22759950e-02 -2.32143924e-02  1.07195705e-01 -5.54406568e-02
  -3.88682596e-02  4.26360555e-02  4.82975133e-02  4.03604098e-02
  -6.51495755e-02  8.76564533e-03  1.68080777e-01  1.09486170e-01
   1.46169513e-02  7.21765757e-02 -6.18697219e-02  1.41678140e-01
  -6.35654926e-02  7.57128522e-02 -8.04365352e-02  2.30537895e-02]
 [-6.16626255e-02 -3.39883938e-02 -1.37358084e-02  3.79136056e-02
   4.49127927e-02  2.50813290e-02 -6.45797551e-02 -3.68847065e-02
   2.19754875e-03 -5.52737527e-02  3.94928362e-03  6.89753070e-02
  -1.21076768e-02  7.37950280e-02  1.41051989e-02  9.99395326e-02
   5.50037399e-02  7.22777918e-02  5.93457259e-02  7.52925202e-02
  -4.04611304e-02  4.20001559e-02  1.99890044e-02  7.97752067e-02
   2.62598670e-03 -8.00238401e-02  1.14710769e-02 -5.50490543e-02
  -2.23260000e-02 -4.83315922e-02 -8.54156911e-03 -3.99670154e-02
  -3.68973725e-02  2.38224864e-04  3.56543660e-02  1.07814334e-01
   5.91589883e-02 -8.46876297e-03  4.02093679e-03  1.58488099e-02
  -3.43198925e-02  5.19387200e-02  1.39551759e-02  1.77022964e-02
   7.30072632e-02 -6.14733994e-02 -6.51319772e-02  6.52365685e-02
  -4.96279560e-02  1.55598409e-02 -1.51244104e-02  4.89708558e-02
  -4.70887199e-02 -5.40473163e-02 -1.12069100e-02  3.03787887e-02
  -6.35839030e-02  2.84246728e-02 -1.67268142e-02  2.09571701e-02
   4.82310094e-02  6.01128563e-02  7.57996216e-02  1.78647898e-02
   7.63421040e-03 -6.51328638e-02 -7.62847485e-04  4.49910834e-02
  -8.04025382e-02 -1.81025788e-02  1.91784278e-02 -7.78463185e-02
   7.06513599e-02  7.07468390e-02  6.79639056e-02 -5.19078933e-02
   2.20267326e-02  1.23739660e-01  7.94340819e-02 -1.08033195e-01
  -2.40250714e-02  6.37231320e-02  2.29986627e-02 -1.05420426e-02
   9.82173681e-02  1.77806672e-02 -4.92202193e-02  6.63579330e-02
   6.78269789e-02 -4.42660451e-02 -2.70730257e-03 -2.31329855e-02
   7.62445405e-02 -6.43866062e-02  5.77812344e-02  2.04279833e-02
   6.20859936e-02 -1.26954848e-02  6.41481504e-02  1.00437924e-02
  -1.39797563e-02  8.30073506e-02  4.82856855e-02  4.74209748e-02
   1.19264215e-01 -3.82529236e-02 -9.14350897e-02 -6.91749007e-02
  -2.68984440e-04 -3.08586098e-02  7.86029994e-02 -7.76394177e-03
  -3.34566906e-02  1.10469703e-02 -5.56803606e-02  7.23932609e-02
  -2.19102073e-02 -3.64784747e-02  3.33904033e-03  1.31499150e-03
  -4.37043607e-03  2.53457185e-02 -6.41686618e-02 -3.55388783e-02
   2.28338912e-02  1.59782320e-02  4.70137224e-02 -2.53398195e-02]
 [ 5.62313125e-02 -3.01571898e-02  4.97861579e-02 -5.57713285e-02
  -7.35192001e-03  2.66740322e-02  3.25112417e-02  2.49601752e-02
  -9.60533321e-03  4.71621677e-02 -7.68617764e-02  2.99710780e-02
   6.82479367e-02 -1.66172460e-02  3.40186805e-02  3.22770327e-02
  -1.42354444e-02 -5.46602458e-02 -1.46043226e-02 -3.32365409e-02
   1.48447007e-02  4.89015952e-02 -7.15781078e-02 -4.89443094e-02
  -4.98109758e-02  6.23190030e-02 -3.26796584e-02 -6.15993142e-02
   1.08363554e-02 -5.32850027e-02  2.40980759e-02  8.10021833e-02
  -2.67310999e-02  7.41125271e-02 -3.32325213e-02  2.22206935e-02
  -5.58721796e-02  6.34586737e-02 -1.76028609e-02  4.73028496e-02
  -4.16834541e-02  1.94675177e-02  2.63930112e-02 -7.95177966e-02
  -3.77353653e-02 -2.04862617e-02  5.29892221e-02 -4.03876156e-02
   7.81069472e-02 -7.29031116e-02  7.30571821e-02 -1.74574777e-02
  -5.21158651e-02  7.21148476e-02  7.30380416e-03 -3.30901146e-02
  -4.09819372e-02 -9.13234055e-03 -4.48226929e-05 -2.08164826e-02
   4.81260046e-02  1.56768411e-02 -4.91070971e-02 -2.21519656e-02
  -1.25409067e-02  6.19349107e-02  3.61845121e-02  7.80790076e-02
  -6.29151091e-02 -5.77253476e-02 -4.23530228e-02 -3.39676663e-02
  -4.85284962e-02  6.06196746e-02 -6.83010593e-02 -7.89640844e-03
   1.37143955e-02  7.22428188e-02 -4.17578109e-02  9.23678279e-03
   4.03426737e-02  6.52892366e-02 -4.46011201e-02 -1.11536160e-02
  -7.46548697e-02  1.67073309e-03  1.02009624e-03 -7.08432868e-02
  -7.71807954e-02  5.72592393e-02  5.79120219e-03 -5.61596006e-02
  -1.94876678e-02  9.54969972e-03 -7.32668489e-03 -4.11771759e-02
   7.32626989e-02 -3.52623276e-02  7.50127956e-02  1.60156339e-02
   5.83959594e-02 -7.58568197e-02 -4.79814745e-02  5.21403626e-02
   7.29622319e-02 -6.41776323e-02  6.24486282e-02  6.46578595e-02
  -2.63328291e-02  7.04964325e-02  4.02066037e-02  3.85918990e-02
   7.11235031e-02  1.35534629e-02  1.65783763e-02  2.58584619e-02
   5.34341410e-02  4.37596515e-02 -3.12899500e-02 -2.06354558e-02
  -6.78174272e-02 -3.93814631e-02 -6.30989969e-02  2.69604549e-02
   1.93724483e-02 -5.59996963e-02  7.18632862e-02 -5.98407611e-02]
 [-8.54074210e-03  6.38692006e-02  2.45937183e-02  1.23237967e-02
   5.16051278e-02 -5.08782938e-02  3.12714204e-02  7.98317865e-02
  -2.23472826e-02  1.18246153e-02 -3.11223455e-02 -2.70902514e-02
   5.26108369e-02  2.09487975e-03  1.80269107e-02 -8.05381387e-02
   3.85334194e-02 -5.97569123e-02  1.51142329e-02  1.89894736e-02
  -1.84384286e-02 -4.46267836e-02  6.96631745e-02  5.39750680e-02
  -2.36813724e-02 -6.28562272e-02  4.34043705e-02 -7.35040307e-02
  -2.79961340e-02 -4.51776534e-02 -7.93378875e-02 -3.10044177e-02
  -7.99426585e-02  2.99872234e-02  7.90972039e-02  4.54576090e-02
   4.95139435e-02 -1.16863847e-02 -7.02874511e-02 -5.72241172e-02
   7.89866522e-02 -3.86424288e-02  1.13577917e-02  3.21399868e-02
  -8.02318230e-02 -1.91883296e-02 -4.85058874e-03 -6.28472865e-02
  -6.13239147e-02  5.83211407e-02 -3.37322988e-02 -5.77470809e-02
   7.38856718e-02 -6.41621575e-02 -4.26844247e-02  6.09940216e-02
   1.01055950e-02  5.94085529e-02 -6.84873611e-02  1.90957189e-02
   3.41442823e-02  7.86027685e-02 -3.68566327e-02 -1.28171146e-02
  -2.39119679e-03  3.05756927e-04 -2.30603442e-02  7.49984756e-02
  -2.98021361e-02  4.62384596e-02 -2.83411890e-02 -4.30181623e-04
   1.70780420e-02  4.70899045e-03 -4.98506576e-02  2.74448991e-02
  -3.32083851e-02 -4.62482981e-02  1.77870169e-02  2.51713470e-02
   5.55914268e-02  5.66595718e-02 -5.02036959e-02 -1.97271146e-02
  -6.48517981e-02 -5.93935847e-02 -6.28003776e-02  3.13073173e-02
  -6.09425232e-02 -6.87465370e-02  1.71582922e-02  6.09213635e-02
   2.91240960e-02 -8.73441249e-03  7.48369321e-02 -7.19025657e-02
  -2.67962702e-02 -3.81210484e-02  2.88459659e-03 -3.00941281e-02
  -7.12357014e-02  7.18118250e-03 -4.34226617e-02 -7.60460049e-02
   7.72761926e-02 -3.24945152e-03 -3.56055796e-04  1.00312978e-02
  -5.38366288e-02  3.05814296e-02 -2.27369294e-02  5.08826301e-02
   1.11051723e-02 -5.97345009e-02  5.35301194e-02  1.75050646e-02
   5.02366498e-02 -2.11949646e-03  1.95319355e-02  4.05533612e-02
   3.72940451e-02 -1.91759542e-02 -4.84835356e-02 -5.40024936e-02
  -3.55251543e-02 -8.04522038e-02 -2.32799090e-02  4.79420796e-02]
 [-7.27187768e-02 -7.75502175e-02 -1.75537616e-02 -1.23771504e-02
  -1.94944181e-02  3.81261930e-02  6.27773032e-02 -5.81343323e-02
   4.92249653e-02  3.56123671e-02 -3.52236703e-02  7.21110329e-02
   3.35722193e-02  1.62274241e-02 -4.83411290e-02  2.26365402e-02
   2.92089581e-02 -1.42975599e-02  2.87410095e-02  7.02702329e-02
   4.54087630e-02  6.42709211e-02  1.48178339e-02  2.23136693e-03
   6.14405498e-02 -7.74196833e-02 -5.42740412e-02 -8.04900080e-02
  -4.34079021e-03 -4.69463132e-02 -6.13838434e-04 -7.58353919e-02
  -4.27459925e-03  6.96038529e-02  5.45514748e-02  1.84221640e-02
   9.00045037e-03 -4.95213047e-02  2.05269083e-02  1.62241757e-02
   3.87617052e-02  2.03963146e-02 -5.78718558e-02 -7.36369565e-02
   6.05653971e-03  5.69107011e-02  7.93521479e-02  1.78205892e-02
  -6.96925223e-02  2.25073844e-02 -8.99364054e-03 -7.17864558e-02
   5.81830516e-02 -2.42169090e-02  1.60759315e-02  3.81161198e-02
  -5.72383516e-02 -4.88074310e-02 -3.14798318e-02 -4.37695719e-02
   4.99194860e-03 -6.94480538e-02 -6.11865744e-02  7.40640685e-02
   5.30217662e-02  5.75911924e-02 -7.60294348e-02  6.64778873e-02
  -7.60577098e-02  1.86175629e-02 -4.86325957e-02  8.06422755e-02
   3.61473113e-03 -7.99076930e-02 -6.67381957e-02 -5.87389618e-03
  -3.57053466e-02  3.63305509e-02 -3.34726050e-02 -3.50770652e-02
  -5.25239632e-02  1.41126439e-02 -3.21124457e-02 -1.76708922e-02
  -5.17501980e-02  5.00638559e-02  2.37482041e-03 -1.74631402e-02
   1.79151371e-02  3.60586941e-02  6.60290048e-02  5.08646443e-02
   6.89394698e-02 -2.37371437e-02  7.07691684e-02 -7.36218393e-02
   5.11363968e-02  3.61023247e-02 -1.26902387e-02 -7.87426159e-02
   6.44675121e-02 -4.75383550e-02 -5.61220869e-02 -8.05920586e-02
  -4.39388007e-02  1.77971125e-02 -4.43994813e-02  1.17645487e-02
   4.57986370e-02 -5.26637398e-02  4.32330891e-02 -4.82313447e-02
   3.00349742e-02  4.51647416e-02 -7.53192380e-02  7.33737275e-02
   2.27288231e-02 -1.74854398e-02 -7.97990486e-02  6.43109456e-02
   5.87318316e-02  1.06320232e-02  3.61536890e-02  4.69565317e-02
   8.07679221e-02 -1.84320882e-02  6.51723966e-02  2.35205740e-02]
 [ 3.30994502e-02  7.41490200e-02  7.12665841e-02  2.58344412e-02
  -4.94466200e-02 -4.29332480e-02  5.89672700e-02  7.76739493e-02
   7.08378851e-04 -2.82834806e-02 -5.23035228e-03 -5.94176203e-02
  -2.72420570e-02  3.64769101e-02 -1.04973540e-02 -3.27870622e-02
   3.81450877e-02 -2.71719731e-02  3.03748772e-02 -1.44516304e-02
  -6.87950104e-03 -5.78263700e-02 -1.72499195e-02 -6.97694123e-02
   6.66155741e-02 -1.62335187e-02 -3.83534171e-02  1.94413364e-02
  -2.06263661e-02  2.83916220e-02 -4.32047024e-02 -2.45745890e-02
   2.97170505e-02  5.54525778e-02 -8.02104324e-02 -5.08500040e-02
  -1.61592737e-02 -7.14233220e-02 -7.75267631e-02 -1.07030720e-02
   8.07049647e-02 -3.80185544e-02 -3.02897133e-02  6.96676746e-02
   6.97841123e-02 -7.80474246e-02 -2.17003189e-02 -6.18081242e-02
  -5.85666299e-03 -7.31203333e-02 -5.80254011e-02 -5.99587634e-02
   3.54604498e-02  7.71526471e-02  2.07038969e-02  2.75143608e-02
  -3.88436057e-02 -7.93714002e-02 -7.85880461e-02  2.12277323e-02
   4.46699783e-02  3.42602506e-02 -4.86945920e-02  2.04829946e-02
   6.97641894e-02 -7.17359036e-02 -3.02784592e-02  5.04831746e-02
   2.89896950e-02 -3.79018113e-02  2.71028429e-02 -4.28475440e-02
   2.90933922e-02  4.35604900e-03  8.10743198e-02  4.32181060e-02
  -5.95570728e-02  8.60569626e-03 -3.31998952e-02 -2.16794908e-02
   4.22941744e-02 -1.02759898e-03 -9.11507010e-03 -6.57817572e-02
   6.73354939e-02 -3.40935178e-02  4.01633829e-02  4.99456376e-03
   6.10786900e-02 -9.41131264e-03  3.73580009e-02  4.06865627e-02
  -3.81776132e-02  6.83845952e-02 -6.85530528e-02  4.30741906e-02
   7.33752921e-02 -1.70972422e-02  3.43866721e-02  6.09237626e-02
   2.15683505e-02 -3.64508182e-02 -3.86197828e-02  1.01809949e-02
   5.69823459e-02  3.56639177e-03 -2.47290246e-02 -4.30323407e-02
  -1.71353221e-02  6.67711720e-02 -1.17643774e-02 -2.61764787e-02
   7.74949566e-02 -5.29314801e-02 -2.39323638e-02  8.08546469e-02
   6.49443343e-02 -3.06542218e-02  5.53313866e-02 -6.66213483e-02
   2.70142481e-02 -7.50434399e-03  8.19921494e-04  5.12677208e-02
  -5.69956377e-02 -3.20437960e-02  8.87098163e-03  5.40155396e-02]
 [ 5.51724210e-02  4.03401032e-02  1.35899112e-02  4.31072563e-02
   3.42260450e-02  1.27310604e-02  3.81027758e-02  6.44339249e-02
   2.61096433e-02 -5.20064533e-02 -5.83698526e-02 -6.55748770e-02
  -6.66640326e-02 -4.84927595e-02 -5.88422716e-02 -3.10638249e-02
   6.89191297e-02  1.26305595e-02  6.03949204e-02  5.96127138e-02
  -7.60413110e-02 -6.37089834e-02 -6.10154495e-02  1.43537372e-02
  -3.89279798e-02  5.00557199e-02 -1.46193132e-02  9.07451659e-03
   8.09315592e-03  1.58339888e-02  2.02086791e-02 -5.14148921e-02
  -1.73318163e-02  8.04912373e-02  2.12372839e-02 -2.16292106e-02
  -4.37678695e-02  5.74912503e-02  7.80091435e-03  5.83767891e-04
   4.90883738e-03  5.94322011e-02 -2.06813216e-03  7.66725093e-03
   2.01209784e-02 -1.19757801e-02 -3.78114246e-02 -2.69282535e-02
  -6.14064187e-03 -3.56862992e-02 -6.52047396e-02  4.02830541e-03
   2.07271203e-02  8.03185776e-02 -6.67229742e-02 -2.39864737e-02
  -3.07053141e-02  7.01537058e-02 -7.15582818e-03 -2.06133313e-02
   1.00708678e-02  5.98045662e-02  5.02984896e-02 -6.80850074e-02
   7.09461495e-02 -4.09094580e-02 -3.49829830e-02  2.25081965e-02
   7.76995644e-02 -6.34579137e-02  6.82463869e-02  7.60171488e-02
   1.29029229e-02 -6.22621328e-02 -7.09277987e-02 -7.21256137e-02
  -5.95356524e-03  6.11529499e-03 -5.45309111e-02  2.35926509e-02
   8.55311751e-03  6.80369213e-02 -4.41178940e-02 -6.91451356e-02
  -3.61724459e-02 -7.57699460e-03 -9.80324298e-03  1.76985487e-02
  -9.63399559e-03  3.19700986e-02  6.13076165e-02 -6.22309968e-02
  -5.19660935e-02  2.01970190e-02  8.85488838e-03 -7.10398853e-02
  -1.70048997e-02  5.57122305e-02  5.99958822e-02 -7.18167797e-02
   5.09326532e-02  5.86561784e-02 -8.03359598e-02 -6.04709387e-02
  -5.46461269e-02  4.49988917e-02  6.64522722e-02 -2.93964781e-02
   6.62730858e-02  1.24642476e-02 -4.00904603e-02 -1.52696148e-02
  -6.05766028e-02  2.64467523e-02 -6.64539188e-02  1.14157274e-02
  -3.44937257e-02  7.60773793e-02 -6.16284162e-02  5.35135493e-02
   1.93183795e-02  6.75279722e-02 -2.58993581e-02 -5.78053892e-02
   3.21216136e-02 -1.88140757e-02 -7.60831982e-02 -5.70976436e-02]
 [ 1.43289417e-02 -5.54938838e-02  8.32387805e-03 -2.88540870e-03
  -5.62967286e-02 -7.87711143e-03 -7.06903636e-03 -1.16083398e-02
  -8.00396502e-03 -4.54156101e-02 -5.94120547e-02  7.51895532e-02
   6.68075010e-02  7.64264092e-02  1.22020990e-02 -2.30229236e-02
   6.68010190e-02 -6.99928403e-03  3.80503088e-02 -2.01557502e-02
   5.17127663e-03 -6.47393912e-02 -8.43480229e-03 -3.91889662e-02
  -7.11601675e-02 -5.33972606e-02 -2.04106681e-02 -8.04236382e-02
  -5.45453355e-02  2.95315981e-02  6.83551505e-02  4.58126292e-02
  -6.13015816e-02  2.87567452e-02 -5.56194447e-02 -1.91130266e-02
   2.09531859e-02 -4.16756794e-02  6.69655576e-02 -6.11727685e-02
  -1.02873370e-02 -4.35874052e-02 -2.12483816e-02  6.87095746e-02
  -1.28321350e-03 -3.09886001e-02 -2.90217586e-02 -2.10405923e-02
  -4.70334291e-03  3.73726338e-03 -3.85215469e-02  5.44251502e-03
  -5.37994988e-02  2.98941135e-02  5.69381043e-02  7.62253776e-02
   7.62324259e-02  2.54692733e-02 -5.40930144e-02  1.12622604e-02
  -3.06580327e-02  1.72679424e-02 -3.48351821e-02  2.75996178e-02
  -6.21532761e-02 -3.11595500e-02  5.01282737e-02 -4.68566418e-02
   4.21034619e-02 -2.32046098e-03 -1.92102417e-02 -6.70924932e-02
   7.75673166e-02  1.60300806e-02  4.89819795e-03 -3.83254737e-02
  -4.30095792e-02 -1.76088735e-02 -6.80900589e-02 -4.13391925e-02
   5.14495596e-02  1.38154551e-02  7.45829940e-03  5.68463430e-02
   5.78932986e-02 -8.09460059e-02 -2.46814154e-02  4.55258042e-03
  -7.86550939e-02 -2.33763121e-02  7.73033276e-02 -7.39758983e-02
  -9.17901844e-03  5.58871403e-02 -7.55206645e-02 -2.84837931e-03
   6.85580075e-04 -2.24979445e-02  6.69922158e-02  2.90890560e-02
  -3.73548865e-02  1.70264617e-02  1.65209621e-02 -2.42138319e-02
  -5.73947802e-02  6.57899007e-02 -6.09207898e-02 -5.53311296e-02
  -6.05973154e-02  6.12005368e-02 -7.55328685e-03 -5.68181127e-02
   1.15751475e-03  4.38508168e-02 -6.46326020e-02  6.58722594e-02
  -3.32115181e-02 -1.09265819e-02 -3.92121933e-02 -7.80548900e-02
  -1.99126489e-02  1.51817501e-03 -5.77968806e-02  4.65027317e-02
  -4.74828370e-02  3.89448404e-02 -5.63376099e-02 -2.43366882e-02]
 [ 7.39427581e-02 -3.10789868e-02 -3.49838547e-02 -3.73451188e-02
   6.29189834e-02 -3.40567194e-02  2.80712545e-03  2.17609853e-03
   1.33098587e-02 -6.90465122e-02  3.80387902e-03  1.45333260e-03
  -7.30758607e-02  3.56852338e-02 -5.19555137e-02  7.12531283e-02
  -6.60571381e-02  7.63637498e-02 -1.17757097e-02  7.64163360e-02
  -5.62671050e-02  1.41087994e-02  5.05413637e-02 -3.46252061e-02
   5.48194721e-02  3.53995711e-02  7.36524239e-02 -2.08804123e-02
   4.42742482e-02  7.90755525e-02  4.26024646e-02 -6.05965033e-02
   2.81285495e-03  3.02690193e-02 -4.94145602e-03  1.83863491e-02
  -7.16295838e-02 -5.12751192e-03 -5.49543649e-02  4.33328971e-02
  -6.67422190e-02 -5.55685684e-02 -7.20881671e-03  3.97118777e-02
  -7.91197121e-02 -7.03419447e-02 -8.04458931e-02  6.65026903e-03
  -2.70166695e-02  1.44336447e-02 -2.81366706e-03 -7.01136589e-02
   3.19258124e-02 -3.19806933e-02 -4.67569157e-02  1.56305879e-02
  -1.96550824e-02  4.35790420e-03 -4.03547399e-02 -7.84413293e-02
  -4.00691889e-02  4.91815284e-02 -1.93517208e-02  4.59697172e-02
  -5.95996529e-02 -3.72194797e-02  5.51674441e-02 -1.58045739e-02
  -1.05934814e-02 -4.22697328e-02 -4.46981601e-02 -6.64264783e-02
  -2.00448930e-03  6.92584142e-02  5.87608144e-02  1.61145851e-02
  -9.11269337e-03  4.97125164e-02  2.20432803e-02 -1.30175948e-02
   3.00979540e-02 -1.44290626e-02  7.03636482e-02 -3.33456881e-02
  -6.76540583e-02  7.43030533e-02  2.40951926e-02  5.92589155e-02
  -7.25051239e-02  5.18286005e-02 -7.21370429e-03  4.67661247e-02
  -1.75168365e-03  1.96970627e-02  4.96441200e-02  3.92666683e-02
  -3.14841457e-02 -7.03106746e-02  7.23923519e-02  4.95026484e-02
  -2.14149244e-02 -3.84216420e-02  5.81696406e-02 -7.01168180e-03
   9.03939456e-03 -6.02906719e-02 -1.14883408e-02 -7.65911192e-02
   4.57954332e-02  3.33280489e-02 -4.22735438e-02 -5.60000539e-03
   1.41902491e-02  3.89181152e-02  1.49572864e-02  5.62150702e-02
   9.67711210e-04 -3.90681811e-02 -3.64485569e-02  2.60900706e-02
  -2.99716964e-02 -6.14451244e-02  3.99092808e-02 -1.93117484e-02
   7.06457347e-03 -5.28032109e-02 -4.13998403e-02  5.92370555e-02]
 [-5.76035753e-02  1.01208910e-02  2.82381549e-02  8.01850185e-02
   3.35113183e-02  2.21869275e-02  8.19966942e-03 -2.05274299e-02
  -7.77297318e-02 -7.11881518e-02  4.33412269e-02  5.53488061e-02
  -1.41051412e-03  6.82120696e-02  7.98008814e-02 -7.44974762e-02
   1.84632614e-02 -2.89566480e-02  5.34420684e-02  6.49643317e-02
  -4.16733027e-02 -1.89955868e-02 -5.37390262e-03  4.06047255e-02
   3.87179852e-02 -3.10218222e-02  1.43673345e-02  1.70517936e-02
   2.52299607e-02  5.22917733e-02  5.94851896e-02  3.56278792e-02
   2.97482014e-02  8.10599327e-03  2.60404497e-02  5.45223281e-02
  -3.42613570e-02  4.81764302e-02 -7.55200610e-02 -2.31141821e-02
  -1.30706057e-02 -7.94740096e-02  1.61227435e-02 -7.53337368e-02
  -2.27633268e-02  7.56624714e-02  5.94973192e-02 -1.35851726e-02
   1.29383281e-02 -6.27834722e-02 -4.01479155e-02 -7.01048747e-02
  -1.45075172e-02  2.21556947e-02  7.35262111e-02 -4.34423126e-02
   4.45450172e-02  5.08082137e-02 -1.47946328e-02  4.32871953e-02
  -6.20683804e-02 -2.67958455e-02 -5.71274236e-02 -2.00748369e-02
   1.68462694e-02  6.10735789e-02  4.55384478e-02 -5.67150190e-02
  -6.84209168e-04  5.89483157e-02 -4.40055393e-02  4.07280251e-02
   2.51876712e-02 -2.03539431e-03  6.98328838e-02 -7.47976452e-02
   7.34898373e-02  5.18741533e-02  5.05663678e-02  2.58012936e-02
  -7.28293136e-02 -4.30625454e-02 -6.33389279e-02  4.35091853e-02
  -6.21154904e-05  5.58251888e-03  3.32333148e-02  1.54883564e-02
  -2.68258974e-02 -6.29885495e-03  6.49685040e-02 -1.51345208e-02
   7.19538853e-02  1.46703050e-02 -3.53803076e-02  7.26749003e-03
   3.20120379e-02  5.23471907e-02  7.13508800e-02  2.62274891e-02
  -6.14398718e-03  6.23514876e-02  7.96059892e-02  7.44361356e-02
   2.82956436e-02 -7.08347782e-02  8.02676305e-02  7.02386573e-02
   1.92749500e-02  3.64417881e-02 -6.70507550e-03  5.10991365e-03
  -2.80709155e-02  3.35484147e-02 -4.87755612e-02 -8.05877596e-02
   1.81240514e-02  1.52192637e-02 -3.04245427e-02  3.92277539e-03
  -2.17261352e-02 -2.07638033e-02 -6.20587170e-03 -6.07060567e-02
  -1.45526901e-02 -7.61554018e-02  2.22107321e-02  5.96089140e-02]
 [-7.76198134e-02  2.27005705e-02 -1.30677596e-02 -9.39568877e-03
   3.08471397e-02 -4.03805152e-02 -1.15557909e-02  1.29222199e-02
  -5.14334366e-02  3.09437141e-02  6.16276041e-02  7.27121308e-02
  -5.25285825e-02 -7.92522430e-02  7.39228353e-02 -3.19523066e-02
   7.62462541e-02 -2.41065435e-02 -1.47675574e-02 -7.20939934e-02
  -5.44912107e-02  6.37541935e-02 -1.04947984e-02 -3.24739367e-02
   3.37541699e-02  7.30163604e-03  5.58081642e-02  4.25875932e-02
   6.61185756e-02 -7.75200501e-02  7.45939538e-02 -6.25677556e-02
   3.22881117e-02  3.42802331e-02 -4.56722304e-02 -7.26842359e-02
  -5.74162826e-02  4.79902104e-02 -9.70351696e-03  5.66335246e-02
   5.33981696e-02 -4.43057269e-02  5.96739873e-02 -5.50674722e-02
  -2.85776369e-02 -1.70727819e-02  6.57633319e-02 -2.73704417e-02
  -3.91013846e-02  5.54983243e-02  3.41174006e-03 -6.21959344e-02
  -4.95165661e-02  5.53146526e-02 -4.56644557e-02  5.68529442e-02
  -1.97967887e-03 -4.70131636e-04 -5.37401289e-02  6.75989613e-02
   7.72059187e-02  6.35840371e-02  1.11728162e-02 -2.45292410e-02
   3.98309603e-02  5.47471866e-02  5.75870201e-02 -2.47257762e-02
  -6.58943057e-02 -4.88578081e-02  5.16535416e-02 -4.83244583e-02
  -7.68305808e-02 -6.44325465e-02 -3.27209271e-02 -2.34951638e-02
  -7.31898770e-02  2.59985775e-03 -4.18343507e-02 -5.26567586e-02
  -7.79345259e-02 -4.57485765e-02 -7.50485957e-02  2.60403380e-02
   7.71027878e-02  3.01246420e-02  2.08360478e-02 -2.23563500e-02
   5.19392863e-02 -5.98730370e-02 -7.48246387e-02 -7.89557099e-02
  -4.39943597e-02  7.22852275e-02 -4.82578166e-02  7.13696256e-02
   3.91857177e-02 -3.91953699e-02 -7.30226785e-02 -7.59353712e-02
   6.66860119e-02 -7.08223060e-02 -3.97833437e-03 -1.85916871e-02
  -1.59175843e-02 -9.21897590e-03  1.05468556e-02  2.26964727e-02
   7.27250353e-02  1.17238611e-03 -3.73696610e-02 -6.74895421e-02
  -7.48263001e-02 -8.58723372e-03  6.68065324e-02  4.29130197e-02
  -5.56414723e-02  5.81581369e-02 -1.98057443e-02  3.80081683e-02
   5.43129444e-03  6.32795021e-02  6.49941340e-02  4.30928320e-02
   5.30831441e-02  1.63585022e-02  2.62277052e-02 -6.13413751e-02]
 [ 3.02813798e-02 -2.38657817e-02 -7.38608986e-02 -1.93764344e-02
   2.08920985e-03  3.03522125e-02  2.64961421e-02 -4.17088047e-02
  -4.09845859e-02 -3.62667367e-02 -2.04324797e-02  6.95605204e-02
   2.39260197e-02  2.01689601e-02 -7.92582184e-02  2.25830525e-02
  -2.29073577e-02 -4.37880233e-02 -8.07560608e-02 -6.19246215e-02
   2.55549029e-02  9.20791179e-03 -4.97605391e-02 -4.85324785e-02
  -1.60773024e-02 -5.24230748e-02 -5.17712757e-02 -4.04007733e-03
   1.80672109e-02  3.46080214e-03  6.82087913e-02  5.16797081e-02
   7.53162578e-02 -7.60291219e-02 -4.08788659e-02  3.73202115e-02
  -2.69746855e-02 -5.59903160e-02 -4.04715538e-04 -4.98082675e-02
   7.81268105e-02 -5.79719096e-02 -2.18074508e-02  1.21368319e-02
  -6.13612756e-02 -3.99150066e-02 -7.53058940e-02 -1.33515075e-02
  -7.25984946e-02 -7.13289306e-02  3.29802930e-03  5.82715124e-03
   1.19281709e-02 -4.71004397e-02  4.39116135e-02 -7.29583576e-02
   3.18590552e-03  4.05659154e-02  4.31896597e-02 -3.32957581e-02
  -2.16722488e-04 -1.54201314e-02 -5.03273308e-03  7.61050209e-02
  -2.00581886e-02 -8.05294737e-02 -4.48577777e-02 -2.75763869e-03
   7.47993067e-02 -4.72119451e-03 -4.93914485e-02 -2.24561952e-02
   9.79509950e-03 -2.52640769e-02 -4.07878011e-02  3.88891101e-02
  -1.67585686e-02 -5.71449101e-02  4.62034568e-02  1.78880990e-02
  -2.42934115e-02 -2.96488442e-02  3.07760313e-02 -1.99345201e-02
   4.38860059e-02 -1.39595270e-02  3.07672322e-02  6.71506450e-02
  -1.85898468e-02 -1.08105540e-02 -1.26296505e-02  3.01911831e-02
   6.50018677e-02  7.49790296e-02  1.84984580e-02  2.04697624e-02
  -9.66157019e-03  6.86206296e-02 -6.49213791e-03  4.94748130e-02
  -6.74881786e-03 -6.51524737e-02 -1.75084919e-03 -5.06784134e-02
   4.01049107e-02  5.17375842e-02 -6.91335499e-02  7.60051608e-03
   3.45215499e-02 -4.78753448e-02  6.49386719e-02 -6.43605739e-03
  -3.46267335e-02  1.20374113e-02  3.31338570e-02 -3.11384723e-02
   3.54449153e-02  7.29277655e-02  3.20637748e-02 -4.27070484e-02
   1.97220668e-02 -6.35933578e-02 -3.78486291e-02  4.05059606e-02
   4.84796241e-02  3.42859328e-02 -2.04668939e-03 -6.65320456e-03]
 [-2.62568668e-02  4.52949777e-02 -5.10946661e-03 -7.74879083e-02
   1.08295605e-02  3.58461663e-02  2.65338495e-02 -6.27643466e-02
  -3.75520587e-02 -6.37473166e-03  1.12172216e-02 -1.31254271e-02
  -2.20164210e-02  2.61604264e-02  5.65999672e-02 -1.82285532e-02
   3.44004557e-02  2.02989280e-02  2.16656253e-02  3.77104580e-02
   7.39138797e-02 -1.89482644e-02 -6.14744239e-02  7.83728808e-03
   7.09670112e-02 -3.92034538e-02  7.93186650e-02  5.59272543e-02
   7.42914006e-02 -5.06137311e-03 -2.94451527e-02 -5.70078194e-02
   5.46265170e-02  4.59126011e-02  1.15434751e-02  6.93082735e-02
   2.27077454e-02  4.24123555e-02  7.68992975e-02 -5.62621132e-02
  -2.85373926e-02  1.09876320e-02 -1.88379996e-02 -4.73862030e-02
  -1.84608847e-02  2.79776752e-03 -2.82607190e-02  3.68161947e-02
  -4.70353663e-02  1.12570152e-02 -7.55053833e-02 -6.04772046e-02
  -4.19285074e-02 -6.12463504e-02  7.06225559e-02 -7.62760937e-02
   4.97503057e-02 -1.11493990e-02 -7.54966810e-02 -6.09634072e-03
  -4.39620093e-02 -1.31911561e-02 -3.20895500e-02 -2.82643773e-02
  -6.39676899e-02 -8.01519379e-02  5.61219379e-02  4.57421616e-02
   7.47539327e-02  3.36708426e-02 -2.64511183e-02  3.97748053e-02
  -3.81011292e-02  7.55877793e-03  2.04384327e-04  1.06994808e-03
  -1.72152221e-02 -3.30306292e-02  1.26122832e-02 -2.72214040e-02
  -6.00793958e-02 -1.05246156e-02 -5.80914766e-02  2.80132070e-02
   2.40167975e-03  1.41868666e-02  4.61571142e-02 -4.04050387e-02
  -2.03191973e-02 -5.13539575e-02 -4.33325656e-02 -6.25489205e-02
   4.67325523e-02  7.08126277e-03  4.08723056e-02  2.26415694e-04
  -8.04732591e-02  5.82570359e-02  3.54184955e-03  7.48372599e-02
  -4.57363352e-02  4.76624444e-02 -6.28941804e-02 -4.30493765e-02
  -3.47872041e-02  6.00955710e-02 -2.30349116e-02  3.61421630e-02
   5.98597303e-02 -5.32138757e-02 -2.27165669e-02  4.91109714e-02
  -4.05577123e-02  2.31392235e-02 -7.92774558e-02  4.80426922e-02
  -2.24959552e-02  1.42520741e-02  1.00934505e-03 -2.21734680e-02
  -3.35539430e-02 -5.01110852e-02  3.86022031e-02 -2.47547068e-02
  -2.62529813e-02  5.66711202e-02  3.60969082e-02  5.23860827e-02]
 [ 7.05190971e-02  3.65758687e-03 -6.36257529e-02 -7.01136738e-02
   1.56547576e-02  3.53366882e-03 -7.83561766e-02  1.03137717e-02
  -1.00667253e-02 -5.62134013e-02 -2.61105709e-02  2.02986002e-02
   2.54024267e-02 -6.19025752e-02 -6.15362078e-03 -4.76042405e-02
   7.36991093e-02  5.57670519e-02 -4.79704514e-02 -1.70124620e-02
   3.66222113e-02  5.35439476e-02  3.35041285e-02  7.80174956e-02
   6.52978793e-02  8.00067261e-02 -2.51431018e-03 -6.70819730e-02
  -5.89377806e-02  5.56204095e-02 -6.94316477e-02  3.80852893e-02
   1.88944265e-02  5.30680344e-02  6.44683614e-02 -6.56877756e-02
  -1.51297674e-02  3.84144112e-02  7.54412189e-02 -2.58412659e-02
  -1.75631568e-02 -3.84293608e-02 -3.99434529e-02 -5.37443459e-02
  -1.32559240e-02 -4.84998189e-02  5.56413904e-02  1.87908709e-02
   6.30266592e-02 -2.42423378e-02  7.75238201e-02 -4.99533638e-02
  -7.12756142e-02 -7.59118795e-03  3.91117483e-02 -2.62311846e-02
  -2.56883204e-02  5.19132391e-02  6.32236972e-02  6.33171573e-02
   6.12528399e-02 -2.73963958e-02  1.64817646e-02  5.43992594e-02
  -6.78693652e-02  7.81938210e-02  6.16013482e-02  1.89995915e-02
  -1.76682025e-02  6.81884661e-02 -2.30799504e-02  7.20298365e-02
  -1.20334327e-02 -4.10722196e-03 -4.32799868e-02  1.24284551e-02
  -5.13923243e-02 -2.74087526e-02  7.83330575e-02  1.72868744e-02
   3.10510993e-02 -2.82290429e-02 -9.09584761e-03 -2.79135406e-02
  -5.23294397e-02 -3.62277776e-03  6.44946769e-02  5.13094589e-02
   5.61125949e-02 -3.78331393e-02  6.54730573e-02 -8.05362239e-02
  -2.12468356e-02  1.23636499e-02  4.12265286e-02  8.01973045e-03
  -5.37309647e-02 -2.69388407e-03 -6.53080121e-02 -2.32342705e-02
  -1.43236816e-02 -1.63117200e-02 -2.20613256e-02  7.50342980e-02
   5.23218587e-02  6.91853389e-02 -5.89529797e-02 -6.38260990e-02
  -1.82291716e-02 -6.69726133e-02 -3.87208462e-02  9.48295742e-03
  -6.81562126e-02 -8.08207095e-02 -4.63158078e-02 -7.60434717e-02
  -3.37828510e-02  2.03464255e-02  3.40600237e-02 -6.91416189e-02
  -8.06374252e-02 -4.88496087e-02  7.12179765e-02  7.82305226e-02
  -2.86464393e-03  1.73209086e-02  5.87781295e-02  6.78350404e-02]
 [-1.02301687e-03 -7.89142847e-02  5.27424887e-02  5.03787920e-02
   2.97459215e-02  5.75184450e-02 -1.50331855e-02 -7.19054639e-02
  -9.02204961e-03 -6.55405149e-02 -7.92643875e-02  6.35273382e-02
  -5.52328154e-02  4.85609844e-02  5.80744818e-02 -6.01488203e-02
   3.65620703e-02 -4.60017473e-03 -6.00802489e-02 -6.51352257e-02
   6.14004210e-02  6.40481040e-02  3.64589393e-02  6.01394251e-02
  -7.28368387e-02  8.01732913e-02  8.64133239e-04  5.49175814e-02
  -5.85282929e-02  5.93782142e-02 -1.09525770e-02 -2.95729786e-02
  -3.99507023e-02  7.11390749e-02 -7.27143660e-02  4.97233942e-02
   2.37243250e-02 -1.91950053e-03 -1.14176646e-02  7.78577402e-02
  -1.04635656e-02 -3.39659452e-02 -2.61808857e-02  5.76707199e-02
  -6.03074729e-02 -2.62467153e-02 -5.91326505e-02  7.30627775e-03
  -2.64378749e-02 -6.97510988e-02  5.16503230e-02 -7.79999495e-02
  -2.50057355e-02 -1.79193690e-02  6.91544041e-02  2.95799822e-02
   5.04820794e-03 -4.31066379e-02  3.17438021e-02  6.41247705e-02
   2.35858783e-02 -9.76988673e-03  2.73081511e-02 -3.02369222e-02
  -6.75191507e-02 -6.77660108e-03 -1.42370686e-02 -8.14552605e-03
  -3.84150296e-02 -3.06975022e-02 -2.32663341e-02 -7.58392587e-02
   4.59933057e-02  1.43498853e-02 -5.87024912e-02 -4.40602079e-02
   3.67162600e-02  1.46439299e-02 -4.64515053e-02 -1.70968920e-02
   2.15225667e-03 -2.77896412e-02 -8.07248875e-02 -7.14396089e-02
   4.46344241e-02 -4.76107597e-02 -1.71210095e-02 -5.33810370e-02
  -2.86561102e-02  3.22602689e-02  6.91042468e-02  5.25824204e-02
  -2.40093321e-02  6.85104951e-02  6.08084276e-02 -1.96961761e-02
  -6.44772202e-02  7.60589465e-02  7.99385458e-03  3.65362391e-02
   8.03226009e-02 -3.90625149e-02  5.73074445e-02 -4.82838601e-03
  -7.77592659e-02 -4.20309827e-02 -2.01201476e-02 -2.40281485e-02
  -3.09937447e-02  5.50977215e-02  3.15767005e-02  2.16434151e-03
  -3.58709209e-02  6.85578659e-02  8.01547840e-02  3.22223231e-02
   7.21837655e-02 -4.35540676e-02  1.78714693e-02 -2.52333097e-02
   7.36831874e-03  4.33394313e-02 -4.78708968e-02 -7.27192983e-02
  -4.97707725e-03  2.22371519e-02 -5.76149076e-02  5.04238233e-02]
 [-3.84430699e-02  6.66462556e-02  6.19851723e-02  2.65501738e-02
  -7.53980428e-02 -3.80193479e-02  1.47172362e-02  5.00861034e-02
  -6.44688830e-02  2.28531137e-02 -7.38320425e-02  6.31953403e-02
  -3.61859426e-02 -2.16970704e-02  5.03860041e-02 -2.34982185e-02
  -4.87545021e-02 -2.33092159e-03  2.34053731e-02 -6.98715448e-04
   2.04359442e-02  1.69184804e-02 -7.53428489e-02 -8.04973170e-02
  -7.63477832e-02 -1.88576654e-02  7.60755315e-02  7.79828206e-02
   5.80596253e-02 -4.08929810e-02 -4.28470969e-03 -3.70180495e-02
   5.06123379e-02  5.41704148e-03 -1.89371258e-02 -4.14110720e-03
  -3.75018269e-03 -7.81919211e-02  4.67102006e-02  2.94595584e-02
   7.74024799e-02  7.00622126e-02  6.82714656e-02  7.12442398e-03
  -4.75315750e-03 -3.46965455e-02 -5.08920029e-02  3.74813750e-02
   7.00243190e-02  3.33549306e-02 -3.83529067e-03  5.76277301e-02
  -7.90983662e-02 -6.90532625e-02  7.37802759e-02  6.78851455e-03
  -8.03129226e-02 -7.39440322e-02 -2.04602703e-02  6.41343668e-02
  -1.01959035e-02  2.96156034e-02  8.74437392e-04 -2.93229744e-02
   6.60677478e-02  4.34574336e-02 -6.89288750e-02  6.25766441e-02
   4.89624590e-03  4.07824814e-02  5.15601858e-02  1.26404390e-02
  -3.37217785e-02  1.81341395e-02  3.32742706e-02 -4.14718352e-02
   7.90588930e-02  2.10417509e-02  1.64306909e-02 -3.88236493e-02
   3.80930454e-02 -2.73006894e-02 -2.50823349e-02 -6.11178838e-02
  -3.59738581e-02  4.41471115e-02 -5.37480973e-02  3.10174376e-02
  -4.77073528e-02 -1.37492046e-02  2.96291783e-02 -6.43153787e-02
  -6.44414574e-02 -7.85489604e-02 -2.05098130e-02  4.40460071e-02
   2.87719294e-02  5.14329597e-02  1.48289204e-02 -2.85342336e-03
   5.57637289e-02 -6.29921108e-02  7.25343898e-02 -2.87089646e-02
   5.01332507e-02  3.99685949e-02 -6.33526966e-02  4.14303318e-02
  -2.73715667e-02 -5.18669039e-02  9.48502868e-03  7.55754039e-02
  -5.50980270e-02 -7.36280456e-02 -2.82413065e-02  3.60929817e-02
  -4.19749320e-03 -1.13849416e-02  5.58621958e-02  2.75913030e-02
  -4.55713980e-02  7.49257579e-02 -4.90822308e-02  6.62304237e-02
  -2.78040096e-02  9.03564692e-03 -4.18105721e-03 -2.80163810e-02]
 [-7.06290975e-02 -3.04644741e-02 -7.47002140e-02  4.71024588e-02
   7.83997253e-02 -2.87560374e-03 -3.06130946e-03 -3.45211849e-02
   6.45257011e-02 -5.87401465e-02 -2.51692422e-02  2.86148414e-02
  -2.83740051e-02  7.20840320e-02  4.45683971e-02 -5.70290908e-02
   2.80511379e-03 -2.65008956e-02 -1.73930600e-02 -2.48631164e-02
  -5.62510714e-02  7.19947144e-02  7.96327665e-02 -3.60366106e-02
   4.93377075e-02  8.09682980e-02 -3.61239836e-02 -1.00765526e-02
  -6.78294525e-02 -5.43681979e-02 -1.25516206e-02 -5.80106676e-03
  -3.59722562e-02 -4.25143428e-02 -4.74817157e-02 -5.82714602e-02
  -6.60796314e-02  6.28515407e-02  1.18500292e-02 -7.24236369e-02
   5.79302385e-02 -3.83182205e-02  4.69997004e-02  2.14051753e-02
   2.38464251e-02  5.76923564e-02 -3.88031118e-02  3.11566517e-02
   1.89495608e-02  5.83564565e-02  1.79535598e-02  7.40082189e-02
  -1.21150985e-02 -6.26063943e-02 -5.72703183e-02  6.11716881e-02
  -9.72122699e-03  2.36261040e-02  6.75249323e-02 -4.84881774e-02
   2.59732902e-02 -1.00272372e-02  2.67437845e-02  4.69546244e-02
   5.10489866e-02 -4.65765670e-02 -4.94240709e-02 -4.39369678e-03
   7.96450004e-02  4.86069918e-03 -8.16114992e-03 -3.40590402e-02
  -5.75476661e-02 -7.21893311e-02 -7.17020482e-02  5.89221790e-02
   5.62776402e-02  3.31672505e-02 -5.37320264e-02  6.10672161e-02
   1.69818327e-02  4.88203093e-02 -2.27885805e-02  3.18184271e-02
  -4.36745249e-02  3.04551721e-02  6.13067225e-02  4.80180606e-02
  -5.67196384e-02  4.38582599e-02  1.33965686e-02 -1.70838386e-02
  -6.14493638e-02 -4.59216945e-02  7.86504522e-02 -4.79148738e-02
   4.39664796e-02  2.58804858e-02 -3.46756391e-02  6.71703145e-02
   3.57520878e-02 -7.41277486e-02 -6.44450933e-02 -5.82586974e-02
   3.27404588e-02  7.45281503e-02 -6.49860054e-02  7.80667439e-02
   7.30207786e-02  2.91769728e-02 -3.16376239e-03  6.60551265e-02
   1.14813447e-03  5.51864281e-02 -7.73872435e-03 -1.12261325e-02
   1.25377178e-02 -4.03251722e-02  4.76345196e-02  2.88203731e-02
   4.82334718e-02  7.93829560e-03 -2.21070237e-02  1.73468590e-02
   7.75129870e-02 -3.20321321e-02  6.20523468e-02  5.38357720e-02]
 [ 6.47743866e-02 -1.84029415e-02  5.66002801e-02 -4.57138270e-02
  -3.46454345e-02  3.39794457e-02 -6.52633980e-02  6.83865175e-02
   3.00444439e-02  6.78880885e-02  9.17389989e-04  5.10923341e-02
  -3.19344178e-02 -7.73787275e-02 -7.30143636e-02 -7.29667917e-02
   3.48631814e-02 -5.59260920e-02  3.14258784e-02 -1.17706507e-03
  -2.27613747e-03  4.47634682e-02 -7.23831803e-02 -2.06166394e-02
   3.01966220e-02  3.59119773e-02  6.91524148e-03  3.31001654e-02
   2.69995928e-02 -5.74257001e-02  2.74934322e-02  1.65376142e-02
   1.82395205e-02  6.95501193e-02  5.11615798e-02 -2.60735601e-02
  -8.20338726e-03 -6.93450943e-02 -5.67178987e-02  2.74328887e-02
   2.96545476e-02  3.94013971e-02  6.89134821e-02  4.08955514e-02
  -5.64942881e-02  7.59253129e-02  3.34300101e-04  7.19572380e-02
   5.54484800e-02  6.91319034e-02 -3.81243154e-02 -6.78337887e-02
   1.12553537e-02 -1.34557262e-02  5.73697165e-02  5.89631721e-02
   3.65049392e-03  1.21705234e-03  2.35960707e-02  4.21764627e-02
   2.47806385e-02 -6.83202595e-03 -2.42802016e-02 -5.39407134e-03
   7.99747184e-02  4.78149205e-03 -3.32991220e-02 -6.30423948e-02
  -2.77317017e-02  6.66706786e-02 -5.83288185e-02  1.01357251e-02
  -6.82674050e-02 -4.04418260e-03 -1.77033022e-02  7.93018267e-02
  -3.19612771e-02 -7.09800869e-02  3.66684347e-02 -3.19994129e-02
   1.73608437e-02 -4.41313162e-02 -7.74560571e-02  1.52449235e-02
   2.20630839e-02 -5.81341609e-02 -5.15510738e-02  1.26624480e-02
   3.64544764e-02 -5.14466092e-02 -2.47748941e-02  4.76898178e-02
   4.34702337e-02  8.70384276e-03  2.72959918e-02  6.82768449e-02
   2.92057246e-02 -6.86197504e-02 -4.78359163e-02  5.66484779e-03
  -1.45820677e-02  4.38782126e-02  4.33229581e-02  7.15215430e-02
  -1.75625831e-02  4.81617674e-02 -6.97847083e-02  6.29888400e-02
   7.21859261e-02  9.17167217e-03  5.11045083e-02 -5.10705337e-02
  -6.34379238e-02  6.44504502e-02  5.81173673e-02 -4.46102098e-02
   1.65434331e-02  7.02322274e-03 -1.09017119e-02  6.55446127e-02
  -1.54301524e-05  6.94646761e-02  7.05222860e-02 -6.65024370e-02
  -3.18688788e-02 -1.20836124e-02  7.62974843e-02  6.27224818e-02]
 [-6.01380914e-02  1.57989152e-02  6.91763088e-02  9.60825384e-03
  -5.96576929e-03  4.61876020e-02  2.63903067e-02 -6.62570372e-02
   5.57302907e-02  4.06098664e-02 -1.89066492e-02 -4.31901217e-02
   5.89803383e-02  7.12204948e-02  1.02810161e-02 -1.99736133e-02
   5.45934364e-02  3.33781987e-02  3.40907350e-02 -2.94760875e-02
  -5.77503964e-02 -3.69725674e-02  7.08918720e-02  3.78315747e-02
   7.26378411e-02 -1.38584329e-02  2.40146350e-02  6.60781562e-02
   2.24816222e-02 -8.62906128e-03  6.77698255e-02 -1.87273435e-02
   4.54484597e-02 -7.92565122e-02 -5.90441748e-02  4.79663685e-02
  -4.28899713e-02  1.60285048e-02 -2.94939317e-02  2.46753469e-02
   1.48059772e-02  2.74899192e-02 -7.09966645e-02 -1.15388492e-02
  -6.77255914e-02  2.37536654e-02 -3.05537805e-02  2.38821227e-02
   7.30211511e-02  2.42669228e-02 -7.39344954e-02 -2.36209966e-02
   3.16231325e-02 -3.14592868e-02  5.82511425e-02  3.54395062e-02
  -1.79203302e-02 -1.61380973e-02  6.93522627e-03  1.33087579e-03
  -1.13197677e-02  4.57497835e-02  2.21023634e-02 -8.13889056e-02
  -6.44927099e-02  2.41013449e-02 -4.99576330e-02 -6.01474531e-02
  -5.27271209e-03 -1.18983760e-02 -3.04183364e-03 -1.41738327e-02
  -5.88893369e-02  1.99071467e-02 -2.49139126e-02  4.74692956e-02
   2.70003881e-02  8.07047710e-02  8.23281612e-03  7.39734769e-02
  -2.93863639e-02  4.24538553e-02  5.66818453e-02 -4.80579957e-02
   3.60740758e-02 -7.59095550e-02  6.05736598e-02  7.87422806e-03
   7.43577108e-02  2.53656507e-03 -7.76166320e-02  8.23606625e-02
   7.31436387e-02  2.91990265e-02  5.42387255e-02 -5.21800201e-03
  -5.66490553e-02  2.16744598e-02  2.18602270e-03  5.46869859e-02
  -5.62356524e-02  6.31584153e-02  5.14479838e-02 -7.19124824e-02
   2.76720636e-02 -7.71469623e-02  4.91423160e-02  3.42791900e-02
  -4.52485494e-03  1.43196071e-02  4.10283022e-02 -2.82591414e-02
   5.17095961e-02  3.88899222e-02  7.39179626e-02  7.83292800e-02
  -4.16468009e-02 -2.05269679e-02  3.00675910e-02 -1.37067039e-03
   4.15856391e-02  3.85380611e-02  1.67102329e-02 -6.21352829e-02
   5.01069799e-02  7.23903701e-02  3.61054540e-02  2.94429809e-02]
 [-4.35928777e-02  3.99092771e-02  3.12917307e-02  6.62626922e-02
   4.17281687e-03  5.27508147e-02 -3.69440317e-02  4.69355807e-02
  -7.27927238e-02 -7.71096945e-02  3.56214568e-02  4.48096618e-02
   2.50831377e-02 -4.30569947e-02  5.53765967e-02  5.45527786e-02
  -7.18441606e-02  1.54050635e-02 -1.80573016e-03 -5.29310387e-03
  -3.80410440e-02  3.56129892e-02 -4.26437967e-02  9.58865602e-03
   3.00532635e-02 -5.57980733e-03 -2.82365698e-02 -2.03289259e-02
  -6.71588555e-02 -3.59459743e-02  2.72756238e-02 -2.31279451e-02
  -6.31114841e-03  7.94062838e-02  7.83534572e-02  3.63210589e-02
   4.75507118e-02  1.98674984e-02  3.44075225e-02  5.53656593e-02
  -5.89180440e-02  6.73586875e-02  5.95807284e-03 -1.45924101e-02
   7.20038041e-02 -1.18175028e-02  3.11827958e-02  5.19592920e-03
  -2.72038598e-02  2.56609172e-02 -1.71669796e-02 -5.66679947e-02
   3.56336646e-02  3.29706110e-02  3.70636210e-02 -7.56322294e-02
  -1.74556929e-03  2.54704114e-02 -2.51633693e-02  9.95141193e-02
  -9.99345258e-03 -5.71233220e-03  7.06546977e-02 -6.13311939e-02
   5.46356514e-02  3.25599797e-02 -8.13136697e-02  6.23152852e-02
   3.88234109e-02  6.05542213e-03  5.76705560e-02  2.43388824e-02
  -2.59919912e-02  1.13006756e-01 -5.17891720e-03  8.81901570e-03
   4.59226295e-02 -2.32816115e-02  4.38408490e-04 -4.32771035e-02
  -2.01081187e-02 -3.66201326e-02 -9.59048867e-02 -7.68245757e-02
   1.17495574e-01 -7.19862580e-02  5.26309200e-03 -6.15259632e-02
  -1.00665409e-02 -3.93604226e-02 -2.37271506e-02  6.51205331e-03
  -1.60307027e-02  3.49013880e-02  1.14789665e-01 -6.51848465e-02
  -2.55300365e-02 -9.85789523e-02 -6.55497015e-02  1.65400654e-03
   1.06921971e-01 -6.63269982e-02  6.19809516e-03 -1.05495840e-01
  -3.60626392e-02 -1.50662232e-02 -3.19692716e-02 -5.31872064e-02
   5.55386767e-02 -4.32779677e-02  1.25816122e-01 -3.90449204e-02
   8.16229135e-02  2.61835009e-02 -8.04299396e-03  3.51805016e-02
   3.29806507e-02  6.93090782e-02 -1.14331044e-01  2.00030766e-02
   2.86365002e-02  7.33050779e-02  1.86446775e-03  2.08392292e-02
   5.35117462e-02 -6.86650425e-02 -1.62479058e-02  6.87513128e-02]
 [ 4.28425372e-02  1.32934423e-02 -1.15567967e-01  2.08881572e-02
  -3.27649638e-02 -1.95547640e-02  1.52070716e-01  8.14706460e-02
  -7.93118328e-02 -7.32221901e-02  8.09382126e-02 -1.42728835e-02
   8.70617013e-03 -1.90513674e-02  1.98834419e-01  1.13215774e-01
  -7.12078512e-02 -1.87522098e-01  5.11929318e-02  2.72547305e-01
  -6.94563091e-02  9.88213569e-02 -4.87672631e-03 -1.84846744e-01
   1.22897699e-01 -5.68457320e-02  2.17867464e-01 -7.97445923e-02
  -2.09257007e-04  3.18759978e-02 -8.95055756e-02  1.95590258e-02
  -3.64313237e-02 -1.73623949e-01  4.74477485e-02  6.37754053e-03
  -4.66690287e-02  2.91530956e-02  1.99993372e-01  1.51041344e-01
   5.99825270e-02 -2.95333620e-02 -6.40986338e-02 -6.39663041e-02
  -1.06208054e-02 -4.94320244e-02 -2.80916337e-02  8.19820017e-02
   3.47396336e-03 -9.39864293e-03  3.30416486e-02 -2.37903714e-01
   2.38300443e-01  1.01219326e-01  5.61935939e-02  5.61435521e-03
   2.75356639e-02 -4.97239344e-02 -1.95065171e-01  1.74053714e-01
  -2.27096081e-01 -4.81914058e-02  4.64153253e-02 -7.85883218e-02
   1.05541963e-02  5.96474297e-02 -1.73293382e-01 -1.13403521e-01
  -6.80010840e-02 -1.02834962e-01 -1.37351274e-01  4.59634475e-02
  -3.91180813e-03  9.88368765e-02  2.81002223e-01 -4.16780822e-02
  -9.38052908e-02  5.65044843e-02  1.46733537e-01 -1.19776025e-01
  -6.18617311e-02 -1.84954613e-01 -6.91753700e-02  4.13572751e-02
   1.48216501e-01 -4.60060313e-02 -2.11994648e-02 -2.73625553e-03
   9.75160375e-02  1.77886430e-02 -1.48213029e-01  4.85282671e-03
  -1.20821193e-01  2.62295842e-01  1.34120300e-01 -5.93380742e-02
   2.19303444e-02 -1.47650599e-01 -1.80263907e-01  2.03316920e-02
   1.67485699e-01 -7.72283524e-02  6.40275106e-02 -1.45349354e-01
   3.89240421e-02 -2.14561686e-01 -3.49691585e-02  2.96122134e-02
  -8.27345699e-02 -2.57222299e-02  1.01965338e-01  2.08791997e-02
   6.69369176e-02 -2.18986142e-02  1.05038524e-01  8.06427374e-03
  -6.47438169e-02  5.38017564e-02 -1.42135933e-01  1.42169297e-01
   6.83854148e-02  8.17027222e-03  1.59929216e-01  5.08722812e-02
   2.20781341e-02 -7.28005543e-02 -1.40469782e-02  6.72101229e-02]
 [ 3.25135589e-02  1.30795706e-02 -2.38429725e-01 -7.66244456e-02
   7.87333120e-03  2.00796723e-02  1.68389335e-01 -2.15077661e-02
  -1.16102353e-01 -6.47374839e-02 -6.41313847e-03 -1.56268906e-02
   9.07053947e-02  2.27164347e-02  2.35147759e-01  1.22232772e-01
  -1.30978525e-02 -1.50941670e-01  3.91886532e-02  2.63272554e-01
  -1.42901078e-01  1.33446991e-01  2.43150014e-02 -2.52181172e-01
   1.31490141e-01 -1.21720858e-01  2.15670750e-01 -1.00525603e-01
  -2.78537944e-02  5.78213744e-02 -2.34630927e-02 -2.98856702e-02
  -7.76410475e-02 -2.24081546e-01 -2.60794312e-02  6.02614991e-02
  -5.71571570e-03 -4.84432317e-02  2.33570412e-01  1.24076538e-01
  -2.01801229e-02  1.10817000e-01 -4.77993861e-02 -1.29979387e-01
  -1.10201664e-01  5.05826473e-02 -2.44086739e-02 -3.27482000e-02
  -1.95973702e-02  6.50839731e-02  6.20431975e-02 -1.63680255e-01
   2.37106666e-01  5.30089810e-03  1.24978162e-01 -3.62908281e-02
  -5.24090454e-02 -1.05727509e-01 -1.63526431e-01  8.36524367e-02
  -1.17369205e-01 -4.64571677e-02  6.36519194e-02 -7.55212232e-02
  -5.83939217e-02 -2.00254247e-02 -1.91745251e-01 -9.80884284e-02
  -8.77602994e-02 -1.13538176e-01 -1.66258425e-01 -4.44283560e-02
   7.68669024e-02  2.33848363e-01  1.84056818e-01  2.56506745e-02
  -1.26286834e-01 -4.55915779e-02  8.94179046e-02 -8.53534192e-02
  -6.54391646e-02 -1.13832481e-01 -1.06811829e-01  1.59594733e-02
   1.23673737e-01 -3.60470265e-02  2.72709243e-02  7.37465546e-02
  -4.38068956e-02  2.38323640e-02 -9.51406509e-02  1.24309734e-02
  -1.60320103e-01  2.81012774e-01  1.16768733e-01 -6.02606833e-02
  -7.50061646e-02 -2.37433717e-01 -1.69176280e-01 -1.99765246e-02
   5.76742776e-02  2.26689354e-02  1.13123685e-01 -1.41518682e-01
   6.56179264e-02 -1.21644765e-01 -1.61689818e-01  6.58078194e-02
  -1.77638698e-02  1.08348578e-02  1.90008029e-01 -8.54237676e-02
   1.83679089e-01  1.17842956e-02  1.73389822e-01  4.54605483e-02
  -7.31549263e-02  3.57992202e-02 -1.61280707e-01  1.48305193e-01
  -5.80171049e-02 -5.55100180e-02  2.47288078e-01 -4.63495366e-02
  -5.24027422e-02  3.27915736e-02  5.89296483e-02  1.60870954e-01]
 [-7.96345025e-02 -9.14739296e-02 -2.48000994e-01 -6.77161366e-02
   3.81568521e-02  5.59965409e-02  2.18059555e-01 -6.75490126e-02
  -1.10410161e-01 -9.94666442e-02  1.89074408e-03  1.26211345e-03
   2.71903295e-02  4.16807123e-02  1.92650571e-01  1.39247641e-01
  -4.08040844e-02 -2.38587394e-01  7.39498734e-02  2.41627470e-01
  -1.73060998e-01  2.96217918e-01 -7.02193454e-02 -2.71277934e-01
   8.72604325e-02 -1.29712552e-01  1.01344481e-01 -8.80220234e-02
  -1.21970549e-01  5.29490635e-02 -5.93195334e-02  2.28879198e-01
  -1.23473525e-01 -1.30959556e-01 -4.68470901e-02  2.23926306e-02
  -6.36840090e-02 -4.51094098e-02  1.47962630e-01  2.74538606e-01
   6.58061802e-02  6.79133832e-02 -5.57752736e-02 -1.53367341e-01
  -9.69816446e-02  1.25946887e-02  1.61283165e-02  2.24653967e-02
   5.91106378e-02  7.31054544e-02  5.72059080e-02 -1.77208528e-01
   3.12781304e-01  2.27927696e-02  1.49422586e-01  5.17863110e-02
   2.17200777e-05 -6.86912909e-02 -5.88654429e-02  1.44788578e-01
  -1.70555994e-01 -1.35263026e-01 -6.07436933e-02  8.16501025e-03
   2.28260662e-02  7.94466585e-02  3.71258147e-03 -1.72748808e-02
  -3.37203108e-02  9.53737646e-03 -1.68709412e-01  4.78884280e-02
   1.92783773e-04  2.68880516e-01  3.30712765e-01  7.25936797e-03
  -1.00064196e-01 -6.18713498e-02  8.53709951e-02  1.26148567e-01
  -1.36385769e-01 -2.85369605e-01 -1.73882954e-02 -4.20069955e-02
   1.39227718e-01 -1.49945408e-01  1.01448046e-02 -6.51112199e-02
   8.20091218e-02  8.64286423e-02  1.61928982e-02  1.35089800e-01
  -1.55525610e-01  2.09010437e-01  1.57636806e-01  7.50508085e-02
  -3.53250355e-02 -2.64924467e-01 -1.78077608e-01  4.10121232e-02
   2.20452800e-01 -4.29219306e-02  9.41258892e-02 -3.30036998e-01
   9.86195207e-02 -3.01848203e-01 -1.40616456e-02  1.31274229e-02
  -2.51002498e-02 -2.01532282e-02  2.96727657e-01 -2.95937866e-01
   2.00931564e-01 -3.43207270e-02  2.20728680e-01  1.51028395e-01
  -1.14891939e-01 -1.15183070e-02 -2.90885180e-01  3.10867667e-01
  -6.99011236e-02 -4.62959446e-02  1.92650869e-01  2.41504107e-02
  -1.66866684e-03 -7.49650672e-02  3.04249432e-02  1.91779971e-01]
 [-6.60336241e-02 -2.60242354e-02 -1.20329387e-01 -1.45485818e-01
  -5.42441942e-02 -6.32697120e-02  2.12407097e-01 -9.33949463e-03
  -2.05884245e-03 -1.11319445e-01 -4.69895937e-02 -1.13726407e-02
   1.30133033e-01  1.10162012e-01  2.03407571e-01  1.76897466e-01
  -3.46962959e-02 -1.62726283e-01  2.14098319e-02  2.65404791e-01
  -1.13393880e-01  2.41632432e-01 -3.33417766e-02 -2.96774924e-01
   5.01437373e-02 -3.11367232e-02  1.10641271e-01 -4.83390354e-02
  -1.93295833e-02  1.81293860e-02 -4.76824865e-02  2.02876419e-01
  -3.19477823e-03 -8.75849351e-02  1.12845646e-02 -5.43048466e-03
  -6.91008046e-02 -2.10806839e-02  2.35201016e-01  2.70436168e-01
   5.06453542e-03 -3.59931476e-02  8.92769992e-02 -9.18112695e-03
  -7.56349321e-03  6.55215532e-02 -1.16012111e-01 -4.48770896e-02
   1.17517188e-01  4.94541675e-02 -3.41841578e-02 -2.72949934e-01
   3.35143983e-01  2.54601184e-02  6.63512722e-02 -7.13128224e-02
   4.22796570e-02 -8.12978745e-02  7.64621496e-02  1.65807739e-01
  -1.77737638e-01 -3.42181288e-02  8.00811872e-03 -5.11691719e-02
  -1.07821725e-01 -3.29623959e-04  2.20907032e-01 -1.39056221e-01
  -9.10606906e-02  1.74360722e-02 -9.97739285e-02  1.46010220e-02
  -1.77557468e-02  8.36542398e-02  8.92311186e-02 -4.88100685e-02
  -8.62635970e-02 -3.17685120e-02  7.65045732e-03  1.25719890e-01
  -9.18674022e-02 -2.77498126e-01  4.86667715e-02 -6.41377792e-02
   1.09336697e-01 -1.19712815e-01  1.37724429e-02 -9.47789196e-03
  -4.56953906e-02  2.32755244e-02 -2.44609732e-02  6.39796555e-02
  -1.49265841e-01  2.16527119e-01  2.84153461e-01  8.55715945e-02
  -2.63303518e-02 -1.64994702e-01 -1.98494032e-01 -2.27301493e-02
   1.69321433e-01 -9.38094184e-02  3.01427215e-01 -1.69417724e-01
   2.35342309e-02 -2.60237724e-01  8.96778330e-03 -4.05891500e-02
   1.70966119e-01 -9.08399671e-02  1.82797715e-01 -1.93395704e-01
   7.06026107e-02 -5.81511930e-02  2.75507003e-01  1.27798989e-01
  -4.44879197e-02  4.47117202e-02 -3.01173002e-01  2.47803420e-01
  -2.78443731e-02 -4.07282710e-02  2.05975756e-01  5.76603673e-02
  -9.20443386e-02  4.32197265e-02 -1.27914414e-01  1.45672694e-01]
 [-9.35913622e-03 -6.50358722e-02 -1.82043966e-02 -1.67935535e-01
   6.03610463e-02  1.15299590e-01  2.13400751e-01  3.79327610e-02
  -2.15377919e-02  5.51547818e-02  1.02833472e-01 -9.23112035e-04
   1.60662472e-01 -6.51388289e-03  2.71997064e-01  9.86240953e-02
   6.24910966e-02 -2.04562750e-02 -1.56429335e-02  2.67949790e-01
  -4.27163877e-02  2.28400648e-01 -4.45172144e-03 -2.98972905e-01
   1.46261096e-01  1.05747133e-01  2.11857334e-02 -5.18892100e-03
  -2.04071745e-01  1.07130982e-01  4.27760668e-02  1.63725212e-01
  -1.42407238e-01 -9.97752026e-02 -6.31017983e-02 -1.28689870e-01
   9.11228508e-02 -3.73892253e-03  1.65099412e-01  2.02511594e-01
   5.64149953e-02 -6.88707754e-02  6.07426502e-02  1.20910324e-01
   1.46794859e-02  2.81331707e-02  3.84775028e-02  4.18321639e-02
   7.35144736e-03 -1.18409954e-02  1.85862556e-02 -2.25595415e-01
   1.91620588e-01  1.65121347e-01  1.23569243e-01 -2.29626819e-01
   8.07028555e-05 -2.67753601e-02  3.31932455e-01  2.48113181e-02
  -1.43322960e-01  1.39666172e-02  5.10222949e-02 -1.33645430e-01
  -2.12134540e-01  1.60316959e-01  1.80549234e-01 -8.99904519e-02
  -2.88709272e-02 -1.12786420e-01  1.82781219e-02  2.31474694e-02
   3.89231695e-03  1.54721349e-01  1.64133143e-02  2.77648643e-02
  -1.97961181e-01 -1.91961482e-01 -1.19344488e-01  2.36691162e-01
  -1.52941449e-02  3.26439887e-02  6.49167374e-02  1.18504010e-01
   7.39325285e-02 -1.29744217e-01  8.42557997e-02  5.23714013e-02
   4.95538078e-02  9.06425193e-02  1.74628630e-01  5.63347489e-02
   3.63946185e-02  2.21884504e-01  1.09392583e-01  1.89458523e-02
  -1.94636300e-01 -1.39070198e-01 -1.46982342e-01  2.82562952e-02
   3.10360521e-01  4.20372561e-02  2.46533021e-01 -2.35990733e-01
  -4.66482788e-02 -8.15489981e-03  1.04714170e-01 -2.01422185e-01
   2.80276954e-01 -1.06858037e-01  1.08000636e-01 -4.74064872e-02
   3.55204120e-02 -4.29019257e-02  2.05182850e-01  1.92045704e-01
  -5.11589795e-02 -3.65295187e-02 -2.09389329e-01 -4.83525131e-04
   5.47619946e-02  6.99365139e-02  2.98151135e-01 -3.80355157e-02
   4.27988917e-03  7.42758885e-02  1.53775373e-03  6.31233603e-02]
 [ 3.52171063e-03  1.45515054e-01  1.92321595e-02 -9.75917093e-03
  -5.71527928e-02  4.70014177e-02  6.31691962e-02 -1.21107429e-01
  -5.05713895e-02  2.19268370e-02  6.07200712e-02  9.38896090e-03
   1.25418022e-01  1.87590614e-01  2.69501954e-01 -2.25028489e-02
  -4.06179912e-02 -3.10146902e-02  2.32623622e-01  2.58509368e-01
  -2.67085750e-02  2.34511141e-02  6.00853823e-02  3.82229723e-02
   3.90401572e-01 -2.80085094e-02  1.45707428e-01  1.46498486e-01
  -3.19606423e-01  1.04525670e-01  1.54900163e-01  6.85242340e-02
  -8.71828874e-04 -1.14340261e-01 -1.35153085e-01 -5.06470613e-02
   2.34778952e-02  1.78180814e-01  1.55879840e-01  3.62683982e-01
   9.76955891e-02 -3.85039449e-02 -4.20890823e-02 -4.82092500e-02
  -5.29754981e-02  2.18237359e-02 -4.09903042e-02  2.40817085e-01
   4.11249399e-02  9.55971777e-02 -1.27615690e-01 -1.65607110e-01
   5.12249321e-02  1.37776574e-02  1.44861504e-01 -1.64718717e-01
  -7.79878423e-02 -7.49459565e-02  1.99925289e-01  9.04512405e-03
   1.68979708e-02  9.62295458e-02  5.46360482e-03 -2.47078851e-01
  -2.28952453e-01  3.52063894e-01  1.24419712e-01 -4.50856388e-02
   1.53460175e-01 -5.19671179e-02  1.60380695e-02 -4.55200672e-02
  -8.85794964e-03  2.75712550e-01  1.31761178e-01  1.44113913e-01
  -3.20266575e-01 -2.43016154e-01 -2.63622344e-01  1.34778902e-01
  -1.24321005e-03  6.14354983e-02 -2.92990939e-04  1.06313817e-01
   3.50543469e-01 -1.67337544e-02  2.93377768e-02 -2.41834410e-02
   1.87846795e-01  2.13729560e-01 -6.68739378e-02  4.86804061e-02
  -1.62078410e-01  3.93673748e-01  9.16217119e-02  8.30006227e-02
  -1.91438958e-01 -2.43166864e-01 -2.19364479e-01 -3.12041994e-02
   1.54333010e-01  2.47369245e-01  3.19521308e-01  4.11562026e-02
  -5.03909821e-03  1.75282165e-01 -4.55492176e-02 -2.03610286e-01
   2.24265039e-01 -2.13748049e-02  1.59207329e-01 -2.93913782e-02
   4.61302176e-02 -1.62042156e-01  2.48644665e-01  3.31495404e-01
  -3.23580533e-01  5.93493022e-02 -2.84926206e-01 -2.83216853e-02
   1.10034131e-01  1.87549070e-01  1.51018381e-01  1.21179156e-01
  -8.06105211e-02  6.32616580e-02 -1.83067359e-02 -2.68907137e-02]
 [ 4.85462435e-02  6.57154843e-02 -1.23429410e-02 -1.92205403e-02
  -9.33449864e-02 -5.70041761e-02  2.11329773e-01 -2.38904089e-01
  -1.00831494e-01 -5.47138117e-02  1.94435909e-01  7.22538605e-02
   1.75236881e-01  2.79591203e-01  3.55250388e-01  1.03311703e-01
  -4.39522043e-02 -4.03450727e-02  2.22810239e-01  3.71954888e-01
  -2.34733865e-01  3.83700311e-01 -1.40818343e-01 -2.73921192e-02
   3.33895445e-01 -7.66498372e-02  2.26956874e-01  1.99470535e-01
  -2.69032925e-01  3.02038342e-01  7.36880302e-02  2.53068745e-01
   4.43943404e-02 -1.90390602e-01 -1.26838997e-01 -1.03490464e-01
  -2.90917419e-03  1.76765934e-01  3.99436265e-01  4.28221494e-01
   1.31128564e-01  1.14543319e-01  9.62675139e-02 -1.64439619e-01
  -2.23411724e-01  1.44808767e-02 -6.61928253e-03  1.69476673e-01
   2.61566013e-01  2.86266897e-02 -2.91597754e-01 -2.76294559e-01
   4.14075702e-02  8.53187218e-02  3.90706778e-01 -1.80281892e-01
   4.30826843e-02 -7.90393874e-02  2.01810285e-01  4.20871638e-02
  -2.29079098e-01 -2.26887956e-01 -1.69173907e-02 -2.65070796e-01
  -1.12837583e-01  2.85154909e-01  1.74847264e-02 -3.50008726e-01
   1.41268551e-01 -4.91615720e-02 -4.56657372e-02 -7.13526085e-02
  -3.26083750e-02  3.88865083e-01  3.33965808e-01  6.59726039e-02
  -2.47912467e-01 -2.52568662e-01 -3.28053758e-02  1.04977131e-01
  -2.14860260e-01 -1.99059770e-01 -4.62612137e-03  1.72214821e-01
   4.48499024e-01 -6.12207577e-02  2.12239884e-02  3.01505588e-02
   6.08189292e-02 -6.81354199e-03  2.02060584e-02 -4.64115888e-02
  -1.40928537e-01  5.46222210e-01  2.60374248e-01  1.10313535e-01
  -2.85783738e-01 -1.92019835e-01 -8.46053138e-02 -5.95096089e-02
   1.26310050e-01  3.65396708e-01  3.66076559e-01 -1.88189358e-01
   5.45071214e-02 -6.36407807e-02 -7.13755637e-02 -3.35941985e-02
   1.79053843e-01 -6.60896972e-02  3.85846674e-01 -2.25601330e-01
   3.34722042e-01 -1.75501227e-01  3.07712942e-01  2.67732739e-01
  -2.73621827e-01 -9.88753065e-02 -4.66635406e-01  3.24700266e-01
   2.33901113e-01  1.83830574e-01  2.32031554e-01 -4.56902850e-03
  -8.00978616e-02  2.14297891e-01 -8.00244436e-02  1.61894590e-01]
 [-7.96197057e-02  5.56474105e-02 -1.37132540e-01 -6.96542040e-02
  -3.34432162e-02 -2.89366692e-01  2.62167454e-01 -1.46603286e-01
  -3.54346298e-02 -1.62144564e-02  2.65356034e-01  4.02147770e-02
  -1.58300400e-01  2.21401513e-01  5.09176075e-01  1.78393289e-01
  -3.04568559e-02 -1.42677143e-01  4.83914986e-02  3.56503785e-01
  -5.59331551e-02  5.26240289e-01 -1.38958860e-02  4.45529819e-02
   2.78225511e-01 -1.08924143e-01  3.89053524e-01 -2.88488865e-02
   1.15918174e-01  2.51969278e-01  6.74543679e-02  2.24287048e-01
   1.49282545e-01 -1.43145666e-01 -3.87956239e-02  1.68319076e-01
  -2.68761605e-01 -3.39271724e-02  4.77496773e-01  1.99400455e-01
   1.84963103e-02  7.91574121e-02  3.22051160e-02 -8.10322389e-02
  -2.20279053e-01  4.30147350e-02  6.52733957e-03  2.05392227e-01
   3.26303601e-01  6.99339882e-02 -1.71808168e-01 -2.42129430e-01
   2.29718417e-01  9.99499261e-02  5.45685410e-01  1.61305428e-01
  -8.56087953e-02 -2.38554608e-02 -1.33635864e-01  2.86243647e-01
  -1.66406214e-01 -8.18262473e-02 -3.89585420e-02  3.86642255e-02
  -2.48748899e-01  1.08457051e-01 -6.64110109e-02 -3.07145953e-01
   5.31355031e-02 -2.10785091e-01 -1.43176004e-01 -2.34073699e-01
  -3.37985680e-02  5.50034165e-01  5.27000189e-01  7.27852061e-02
  -2.14805886e-01  8.68233852e-03 -5.81901819e-02  7.94814155e-02
  -2.33999223e-01 -3.46338183e-01  8.34999457e-02  2.23131031e-01
   4.81516361e-01 -3.25926431e-02  8.53766352e-02 -1.64090786e-02
   1.46778747e-02  1.93362180e-02 -1.64319456e-01 -1.19568370e-01
  -9.74271819e-02  4.86486107e-01  3.28216344e-01  1.63781971e-01
  -1.44535840e-01 -1.12860180e-01 -1.02291390e-01  3.35792219e-03
  -2.64012087e-02  3.66700798e-01  4.73257601e-01 -3.28272402e-01
   1.23975717e-01 -2.14381903e-01 -5.99900447e-02 -8.33689868e-02
   2.75627702e-01 -1.55447819e-03  2.66595662e-01 -2.87475348e-01
   2.04930454e-01 -5.01028858e-02  4.49526995e-01  1.93392351e-01
  -1.81943849e-01 -1.92441404e-01 -5.13117194e-01  3.69946122e-01
   2.04039678e-01  1.59548327e-01  2.60796577e-01  1.02102801e-01
  -2.12760270e-02  1.60732239e-01 -4.17139335e-03  2.57865876e-01]
 [ 3.41239311e-02  3.50417584e-01 -3.10575783e-01 -7.42885992e-02
  -6.63594948e-03 -1.19921481e-02  2.44319275e-01 -5.34210447e-03
   1.29008502e-01 -1.29727423e-01  3.39327782e-01  1.63096726e-01
   1.06212296e-01 -8.91949758e-02 -9.12202522e-02 -2.08966404e-01
  -2.70459093e-02 -1.36406496e-01 -3.68592888e-02 -3.57940458e-02
  -1.69616893e-01  5.12202308e-02  7.26533234e-02 -1.60994083e-01
  -1.75259456e-01 -1.78832442e-01  2.97215637e-02  6.63150251e-02
  -3.27505857e-01 -5.34258690e-03  1.19770743e-01 -1.93092033e-01
  -7.47203529e-02 -5.91670759e-02  1.12839945e-01  3.93691599e-01
   9.98511836e-02 -2.21524045e-01 -1.27359554e-01  1.84989110e-01
   1.88152388e-01 -1.55748174e-01 -2.11587735e-02  8.26005116e-02
  -1.02867737e-01  2.78442621e-01 -6.52858689e-02 -3.02052110e-01
   4.79891539e-01 -2.35196277e-02 -4.45548482e-02 -1.70182928e-01
  -2.09760979e-01  8.03284571e-02  2.46348664e-01 -2.50033051e-01
   4.65679727e-02  1.25568911e-01  5.31808510e-02 -1.36359647e-01
  -2.14835748e-01 -2.07393646e-01  3.50411028e-01 -1.60572708e-01
   2.07006976e-01  3.44181031e-01 -1.41669840e-01 -1.96457341e-01
   1.14768550e-01 -3.97882700e-01 -6.10615835e-02  1.95500061e-01
  -6.72781467e-02  2.72665173e-01  4.01161239e-02 -8.43243375e-02
   2.75647789e-01 -2.27307811e-01 -1.01229325e-01 -1.44212125e-02
   5.45709170e-02 -1.36955053e-01 -8.29772875e-02  1.52632087e-01
  -3.48463863e-01  3.19045335e-02  4.35220674e-02  1.62637368e-01
  -2.26760432e-01  7.05112815e-02  2.33780295e-01 -8.48718733e-02
   1.58785164e-01  9.98531729e-02 -1.43542200e-01 -6.91199526e-02
  -1.87497437e-01  3.53770121e-03 -6.14441484e-02 -2.19622880e-01
   1.33772835e-01  4.70225096e-01  3.24129522e-01 -9.94504690e-02
  -1.45563483e-01 -4.14120592e-02 -1.32115304e-01  1.82643712e-01
  -1.73825294e-01 -3.65769714e-02 -2.63234396e-02 -1.06468230e-01
   1.65321678e-01  1.34467304e-01 -1.45785017e-02 -3.16819623e-02
  -1.90005690e-01  4.98561412e-02 -7.04302192e-02  1.47220299e-01
   2.43686095e-01  9.49610099e-02  2.95944661e-02 -4.35555354e-02
   3.85331362e-01 -1.30421788e-01 -1.13588117e-01  1.40529588e-01]
 [-8.43828451e-03  3.08071762e-01 -2.66957074e-01  3.59068513e-02
  -1.64409764e-02 -5.59405535e-02  2.66258176e-02  2.35840574e-01
  -8.86491463e-02  9.56970081e-02  3.38611782e-01  2.24053651e-01
   7.84224570e-02  3.83891426e-02 -8.02718848e-02 -2.05861796e-02
  -3.57277393e-02 -6.73337728e-02  9.49495211e-02  6.45902008e-02
  -1.50740162e-01  3.65416668e-02 -3.74928176e-01  9.47805941e-02
  -9.46587548e-02  1.42834859e-03  1.42287731e-01 -2.73032963e-01
  -1.89570606e-01  8.89194980e-02  9.38666835e-02 -3.76478821e-01
  -2.11913928e-01 -1.29244193e-01  2.49168292e-01  3.23334843e-01
   1.59016341e-01  2.86335111e-01 -2.20483001e-02  4.04562771e-01
   3.16698283e-01  1.23160854e-02 -1.01638682e-01 -1.79776937e-01
  -5.84175587e-02  2.61168420e-01 -7.21563324e-02  3.31913470e-03
   4.40879136e-01  1.27563328e-01  1.79670036e-01 -3.27865124e-01
  -4.32707481e-02 -1.13963224e-01  2.46923566e-01 -6.75592422e-02
  -5.21470457e-02 -4.69419546e-03 -2.77218610e-01  2.69737355e-02
  -2.66616017e-01 -3.48575711e-01  2.81196088e-01  3.49675566e-02
   1.37754381e-01  3.53850216e-01  6.31906018e-02 -2.40688220e-01
  -1.47976890e-01 -1.63604662e-01 -6.64026961e-02  2.66200542e-01
   4.86784279e-02  3.45214039e-01 -3.61155197e-02  3.46680395e-02
   2.07940072e-01 -1.66185781e-01 -4.26651053e-02 -2.63355434e-01
   4.76162098e-02 -2.66791075e-01 -1.70061648e-01  1.95514202e-01
  -2.49234721e-01 -2.29900759e-02  7.33275637e-02  1.77681357e-01
  -2.93517858e-01  1.65212452e-01  2.13306069e-01 -2.15610955e-02
   1.18094005e-01  2.35827602e-02 -7.84537494e-02 -1.07670486e-01
  -2.34980255e-01 -4.47549969e-01 -3.15827429e-02 -2.96923578e-01
   4.86897491e-02  5.07837594e-01  1.31811038e-01 -5.57109177e-01
  -2.31126100e-01 -3.39083791e-01 -3.48670810e-01  2.57176816e-01
  -6.12906441e-02 -2.36164421e-01 -1.12116970e-01 -7.76262060e-02
   3.19624424e-01  2.66668200e-01  8.42824355e-02 -4.28396799e-02
  -3.67418915e-01 -1.44966990e-01 -2.70836294e-01  4.28944200e-01
   8.74240473e-02  2.57673915e-02  7.54459482e-03 -3.32431197e-02
   2.07436860e-01  3.87695171e-02 -4.00299579e-02  2.74787098e-01]
 [-2.96662115e-02  7.04404414e-02 -1.75167561e-01  4.48433124e-02
  -3.15034874e-02  6.44966438e-02  8.17132890e-02  3.46324667e-02
  -2.43053228e-01  8.29733238e-02  3.47620726e-01  1.44783124e-01
  -1.35710090e-01 -3.84639576e-02  1.33430034e-01  3.86318266e-01
   5.08986786e-02 -6.69356659e-02  3.64141278e-02  3.58500630e-01
  -9.89110395e-02 -3.98388840e-02 -2.50273257e-01  1.83395073e-02
   2.73324490e-01 -2.56391447e-02  3.81088167e-01 -2.82445759e-01
  -9.02966559e-02  1.88861668e-01  1.88685745e-01 -4.76559639e-01
  -4.89554927e-02 -2.01021269e-01 -2.65130866e-02  3.01329851e-01
   6.19254969e-02  4.28900659e-01  1.49704799e-01  4.02870297e-01
   1.91603899e-01  6.60457388e-02 -2.21618950e-01 -2.05402136e-01
   1.76442731e-02  2.31650233e-01  3.94362444e-03  1.93449408e-01
   5.53928018e-01  2.46709689e-01  8.14499706e-02 -2.12092564e-01
   1.33777395e-01 -1.11448035e-01  3.16927612e-01 -2.85497084e-02
  -1.98337659e-01  5.55858314e-02 -1.82609618e-01 -5.27310446e-02
  -5.82187213e-02 -1.59781262e-01  3.10447663e-01  4.50596690e-01
   4.39125448e-02  2.41802126e-01  4.82922494e-02 -2.03020871e-01
  -1.93517298e-01 -2.61112243e-01 -1.64639112e-02 -4.24774289e-02
  -3.22841369e-02  4.26438153e-01  4.39281553e-01  2.15878099e-01
   1.15164258e-01  2.52615422e-01  4.33121750e-04 -3.82932335e-01
  -7.01649860e-02 -1.21027805e-01 -2.65090168e-01  1.74215198e-01
   3.47705871e-01 -1.33582443e-01  1.02721833e-01  1.45011470e-01
   1.63263395e-01 -7.96831548e-02 -2.60643065e-02 -9.34880823e-02
  -5.97356595e-02  2.19081074e-01  3.62671435e-01 -8.72411206e-02
  -1.49410710e-01 -3.89326006e-01 -3.58804082e-03 -2.07952052e-01
  -1.10999368e-01  4.05050248e-01  9.71663594e-02 -3.11457187e-01
   2.01963738e-01 -1.40379116e-01 -4.23944503e-01 -5.38810454e-02
   1.24981143e-01 -2.22115606e-01  1.67269617e-01  6.78420514e-02
   2.73333907e-01  2.07215041e-01  2.38438502e-01  8.56346339e-02
  -4.31822747e-01 -6.02633022e-02 -2.06917062e-01  2.88193554e-01
   1.32233292e-01  3.53478193e-01  2.01077804e-01  4.16902080e-02
   2.68813428e-02  1.61708191e-01 -1.97789036e-02  1.87483296e-01]
 [-4.18364815e-02  9.68969427e-03 -1.01754330e-01 -1.36677483e-02
  -3.63437086e-02  1.04562260e-01  2.31351390e-01  1.17181435e-01
  -6.25302047e-02  8.45166370e-02  1.63472578e-01  2.05632880e-01
  -4.60135080e-02  1.31981783e-02  3.33921164e-01  2.19435990e-01
  -8.04953277e-04 -2.07684804e-02  9.56580937e-02  5.56903839e-01
   1.45613840e-02  6.96610287e-02 -2.75098860e-01 -1.11097127e-01
   5.59267104e-01 -2.76866443e-02  5.12805879e-01  7.07747117e-02
  -1.40591457e-01  3.30373228e-01 -2.36258376e-02 -3.32418531e-01
   7.84551203e-02 -6.26059398e-02 -2.56451756e-01  1.75205126e-01
   2.10656486e-02  2.13897258e-01  2.46357769e-01  3.82851839e-01
  -5.05039394e-02  2.00402647e-01 -2.08500952e-01 -1.88520536e-01
  -1.16928369e-01 -4.59510386e-02  2.47987881e-02  3.46320659e-01
   2.47710004e-01  3.58398557e-01  1.01816185e-01 -1.70998126e-01
   3.64164531e-01 -1.27739966e-01  3.57803166e-01 -1.62186086e-01
  -3.08200009e-02 -5.06459624e-02 -1.13081217e-01  5.88355325e-02
   4.29156199e-02 -4.02937876e-03  1.46817312e-01  2.47915074e-01
   4.97587137e-02  1.74930856e-01  1.01031825e-01 -1.52600825e-01
  -2.11311072e-01 -2.06370339e-01  2.92198230e-02 -2.15035900e-01
  -1.11951515e-01  3.74563754e-01  5.23647308e-01  9.06144977e-02
  -7.45494664e-02  3.54058385e-01 -1.43920993e-02 -1.50075793e-01
  -2.43705176e-02 -1.62015751e-01 -2.15845972e-01  2.94099748e-03
   5.71337521e-01 -1.58808157e-01  2.46093441e-02  1.89440444e-01
   3.89256299e-01  1.30544091e-02  1.87194154e-01  1.33592367e-01
  -6.11455441e-02  1.11017831e-01  3.53145152e-01 -5.20392321e-02
   1.54045050e-03 -4.07060295e-01 -3.71489488e-02 -1.33597851e-01
  -7.41123930e-02  2.10862130e-01  1.76240996e-01 -2.63607085e-01
   4.07031596e-01 -2.66987115e-01 -3.05109859e-01 -3.88410717e-01
   2.42667362e-01 -1.76630720e-01  1.68986619e-01  4.27877232e-02
   2.80990988e-01 -3.95108387e-02  4.21029389e-01  1.34766638e-01
  -1.59042150e-01 -7.38758519e-02 -3.17133218e-01 -5.17807007e-02
   5.46208769e-02  3.18788081e-01  3.04546535e-01  1.19465001e-01
  -1.76396593e-01  1.84725016e-01  3.90004776e-02  1.16069399e-01]
 [-7.93841854e-02 -3.67569062e-03 -1.10302798e-01 -6.84183910e-02
  -7.33290613e-02 -5.77997938e-02  2.91774184e-01  1.05971508e-01
  -1.01495370e-01 -1.68510098e-02  3.08696181e-01  2.10087389e-01
   1.02203161e-01  1.03854239e-01  2.98540384e-01  2.35784441e-01
   3.90826240e-02  1.60305016e-02  1.26237065e-01  6.23163640e-01
  -1.61596060e-01  3.10177058e-01 -2.74845898e-01 -3.12483072e-01
   4.46647763e-01  1.22098699e-01  4.09821182e-01 -3.68364006e-02
  -5.47688007e-01  3.02756637e-01 -3.25125977e-02 -2.23251984e-01
  -8.34587812e-02 -1.69128150e-01 -9.11242664e-02 -1.38297483e-01
  -5.89048956e-03  1.57242745e-01  1.15592882e-01  4.13821280e-01
   1.76597033e-02  4.53427136e-02  5.77349700e-02  1.00076966e-01
  -3.20270052e-03  2.78164595e-02 -8.94946307e-02  1.76056996e-01
   9.30256248e-02  1.18711419e-01 -4.96936813e-02 -2.16077164e-01
   2.59965718e-01  6.09721988e-02  1.36861071e-01 -1.15831502e-01
  -1.21527016e-02 -1.91396147e-01 -1.71702690e-02  2.32128769e-01
  -1.85990378e-01 -1.33913785e-01  1.86825067e-01 -9.09330994e-02
   1.27939820e-01  3.33924890e-01  6.99688047e-02 -1.97176322e-01
  -4.35225591e-02 -2.42145330e-01 -9.15916413e-02 -6.91549182e-02
  -3.01739946e-02  4.35562730e-02  2.37382635e-01 -9.65773016e-02
   3.03567518e-02 -2.87279151e-02 -5.65639734e-02  1.23422578e-01
  -3.13344486e-02 -4.08482403e-01  8.78362134e-02 -1.25360517e-02
   2.70331979e-01 -2.68152148e-01 -9.71944407e-02  2.08547011e-01
   1.01990931e-01 -1.88138280e-02  4.26941663e-01  3.29227209e-01
  -2.51609441e-02  1.01791553e-01  2.15657920e-01  4.02458608e-02
  -1.02726236e-01 -3.23298484e-01 -5.91267645e-02 -1.33397371e-01
   2.85118431e-01  2.23743990e-01  1.20783292e-01 -1.93117008e-01
   2.35411927e-01 -1.67162105e-01 -8.87017101e-02 -2.03757495e-01
   1.25849426e-01 -5.78579381e-02  4.89132218e-02  6.29041493e-02
   3.93238693e-01 -8.19971971e-03  2.41936982e-01  8.84358659e-02
   6.19136877e-02 -1.06234729e-01 -4.57064718e-01  1.73034430e-01
   2.68602259e-02  2.23870695e-01  3.59087348e-01  1.05930921e-02
  -1.50776170e-02 -4.33935076e-02 -7.81613961e-02  2.37942353e-01]
 [-1.15953023e-02 -2.46835686e-02 -1.70337915e-01 -5.49132563e-02
  -9.38160717e-02 -4.03758213e-02  1.53798878e-01  3.62756044e-01
  -2.51831383e-01  2.00083461e-02  3.85599643e-01  2.24623799e-01
  -2.68399492e-02  5.55385798e-02  2.49896660e-01  1.87026784e-01
  -3.68379727e-02  1.32620771e-04  1.95492834e-01  2.18213663e-01
  -2.19930142e-01  3.73819053e-01 -1.01101540e-01 -1.63576290e-01
   1.07086733e-01  5.41464388e-02  2.70293862e-01 -5.40155992e-02
  -3.46912920e-01  3.28197867e-01 -2.38443501e-02  1.54197782e-01
  -6.93561882e-02 -6.56337067e-02  7.50712231e-02  1.78791955e-01
  -1.53004840e-01  3.03509563e-01  1.57150656e-01  2.96864182e-01
