kernel
(784, 128)
[[ 2.18171269e-01 -4.82860506e-02  4.02042270e-02  1.09331785e-02
  -3.70693170e-02 -1.22277662e-01 -7.19678104e-02  1.21890366e-01
  -3.80578041e-02 -1.52524590e-01  1.89237759e-01 -4.46639098e-02
  -3.90952565e-02  1.31495029e-01  3.56771767e-01 -2.38651596e-02
  -1.67674914e-01 -2.72780687e-01 -7.20695108e-02  3.30224991e-01
  -2.96113398e-02  1.75244978e-03 -1.42680109e-03  2.39151850e-01
   5.49299896e-01  3.10485736e-02  6.49552122e-02  3.83308269e-02
  -1.80378661e-01  1.43868893e-01 -6.68526813e-02 -5.70725091e-02
  -7.45756254e-02  7.26352111e-02  1.83456004e-01  5.76355532e-02
  -2.18636259e-01 -1.92067280e-01  3.18721943e-02  6.54430315e-02
  -1.18633593e-02 -4.89999093e-02  1.69018865e-01  1.16580194e-02
   4.46980074e-02  7.15011060e-02 -2.12707054e-02  5.04731871e-02
  -2.26272106e-01  4.83510420e-02  1.40245885e-01 -7.75842145e-02
   7.01803789e-02 -1.46084055e-02  9.85044893e-03  1.79236680e-02
  -7.45088533e-02 -9.55618098e-02 -3.08933467e-01 -5.34033954e-01
   4.86305989e-02  2.93705344e-01 -9.87722278e-02  2.38433272e-01
  -1.42604262e-02 -1.92544758e-01  1.39669731e-01 -6.52292073e-02
   5.41731007e-02 -7.91075360e-03  1.59483001e-01  8.32288042e-02
   3.64557624e-01  1.11773968e-01 -2.34815136e-01 -5.42397052e-03
   2.94977725e-02 -5.37384227e-02  3.50961477e-01  6.88906237e-02
   2.50607524e-02 -5.79098538e-02  5.10530546e-02  2.81737000e-01
  -1.27982795e-01  8.80519301e-03 -3.22971456e-02  8.86836499e-02
  -1.48826420e-01 -1.84818789e-01 -5.27363271e-03 -2.07283739e-02
   2.86587253e-02  2.23279193e-01  4.96822521e-02  1.98708653e-01
   8.80505592e-02 -1.08305648e-01 -3.06687176e-01 -6.99358210e-02
   1.36212468e-01 -6.42422959e-02  1.32897526e-01  1.00188060e-02
   3.46609135e-03  2.71831185e-01  3.83588560e-02 -1.13938525e-01
   1.36070207e-01  1.39787123e-02  3.41080010e-01 -6.33554012e-02
  -1.01930805e-01 -1.54830173e-01 -7.86363930e-02  3.17244202e-01
   9.43104178e-02  3.02649718e-02  1.00089289e-01 -4.73460346e-01
   7.49424919e-02  5.03977127e-02  6.54614642e-02  4.59659472e-02
   5.82235642e-02 -1.78648308e-02 -4.07861583e-02 -9.04550850e-02]
 [ 1.50629267e-01  2.84751534e-01  6.21071924e-03 -3.49673361e-01
  -1.79659855e-02  2.50672668e-01 -4.78756130e-01 -9.37928036e-02
  -2.72387087e-01  5.26051261e-02 -3.32629859e-01  3.40300873e-02
  -6.84531033e-02  6.08225428e-02 -2.84457594e-01 -2.39179060e-02
   1.79093435e-01  2.25618571e-01 -9.90628079e-02  2.24509165e-01
   1.63963422e-01 -7.03362077e-02  1.87860727e-01  2.88894754e-02
  -4.40673120e-02 -3.49617191e-02 -2.16216400e-01 -6.99227005e-02
  -2.74681538e-01  2.10604742e-02  4.64737462e-03  9.94402990e-02
  -1.18300794e-02 -5.04625216e-02 -6.04553878e-01 -2.66880125e-01
   2.30984181e-01 -8.98305848e-02 -3.48606706e-01 -3.57878506e-02
   6.41294643e-02 -6.65222779e-02  1.17698796e-02 -3.10001783e-02
  -1.63545549e-01 -2.84843236e-01 -2.91331768e-01  1.24774426e-01
  -1.01113290e-01 -7.09771961e-02 -8.27552285e-03 -2.16036662e-02
   7.18259588e-02 -3.32918763e-03  1.16732389e-01  6.91198483e-02
  -8.06104988e-02  2.27775887e-01  5.12319982e-01  2.03506827e-01
   2.02600569e-01  1.14749849e-01  3.37314963e-01  2.78193593e-01
   9.52243060e-03 -4.16356504e-01  8.78152624e-02 -4.79356200e-03
   1.81281507e-01  1.14965998e-01  1.73632398e-01 -4.41868193e-02
  -2.86925018e-01 -1.20759860e-01  4.72751707e-02  4.11478579e-02
   5.58095351e-02  2.11313390e-03  3.31849158e-01 -6.34629056e-02
  -1.55095488e-01  8.41611922e-02 -6.15903526e-04  2.68764526e-01
  -4.79770340e-02  2.44975612e-02  2.57772356e-02 -2.18518060e-02
   1.29954927e-02  3.55736107e-01  5.85197583e-02  1.21042766e-01
  -1.10834368e-01  1.99573785e-01 -3.38097662e-02  2.09994212e-01
  -3.24843556e-01 -4.08949256e-02  3.41867179e-01 -3.60195041e-01
  -5.89637570e-02 -6.73786402e-02  1.79645389e-01  5.49957678e-02
  -2.60879695e-01  6.75324872e-02  2.55952299e-01 -1.43934429e-01
   4.15073991e-01 -1.64089456e-01  3.01040024e-01 -2.83326786e-02
  -8.61294046e-02 -2.85502970e-01  6.16993234e-02  3.72262239e-01
   3.99125546e-01 -5.02628796e-02  2.11320698e-01  1.58760101e-01
   1.76373601e-01 -6.13932088e-02  3.06062028e-02 -7.58754015e-02
   2.43762299e-01 -8.93431306e-02  3.85716826e-01  2.42387861e-01]
 [-1.20964505e-01  8.63598734e-02  1.38054371e-01 -2.11314276e-01
  -4.26943526e-02 -1.17527068e-01 -2.89260894e-01 -1.93061933e-01
  -3.37416321e-01  2.60177821e-01 -1.01538174e-01  5.26032671e-02
   1.07371263e-01 -7.61567950e-02  1.13644361e-01  7.53763840e-02
   4.77466047e-01  1.77827209e-01 -2.72939682e-01  5.91196418e-02
   1.59542531e-01  1.69200107e-01 -2.02231854e-01 -2.11052105e-01
  -2.59838492e-01  1.15721725e-01  3.48753035e-02 -2.90142030e-01
  -2.28727669e-01  1.30082026e-01  1.95361480e-01  6.57882616e-02
  -1.27275869e-01 -7.47679248e-02  1.31777555e-01 -2.82591194e-01
   2.39085555e-01 -1.20712243e-01  1.07533567e-01 -3.54028672e-01
   7.05427751e-02 -1.02808781e-03 -1.33276165e-01  1.81207448e-01
  -1.80442259e-01 -1.89779103e-01 -3.86022359e-01  2.43605539e-01
  -1.96502537e-01 -2.48955116e-02 -5.95838092e-02 -4.30735201e-02
  -5.23831248e-02 -7.83847272e-02  2.76640475e-01  3.37238424e-02
  -6.33094758e-02  2.09356084e-01 -5.94823919e-02 -2.53477216e-01
  -2.13141635e-01 -5.03090583e-02  4.10815477e-02 -1.30256906e-01
  -7.54933581e-02 -2.09249884e-01  4.47158366e-01 -6.67517483e-02
  -2.44063064e-01 -1.21736526e-01 -5.03690541e-02 -2.54084244e-02
   3.29768538e-01  1.49699777e-01  4.14782256e-01  3.32179368e-02
   4.63106707e-02  2.17794836e-01  3.60304445e-01  2.59319246e-02
  -3.79754156e-01  1.28968656e-01 -2.56377012e-01  1.58487514e-01
  -3.16340923e-01  5.48192635e-02 -6.60411641e-02  7.13029653e-02
  -4.10243779e-01 -1.59884498e-01  4.08104844e-02  9.14483052e-03
  -1.48296311e-01 -2.06753999e-01  7.76211470e-02  4.59175371e-02
   6.38701441e-03  3.15353066e-01 -7.33945295e-02 -2.03516185e-01
  -1.19312033e-01 -1.67878240e-01 -2.52224922e-01 -9.17077214e-02
  -1.76316291e-01  1.14279620e-01  2.72439957e-01 -7.36629844e-01
   3.27280581e-01 -1.80343360e-01  2.51187533e-01 -1.80768013e-01
  -9.85052288e-02 -8.49379376e-02  3.32315713e-02  4.95125353e-01
  -3.63465130e-01 -1.74154624e-01  4.15140659e-01 -1.42810764e-02
   2.69077301e-01 -2.70075083e-01 -6.23009242e-02  9.74047706e-02
   4.00239795e-01  2.04266250e-01  3.57312709e-01  3.38328123e-01]
 [-4.10967141e-01  1.87645018e-01  2.45029181e-01  2.27319226e-01
  -6.67415326e-03  2.23664880e-01  2.27967292e-01 -5.84500551e-01
  -3.39123197e-02  5.15838563e-02  2.37737447e-01 -1.97601840e-02
   3.22841585e-01 -1.81870103e-01 -2.41203010e-01  8.36844891e-02
   2.12520555e-01  1.34564891e-01 -3.34363282e-01  3.95006180e-01
  -1.18745975e-01 -1.72195975e-02 -5.01903534e-01  3.00898999e-01
   3.72067064e-01 -2.70569772e-02  4.15748842e-02 -1.75074190e-01
  -3.70776862e-01  1.13823019e-01 -1.00672171e-01 -1.58290938e-01
  -2.34185591e-01 -2.38445885e-02 -1.91305190e-01 -2.65423626e-01
   1.63866505e-02 -1.33842438e-01  1.36013120e-01 -3.68101358e-01
  -1.03571549e-01 -1.59295164e-02 -2.67920122e-02 -1.83601722e-01
  -1.64935336e-01 -2.24855781e-01  6.92572519e-02  1.87804899e-03
   6.15797639e-02 -6.53647408e-02 -2.19428930e-02 -1.78912245e-02
   1.85445398e-02  5.01080081e-02 -1.51260355e-02 -4.18338403e-02
  -7.59478807e-02 -7.07445294e-02  3.02453607e-01  3.10736626e-01
   1.28504634e-01 -3.12383413e-01  2.39335671e-01 -3.64517033e-01
   4.17316705e-03  2.14174300e-01 -9.92165953e-02 -5.47726303e-02
  -6.67432696e-02 -2.24854480e-02 -7.11183026e-02  2.93061048e-01
   9.94151682e-02  3.12012304e-02  5.58083504e-02  2.51698419e-02
   3.88446450e-03  4.51066762e-01  7.78634027e-02 -1.13673806e-02
  -1.06289396e-02  5.53902127e-02  1.26471430e-01 -2.65634179e-01
  -7.58404806e-02 -5.29857054e-02  3.24386805e-02  3.99033353e-02
   4.29249294e-02  6.25539199e-02 -3.26392986e-03  1.03999197e-01
  -3.82842720e-02  1.24174021e-02  1.72584563e-01  2.51770094e-02
  -6.07511587e-02  6.85573295e-02  6.83918893e-02 -1.30123749e-01
  -1.25739411e-01  8.57347529e-03  3.50751936e-01  5.82970455e-02
  -7.47429729e-02  2.25474596e-01  2.66895115e-01 -5.11068404e-01
  -6.72121122e-02 -2.07140446e-01 -1.36043787e-01 -3.29795480e-01
  -1.90235063e-01  6.46673813e-02 -9.38032568e-02 -4.06455882e-02
  -3.38895380e-01 -2.25098297e-01  1.06224436e-02  1.94855958e-01
  -5.04474044e-02 -7.30814815e-01  2.68502701e-02 -1.55190229e-01
  -1.96218938e-01  4.27666277e-01 -1.76794082e-01  3.80128659e-02]
 [-3.07211190e-01 -9.03275535e-02 -2.49180640e-03  3.50318044e-01
  -9.39921662e-02 -2.89135665e-01  9.45170596e-02  2.70122625e-02
   1.78478718e-01 -1.35660172e-02  3.70017886e-01 -4.68776468e-03
   3.38997960e-01 -2.94383783e-02 -3.17896098e-01 -5.38636506e-01
  -1.17090516e-01  1.31822070e-02 -1.18969716e-01  3.36018026e-01
   7.04745650e-02  4.02300339e-03 -7.20863640e-02  4.51890260e-01
   3.79685998e-01 -1.19424045e-01  2.71382034e-01 -3.97219986e-01
  -1.68498203e-01  2.87609790e-02  2.65483946e-01  9.37286243e-02
  -1.00511372e-01 -2.30996888e-02  3.82418066e-01 -3.39123130e-01
   7.50583857e-02 -4.81068820e-01  6.42743185e-02 -4.02248576e-02
  -2.30180800e-01  2.69328337e-02  2.15570375e-01 -1.25233591e-01
  -3.50124925e-01 -5.81052482e-01  2.47699276e-01  1.43368527e-01
  -2.06605151e-01  2.48219654e-01  8.88553634e-02  3.04723368e-03
  -3.61902341e-02  5.06419614e-02  2.66579557e-02  2.26842672e-01
  -2.51586974e-01 -7.80953944e-01 -4.57725495e-01 -2.02991396e-01
   3.50293592e-02 -1.15780145e-01 -1.67121947e-01  1.67852744e-01
   3.97714749e-02 -1.70214057e-01 -4.94100042e-02  3.77960107e-03
  -2.51702666e-01 -1.67180806e-01 -3.17663997e-01  3.37655452e-04
   6.23997450e-01  8.81448165e-02 -1.17828965e-01  6.13839403e-02
   1.88581645e-03  5.87432049e-02  3.69981974e-02 -1.27651012e-02
   4.75326478e-02 -2.39658039e-02 -2.95502514e-01 -3.46614003e-01
   1.60248503e-01  3.12282443e-02  4.19040099e-02 -5.46614647e-01
  -1.43827423e-01 -1.22481592e-01 -8.33977908e-02  5.34101248e-01
  -3.38766054e-04 -5.53321898e-01 -4.02000099e-02  1.80667490e-01
  -9.84339323e-03  2.65621513e-01 -3.41197819e-01 -1.58416510e-01
  -7.85880759e-02  3.20713729e-01  2.79043555e-01  1.97619706e-01
  -3.68872285e-01  2.71066487e-01 -1.56315595e-01  6.01551175e-01
   4.12235558e-01 -4.14349288e-02  3.37834835e-01  9.10798609e-01
  -5.00574529e-01 -9.71887559e-02 -5.81319109e-02  4.50642854e-01
  -1.43708259e-01 -3.78360212e-01 -4.98742163e-02 -4.70181137e-01
  -1.84657555e-02 -5.83294332e-01 -2.67175827e-02  3.39031279e-01
   2.67160326e-01 -5.11275455e-02 -1.16039790e-01 -2.17241332e-01]
 [-2.16376141e-01  1.61326975e-01  2.83468843e-01  9.06835794e-02
  -1.09161414e-01 -4.56170470e-01 -1.17507428e-02 -5.76851852e-02
   6.42760396e-02 -2.85265744e-01  5.10733008e-01 -1.18471459e-02
  -4.19206947e-01 -3.25569995e-02 -3.14725459e-01 -7.51148224e-01
  -4.80699658e-01 -4.88248140e-01  1.38838664e-02  1.39097139e-01
   1.20092474e-01 -1.67943686e-01 -1.68995976e-01  6.33617580e-01
   3.51431161e-01 -2.36352533e-02  2.59056747e-01  4.94722128e-02
  -4.33689237e-01  8.02772418e-02  3.08568686e-01  2.44093928e-02
  -1.00592643e-01 -6.58073872e-02  4.69371736e-01 -2.56413788e-01
  -1.29163966e-01 -6.33763731e-01 -1.78081300e-02  3.16511393e-01
  -2.53669560e-01 -4.35866356e-01  3.98633718e-01 -2.03939453e-01
  -2.94813901e-01 -1.74453855e-01  4.35517311e-01  3.29624951e-01
  -4.72970486e-01  1.49663836e-01  2.28390425e-01  6.02713302e-02
   1.24768391e-02  7.99243376e-02  3.39128040e-02  1.83515832e-01
  -1.79747358e-01 -9.18680727e-01 -6.04882598e-01 -4.85342979e-01
   1.42957166e-01 -2.15918839e-01  5.59775196e-02  4.27021980e-01
   5.39131463e-04 -1.80133447e-01 -1.16115369e-01  2.37200651e-02
   2.11183235e-01 -6.45792335e-02 -4.37008917e-01  1.66383475e-01
   5.75412095e-01  2.44771436e-01 -2.27509096e-01  4.56494614e-02
  -3.33595537e-02 -1.47673935e-01  4.16011721e-01  6.64038062e-02
  -7.64341354e-02  2.47664109e-01  3.53134014e-02 -6.29395321e-02
   5.88984750e-02 -6.43238425e-03 -2.33714953e-02 -3.30155611e-01
  -2.61831254e-01 -3.25205147e-01  5.63139096e-02  5.60802102e-01
  -3.79767306e-02 -3.47884685e-01 -1.86116785e-01  5.43847978e-01
   3.11570734e-01  2.40698382e-01 -6.21505022e-01 -1.98291644e-01
  -6.37826771e-02  2.27570355e-01  2.60620899e-02  2.24250957e-01
  -1.52567089e-01  3.87801796e-01 -1.32743016e-01  6.19169734e-02
   3.71535540e-01 -3.30313109e-02  5.57792485e-01  2.05940247e-01
  -5.16346514e-01 -3.97396773e-01 -1.11754939e-01  4.60714698e-01
  -1.56692371e-01 -3.82869273e-01 -1.00831069e-01  3.23788524e-02
  -2.05243543e-01 -4.58183408e-01  3.87937389e-02  4.05486465e-01
   3.69144857e-01  2.98732013e-01 -1.78945214e-01 -1.90647930e-01]
 [-4.71669674e-01  9.69305784e-02  7.31653452e-01 -7.04972968e-02
  -2.14120790e-01 -1.68691531e-01 -3.69536996e-01 -3.04119468e-01
   4.05761078e-02 -7.22121537e-01 -5.63870482e-02  2.57084519e-02
  -8.15921724e-01  8.66755694e-02 -3.80826175e-01 -3.90275009e-02
  -6.63023591e-01 -2.46741265e-01 -3.76549996e-02  2.43608236e-01
   9.35336053e-02 -2.44875491e-01 -3.51339753e-04  4.23033148e-01
   8.45088542e-01 -7.99499154e-02  2.28690848e-01  2.86634415e-01
  -6.86175346e-01  2.86664784e-01 -3.96959245e-01  2.64708400e-01
  -6.02531284e-02 -2.10528970e-02  1.80525839e-01 -1.30174205e-01
   9.69613865e-02 -7.31030464e-01 -2.45843306e-01  8.01467896e-02
  -3.85097802e-01 -6.23876750e-01  2.30144933e-01 -2.96851605e-01
  -7.25867823e-02 -2.62994498e-01  6.18400514e-01 -2.76733339e-01
  -3.99116218e-01  2.15343878e-01  8.04751962e-02 -6.82714134e-02
  -6.70361370e-02  7.51546025e-03  2.33403802e-01  5.65320393e-03
  -4.60967243e-01 -3.16260278e-01 -7.60847449e-01 -3.02918792e-01
   4.85189885e-01 -1.40946820e-01  2.34988675e-01 -1.27804950e-01
   3.05460021e-02 -1.67398781e-01 -2.54607230e-01 -5.90101518e-02
   8.70540082e-01  1.65064428e-02 -3.60399157e-01 -3.32872421e-02
  -3.23244072e-02 -6.00997150e-01 -7.00289786e-01 -4.52504605e-02
  -4.47822437e-02 -5.61024308e-01  1.20236591e-01  2.99787987e-02
   3.63850087e-01  1.75145149e-01  1.13689378e-01 -2.75210768e-01
   5.36263250e-02 -1.45693570e-02  2.67961323e-02 -2.86845744e-01
  -2.68091619e-01  6.82336614e-02 -6.37214705e-02  5.93701005e-01
  -1.10377558e-01  4.26664472e-01 -2.82095253e-01  6.40596151e-01
  -1.71943322e-01 -9.72102061e-02 -1.02760717e-01 -3.56959641e-01
   1.19494766e-01  2.15403572e-01  2.31942654e-01  5.96832857e-02
   7.40766292e-04  3.95876497e-01 -2.73446776e-02 -4.22382355e-02
   2.34981552e-01  5.78843765e-02  6.70626342e-01 -7.28633627e-03
  -4.92304236e-01 -8.72598708e-01 -3.36955748e-02  2.98726648e-01
  -3.21751475e-01 -3.04848313e-01 -2.88848668e-01  2.80865073e-01
  -2.35050768e-01 -7.06027634e-03  5.79923205e-02  2.20391959e-01
   6.05010152e-01 -5.28089851e-02 -6.72329485e-01  2.99293101e-01]
 [-7.95755565e-01 -1.60096988e-01  7.02376127e-01 -2.95575452e-03
   1.33884832e-01  2.36907110e-01 -2.73006588e-01 -9.05761778e-01
   4.90389079e-01 -4.84476686e-01  2.52503087e-03 -2.43298449e-02
  -1.96683601e-01  2.74277866e-01  2.02811882e-01  1.12544224e-01
  -3.66540343e-01 -1.31335855e-01 -1.54939517e-01  6.29203022e-01
   3.84255290e-01 -1.75424397e-01  3.26114111e-02  5.73967434e-02
   8.36732924e-01 -6.76066382e-03  1.96855798e-01  1.48247108e-01
  -5.56911230e-01  3.08844119e-01 -2.46680319e-01  8.76977295e-02
  -1.14464723e-01 -5.40989749e-02  2.50522703e-01 -7.71188617e-01
   2.50373304e-01 -6.96468651e-01 -1.44282237e-01 -3.45434368e-01
  -4.07536894e-01 -6.85957551e-01 -2.50520557e-01  2.02084601e-01
   1.00615308e-01 -1.44410625e-01  4.15241439e-03 -5.39107978e-01
  -3.15451473e-01  2.71160811e-01  3.88142228e-01 -6.31173402e-02
   6.89984187e-02 -1.53109282e-02  1.38404056e-01  1.28643394e-01
  -2.02916995e-01  1.30472586e-01 -3.87099922e-01 -1.57002121e-01
   3.28537464e-01  3.72916222e-01 -2.22947057e-02  1.60101447e-02
   2.46598721e-02 -4.28244948e-01 -6.56268839e-03 -8.46435726e-02
   6.73529029e-01 -2.94021904e-01 -2.90017009e-01 -6.62909970e-02
   2.92913299e-02 -8.40934277e-01 -2.43587151e-01 -6.24166429e-02
  -4.62060459e-02 -5.41634381e-01  2.82830000e-01  5.87504096e-02
   5.04580140e-01  1.52637497e-01 -1.89358275e-02 -1.70473158e-01
   7.68473372e-02 -5.47371730e-02 -2.74236426e-02 -1.70799598e-01
  -4.50039268e-01 -1.11793630e-01 -1.15721449e-02  3.70233655e-01
   3.85303274e-02  2.42253840e-01  8.65863934e-02  2.07760155e-01
  -3.74962211e-01 -2.60658264e-01 -1.15894407e-01 -3.44826609e-01
   7.27871880e-02 -4.56203669e-01  4.58062559e-01 -1.61841378e-01
   7.41813183e-02  4.77895290e-01 -2.26358786e-01 -2.52293535e-02
   3.15535404e-02 -3.86282831e-01  5.97160578e-01  1.43375814e-01
  -6.33480132e-01 -9.68522251e-01 -9.86818001e-02  2.83988625e-01
  -3.50062340e-01 -3.40483069e-01  2.83362776e-01  6.85575128e-01
  -3.89840275e-01 -7.30766356e-02 -7.58413821e-02  2.10584879e-01
   3.69286299e-01 -8.58915821e-02 -6.28762782e-01  2.93160915e-01]
 [-5.79000294e-01 -2.10541159e-01  4.02990222e-01 -7.76707008e-02
   9.35877115e-02  2.55407780e-01 -2.41171122e-01 -8.25397789e-01
   5.54650664e-01  7.35379308e-02  8.71451274e-02 -9.77241993e-02
   2.70721108e-01  1.52058199e-01  3.04271400e-01  3.68527770e-01
   3.12332064e-01 -2.63301522e-01 -2.83164322e-01  1.75038517e-01
   5.23055732e-01 -6.73440695e-02 -7.33779669e-02 -1.31978452e-01
   8.73443037e-02  2.27364883e-01  4.05715667e-02  1.17981352e-01
  -2.68432409e-01  1.71280831e-01  3.86577696e-01 -1.63418651e-01
  -8.42877552e-02  4.69683716e-03  1.42406315e-01 -8.52337480e-01
   2.78374776e-02 -5.40190935e-01 -1.76874235e-01 -2.59975046e-01
  -3.12325150e-01  1.44604566e-02 -5.64723909e-01  3.96944225e-01
  -6.57725111e-02 -1.87196061e-01 -3.60320032e-01 -1.24742594e-02
  -2.53391206e-01  1.94521129e-01  2.74435222e-01 -1.62235070e-02
   6.22082725e-02 -5.89267164e-03 -3.62049520e-01  1.69237703e-01
  -9.00801495e-02  1.60273150e-01  2.39424914e-01  3.78147870e-01
   1.19110160e-01  2.69971676e-02 -1.29207158e-02 -1.73513144e-01
  -2.80857831e-03 -4.75621432e-01  7.20149815e-01 -9.94191617e-02
   7.93689638e-02 -2.09819794e-01 -2.09020753e-03 -1.49248585e-01
   5.48005430e-03 -1.57134280e-01  1.96557298e-01 -2.97466032e-02
   3.76606211e-02 -4.83490199e-01  1.31443173e-01  2.48499643e-02
   9.82196182e-02 -6.54912367e-02 -6.82376772e-02 -7.77190179e-02
   3.84046078e-01 -4.95183319e-02  4.95477095e-02  1.13346183e-03
  -5.09410262e-01 -1.95871681e-01 -1.05163239e-01  5.10260873e-02
  -9.39328969e-02 -2.55598754e-01 -7.24637229e-03 -1.28491640e-01
  -1.98611856e-01 -4.42144126e-02 -2.13961467e-01 -2.98227757e-01
   6.75941631e-02 -7.00391710e-01  3.34805161e-01 -3.40582505e-02
  -5.37420452e-01  3.25012624e-01 -1.72085911e-01  3.41086775e-01
  -3.33015531e-01 -4.60410535e-01  2.20189571e-01  1.99712902e-01
  -7.37809479e-01 -1.16119772e-01 -2.24784389e-01  1.38907239e-01
  -5.86586744e-02 -1.06609933e-01  4.70760971e-01  3.68801564e-01
  -6.11516178e-01  2.03164309e-01  3.22979782e-03  2.71037847e-01
  -3.62099297e-02 -6.81552827e-01 -1.38115287e-01  1.50267690e-01]
 [-1.81276008e-01 -2.36069039e-01  1.44485652e-01 -3.91617656e-01
   3.16527694e-01 -1.78729240e-02 -4.10920739e-01 -6.14149451e-01
   4.49296050e-02  3.02342772e-01 -2.33412273e-02 -6.74140267e-03
   3.86998504e-01  4.64661300e-01  5.28381705e-01  8.34958330e-02
   4.04114336e-01  6.34318171e-03 -4.01832461e-01  6.30865246e-02
  -1.02240168e-01 -2.45644078e-02 -5.58996737e-01 -1.73502266e-01
  -1.34781390e-01  2.53106534e-01  2.62789994e-01 -5.44750839e-02
  -4.52780128e-01  6.49107322e-02  5.28750837e-01 -2.05219269e-01
  -2.88275272e-01 -3.34897563e-02 -5.85573852e-01 -2.81730533e-01
  -2.93743104e-01 -6.28442526e-01 -1.50745034e-01 -5.29770553e-01
  -1.77368358e-01  4.41544384e-01 -5.10362625e-01  1.56906888e-01
  -3.46213013e-01 -6.33556902e-01 -2.38763839e-01  2.04567641e-01
  -2.89383203e-01  6.69647474e-04  2.13422894e-01 -6.44335598e-02
  -3.60887498e-02 -4.38886397e-02 -1.63362503e-01  1.77371278e-01
  -2.21922353e-01 -1.47934631e-01  1.75636396e-01  2.61628300e-01
   1.63963884e-01  2.45806098e-01  2.12812215e-01  2.72194207e-01
  -2.42881887e-02 -5.52074313e-01  6.85352683e-01 -7.90208131e-02
  -6.22431897e-02 -2.64175504e-01  2.58638617e-02 -1.50737941e-01
  -3.22944582e-01  9.36217457e-02  1.15635835e-01 -3.01516932e-02
   7.69664049e-02 -4.81233180e-01  5.01424491e-01  6.93884119e-02
  -1.46224752e-01  2.02661023e-01  1.21721223e-01  3.15116823e-01
   5.69590926e-01 -8.24419856e-02 -1.51827112e-02  2.94676155e-01
  -8.39458346e-01 -2.87779957e-01 -6.78385794e-02  1.98815763e-01
   1.02211855e-01 -1.40794948e-01  1.49419606e-01 -5.98621443e-02
  -1.79206967e-01 -1.28942747e-02 -2.96193063e-01  3.61931510e-02
  -8.99866149e-02 -6.86436534e-01 -7.53943203e-03 -1.29980490e-01
  -5.59770465e-01  2.11776495e-01 -2.34918579e-01  1.81612492e-01
  -4.11720388e-02 -2.44003832e-01  5.26936762e-02  1.39493138e-01
  -4.79277194e-01  7.67322779e-02 -3.07001263e-01  2.90153980e-01
  -3.52535062e-02 -3.00183952e-01  6.41654432e-01 -6.45232797e-02
  -5.40567040e-01  3.38952899e-01 -5.46194911e-02  3.81532460e-01
  -2.54829172e-02 -1.08487733e-01  1.46573022e-01 -2.17763856e-01]
 [-2.47132003e-01 -2.25264952e-01  8.07484016e-02 -2.65364170e-01
   7.64440596e-01  1.72242120e-01 -4.69058484e-01 -6.98357582e-01
  -1.21581275e-02  4.96696820e-03 -1.15260370e-01 -4.64519719e-03
   4.64003235e-01  9.67494026e-02  2.02719718e-01  1.07959665e-01
  -6.55159773e-03  1.03283376e-01  2.82137338e-02  2.59221584e-01
  -4.18200083e-02 -1.47045866e-01 -7.57514089e-02 -3.55521560e-01
   6.09990478e-01  1.64478511e-01  4.87750173e-01 -1.09626822e-01
  -2.47855440e-01  3.23620159e-03  3.44125450e-01  1.16108537e-01
  -2.17473701e-01 -3.56697366e-02 -1.16306615e+00 -1.79161951e-01
  -3.22479010e-01 -7.84483552e-02  6.46420121e-02 -1.02381611e+00
  -2.88327008e-01  4.41794455e-01 -3.18458945e-01 -9.21614766e-02
  -5.34093857e-01 -1.59181282e-01 -2.61607170e-01 -9.39317793e-02
  -1.87404886e-01 -6.79652556e-04  9.70047355e-01  2.31769569e-02
   6.46652281e-02 -4.26899157e-02  3.59974235e-01  1.88892230e-01
  -2.09476396e-01 -1.23551756e-01 -2.46652544e-01 -4.69817609e-01
   6.00731261e-02  5.28607607e-01  1.27805457e-01  7.08105981e-01
  -3.36592644e-03  1.17417432e-01  8.65153894e-02  5.66458218e-02
   2.18947336e-01 -4.36028838e-01 -2.47318298e-01 -2.46795729e-01
  -1.96398601e-01  5.20938896e-02 -1.18834414e-01 -8.66967216e-02
   4.68062386e-02 -4.83130008e-01  3.94862324e-01 -6.42506331e-02
   1.71070769e-01  8.34549069e-02  4.27843273e-01  2.53895253e-01
   5.42546928e-01  2.34558657e-02 -7.53747001e-02  2.45880321e-01
  -6.87236965e-01 -1.71980619e-01  2.08927784e-02  1.27916589e-01
   4.42731917e-01  2.89605141e-01  9.68565196e-02  1.85064182e-01
  -2.86344409e-01  3.37387919e-02 -6.75535128e-02  2.11560935e-01
  -1.76964566e-01 -5.65225258e-03  3.11564863e-01  1.39030698e-03
  -9.30044279e-02  4.01782036e-01 -6.59142435e-02  4.06196088e-01
   5.05481251e-02 -1.15068980e-01  1.71149984e-01  1.31830201e-01
  -1.93348140e-01 -4.89264905e-01 -1.94021240e-01  7.38284707e-01
   2.96331316e-01 -5.32332778e-01  5.90222418e-01 -1.01539886e+00
  -1.89408183e-01  1.89503759e-01 -5.36047108e-02  4.34729904e-01
   8.64605233e-02 -1.33252218e-02 -3.63040239e-01 -1.38914734e-01]
 [-8.50938931e-02  4.57010329e-01  2.54436940e-01 -4.43536118e-02
   6.00639999e-01  1.87899411e-01 -2.00688705e-01 -4.27636534e-01
  -2.26916000e-01 -1.68248191e-01 -8.62279311e-02 -7.16073588e-02
   2.98875958e-01 -1.63203001e-01 -2.39778936e-01  2.19120517e-01
   4.29568700e-02 -2.78801888e-01  3.29988569e-01  6.17244393e-02
   1.04389362e-01 -1.21988781e-01 -9.57976505e-02  1.73790827e-02
   3.84302467e-01 -3.61208953e-02  2.29287907e-01  2.80841291e-01
   2.72102822e-02 -1.19125590e-01  1.40791282e-01  6.36771554e-03
  -1.54368117e-01 -4.09126244e-02  6.66553825e-02 -7.58611143e-01
  -9.25429314e-02  2.64908485e-02  3.01231176e-01  1.10509589e-01
   1.05923459e-01  1.14039734e-01 -1.44212721e-02 -3.56970318e-02
  -3.68878394e-01 -1.09253451e-01  8.39584172e-02  1.55402407e-01
  -1.52960969e-02 -1.32962972e-01  4.12707955e-01 -5.52888438e-02
  -7.18244165e-02 -5.03416872e-03  3.59949976e-01  4.20408277e-03
  -3.00893903e-01  1.18082479e-01 -1.01337098e-02 -3.05210918e-01
  -8.32570046e-02  1.72818065e-01  7.17762113e-02  6.07013404e-01
   5.02621606e-02  7.55696714e-01 -1.19047768e-01 -4.30515707e-02
   1.81634709e-01 -3.92540723e-01 -4.45888899e-02 -2.23622039e-01
  -2.54570961e-01  2.74405926e-01 -1.88637987e-01 -7.27554336e-02
  -5.50065488e-02 -4.86381978e-01  2.54124343e-01  2.66799517e-02
   8.35441500e-02 -1.19709209e-01  3.50443870e-01  1.08372189e-01
   2.64910698e-01 -1.72736421e-02  5.70276752e-02 -6.16652071e-02
  -1.06044419e-01 -3.86246219e-02 -3.11558675e-02  1.25049502e-01
   5.09335518e-01  2.56791323e-01  3.12986262e-02  2.16027752e-01
   2.50988930e-01  2.12626874e-01  2.02913448e-01  1.08029582e-01
   1.58500567e-01  5.57319105e-01  1.05492726e-01 -2.50695825e-01
   6.05881326e-02  1.50613231e-03  1.94903195e-01  4.40157838e-02
   1.54682502e-01 -2.23187402e-01  1.19496450e-01  1.37149721e-01
  -6.96767541e-03 -3.52183208e-02 -1.11223005e-01  1.92051813e-01
   7.08049774e-01 -2.46818423e-01  1.66376144e-01 -4.20589149e-01
  -5.86044267e-02  9.43388976e-03  7.61895329e-02  7.15753660e-02
   1.67649522e-01  1.33170158e-01 -1.12314746e-01  2.71062106e-01]
 [ 2.97096282e-01 -2.56718218e-01  3.80587429e-01  9.55987424e-02
  -7.76843056e-02 -1.31234050e-01  1.69515818e-01  4.49016243e-02
  -7.56176770e-01 -9.69566107e-02  1.37206972e-01 -4.65125851e-02
   1.47599325e-01 -2.92748541e-01 -8.04013982e-02  8.97001568e-03
  -9.29928645e-02 -6.04627609e-01  1.57906681e-01 -7.51772821e-01
   5.93461841e-02  1.01797208e-01  4.66206744e-02  3.84566307e-01
  -2.14552268e-01  2.36925557e-02 -1.79642364e-01  2.04722390e-01
   8.26465636e-02 -7.32132718e-02 -8.73500481e-02 -1.31914705e-01
   7.10882470e-02  3.43758017e-02  3.71620566e-01 -2.66412199e-01
   4.08040315e-01  3.87150720e-02  2.74401724e-01  7.35815525e-01
   2.29029462e-01 -1.01318033e-02  4.93549466e-01  3.07376143e-02
  -1.19852185e-01 -1.66069642e-01  3.42185527e-01  2.58355379e-01
   1.35064602e-01 -1.62093580e-01 -8.69880557e-01  3.83627638e-02
   4.26531546e-02 -6.46295249e-02 -1.28843158e-01  1.58934742e-01
  -3.59963030e-01 -1.13688834e-01  8.51776898e-02 -1.10712014e-01
  -2.04236031e-01  1.68016374e-01 -2.27788374e-01  1.87948063e-01
  -6.42146841e-02  1.83867589e-01 -3.91911477e-01 -1.74546018e-02
  -1.18712261e-01 -2.74250060e-01  4.64354604e-02  2.87793308e-01
   5.19733988e-02  4.88134652e-01 -2.33475968e-01 -4.91965637e-02
  -5.19702919e-02 -3.36510986e-01  1.36465594e-01 -3.89839374e-02
   2.46858746e-02 -3.66510510e-01  1.64340995e-02 -3.20016026e-01
   7.69355670e-02  6.37765154e-02 -5.64465821e-02 -4.40906614e-01
   5.74402697e-02 -1.30584161e-03  5.47919534e-02  2.16886416e-01
   2.37876847e-01 -2.60121018e-01 -1.91482887e-01  3.98580998e-01
   5.23956120e-01  4.32226539e-01 -1.00435093e-02  5.51615097e-02
   2.90278882e-01  3.36260587e-01 -1.77972004e-01 -2.74138510e-01
   4.75781672e-02 -1.08936474e-01 -1.66862398e-01 -1.29798710e-01
   3.16487253e-01 -1.35203645e-01 -1.56874388e-01  3.20883185e-01
   8.13044757e-02  3.25574368e-01 -5.56301177e-02 -4.18909907e-01
   2.92358726e-01  1.58003606e-02  1.93543106e-01 -2.32677877e-01
   2.71571130e-01 -2.98915338e-02 -7.11565614e-02 -1.97364002e-01
   3.32608111e-02  2.27540314e-01  1.89879477e-01  1.38708517e-01]
 [ 5.08684106e-02  1.48105294e-01  1.25745863e-01  3.67324322e-01
   5.44021465e-02 -1.26491234e-01  3.16453964e-01  2.66375691e-01
  -8.96633983e-01 -2.45071679e-01 -4.86995950e-02 -2.71518119e-02
   5.36828823e-02  1.64944470e-01 -4.99200046e-01 -5.77138737e-02
   7.38302246e-02 -8.98758531e-01  3.55675370e-01 -1.00367939e+00
   2.46338323e-01 -9.44143236e-02  2.10000321e-01  2.93945819e-01
  -1.29149646e-01  1.19867332e-01 -3.59290928e-01 -1.02573268e-01
   4.13835406e-01 -2.41099492e-01 -2.85047412e-01 -1.77388549e-01
   1.57908618e-01 -4.57492322e-02  2.47172609e-01  3.65962178e-01
   4.65702623e-01  1.32746518e-01  1.45103052e-01  3.81568342e-01
   1.85231477e-01  5.14017195e-02  4.52071548e-01 -3.37741822e-01
   2.67609119e-01  2.87393153e-01  3.62644285e-01  1.47748202e-01
   1.57711446e-01  1.16530051e-02 -1.21828127e+00 -7.12481737e-02
   4.29266356e-02 -7.44037926e-02 -6.37355894e-02 -7.42868856e-02
  -2.06498858e-02 -6.49988204e-02 -2.05347743e-02  6.55946508e-02
   1.33800358e-01 -2.87951618e-01 -1.53405398e-01  1.19088471e-01
  -5.64188957e-02 -3.03634498e-02 -6.51919246e-01  5.15578054e-02
   1.07021548e-01 -3.56254756e-01  3.22595656e-01  5.73592559e-02
  -5.02321720e-02  9.40447450e-02 -7.35600367e-02  7.70404609e-03
  -6.40111568e-04 -3.81219089e-01 -1.58518642e-01 -4.51818146e-02
   2.80467719e-01 -2.18471646e-01 -5.91913044e-01 -1.01435149e+00
   2.48597339e-01 -1.61234047e-02  7.99304023e-02 -7.34767258e-01
   4.75454964e-02  2.60378003e-01 -1.83684565e-02  2.44550139e-01
  -1.17626444e-01 -3.54141921e-01 -1.03062309e-01  1.17442258e-01
   1.83733374e-01  4.22012359e-01  8.37170333e-02  3.48301083e-02
   4.12577748e-01 -7.47864395e-02 -3.58516365e-01 -2.95668989e-01
  -1.94246426e-01 -1.69603392e-01 -3.56284529e-01  1.94014847e-01
  -1.13149256e-01 -2.11129952e-02  2.57020116e-01  3.01628202e-01
   3.74737173e-01  1.28063336e-01  1.54625215e-02 -6.64393783e-01
   2.94647485e-01  2.34404236e-01 -1.45770311e-01 -3.42532843e-01
  -1.68405905e-01  4.21815157e-01 -7.71241449e-03  4.41098586e-02
   1.52271017e-01  2.63657361e-01  2.01468527e-01  2.38869101e-01]
 [-1.95704903e-02  3.02859813e-01 -1.82216853e-01  2.41290912e-01
   2.75283366e-01 -2.76090996e-03  3.34218055e-01  1.41106471e-01
  -9.69680190e-01 -2.95374423e-01  5.17103113e-02 -3.39021645e-02
   3.04096788e-01  2.39202976e-02 -5.34404635e-01  1.50602013e-01
   2.48794228e-01 -7.48200059e-01  4.10732657e-01 -8.28201711e-01
   4.38853681e-01 -1.64237797e-01 -4.72209863e-02  3.41581762e-01
  -1.37099639e-01  4.47622612e-02 -1.39774308e-01 -1.09706841e-01
   3.44158977e-01 -3.97200137e-01 -2.19850406e-01 -1.53969705e-01
   7.36523047e-02  1.27713606e-02  1.13363899e-01  4.05456394e-01
   3.00025403e-01  2.09857523e-01  1.22418247e-01  2.79852837e-01
  -2.91208122e-02  1.98930338e-01  4.80326921e-01 -4.63093340e-01
   6.12484634e-01  5.75337350e-01  2.60323077e-01  1.89195380e-01
   3.17143619e-01 -4.67826007e-03 -1.17301095e+00 -3.48379575e-02
  -3.39262709e-02  2.81379968e-02 -1.10065378e-01 -2.89543476e-02
   9.68363807e-02  1.02716545e-02  3.19891311e-02  4.01386142e-01
   3.07591051e-01 -3.02152157e-01 -1.09773576e-01  6.39427677e-02
  -6.99525401e-02  1.00466512e-01 -5.80356658e-01 -2.09771115e-02
   2.03653067e-01 -6.64868057e-01  3.60231519e-01  5.43316491e-02
  -7.06898347e-02 -1.56232696e-02 -8.79412964e-02  1.85373221e-02
   1.61603242e-02 -2.30809197e-01 -2.82566547e-01  2.44851746e-02
   1.79371879e-01 -3.83897483e-01 -6.72927558e-01 -9.13457453e-01
   3.24901015e-01  3.06698065e-02 -7.25260675e-02 -4.07757044e-01
  -9.55088437e-03  2.71997213e-01  5.45680113e-02  3.17995995e-01
  -1.50943220e-01 -3.22845042e-01  1.36455800e-02 -3.35153565e-02
   2.30861276e-01  2.26365507e-01  1.64412707e-01 -5.55698462e-02
   2.40566745e-01  2.19747238e-02 -1.63055137e-01 -5.64565182e-01
  -4.50688042e-02 -7.28248879e-02 -4.17821348e-01  1.00903638e-01
  -5.28365493e-01  3.61852676e-01  2.22057506e-01  7.64279068e-02
   6.29365325e-01  1.03346199e-01 -3.86145674e-02 -8.34350526e-01
   4.11579579e-01  4.81536329e-01 -9.68705267e-02 -2.20600054e-01
  -3.69486153e-01  6.20535553e-01 -6.66497126e-02  6.53655380e-02
  -1.14992335e-01  1.34164393e-01  9.54436660e-02  9.59794745e-02]
 [ 1.18016481e-01 -1.28535822e-01  1.33083865e-01  3.29353660e-01
   5.90730682e-02 -7.83383474e-02  2.39659563e-01  2.10957706e-01
  -7.75487244e-01 -2.91066587e-01  2.31157541e-01  3.38444784e-02
   3.03919148e-02  1.69274911e-01 -2.33565971e-01 -3.48484069e-02
   2.27883421e-02 -8.45891237e-01  2.34987170e-01 -7.58878350e-01
  -6.33991510e-02  7.21397810e-03  9.25650969e-02  3.83103311e-01
  -1.08487494e-02  6.96498752e-02 -1.97017714e-01  1.71040654e-01
   1.95705906e-01 -2.33960986e-01 -1.69650450e-01  4.80160415e-02
  -3.29315104e-02  7.07703605e-02  4.16431844e-01 -1.98355168e-01
   3.24041605e-01  2.61627305e-02  1.09582163e-01  5.63190222e-01
   7.88600445e-02 -3.92654799e-02  4.63986963e-01 -1.54870138e-01
   4.38764900e-01  2.64891475e-01  2.77604431e-01  2.40785450e-01
   3.49742472e-01 -1.16304949e-01 -8.77577245e-01  6.88052326e-02
   6.70609176e-02  2.59616487e-02 -1.21028267e-01 -6.08896762e-02
   1.89486340e-01 -1.21783100e-01 -3.20199244e-02 -4.76546809e-02
   6.23517260e-02 -3.48563585e-03 -2.90564001e-01 -5.14759496e-03
  -1.58133358e-02  5.15577868e-02 -5.73630095e-01  4.15408239e-03
   2.24467684e-02 -4.90557104e-01  4.29974683e-02  1.27004758e-01
   6.34964183e-02  2.15409905e-01 -1.42982900e-01  6.21501021e-02
  -1.08215995e-02 -2.69416124e-01  1.51438769e-02 -5.82149066e-02
  -2.60666665e-02 -4.02384579e-01 -2.63108879e-01 -7.07746804e-01
   2.71884026e-03  7.02386424e-02 -3.48954797e-02 -1.84617087e-01
   1.60171136e-01  1.42319128e-01  5.55785149e-02  3.59975666e-01
   1.11943651e-02 -1.56733587e-01  8.96433890e-02  2.57802367e-01
   4.96893346e-01  4.21018779e-01  2.14312091e-01 -1.18616037e-02
   2.14971185e-01  1.71636894e-01 -1.45661309e-01 -6.50202692e-01
  -1.69931844e-01 -1.47682697e-01 -2.23282367e-01 -1.05358787e-01
   1.30281538e-01  1.76802322e-01  4.88811955e-02  3.71846884e-01
   4.19444144e-01  1.06377602e-01  6.54969290e-02 -4.92074400e-01
   3.47475350e-01  7.26161525e-02  2.08710805e-01 -3.21166277e-01
  -3.20073254e-02  3.05922717e-01  5.60464300e-02 -1.05106547e-01
   1.66353434e-01  2.65893579e-01  1.04948372e-01  8.99361372e-02]
 [-1.21998347e-01  3.20312977e-01  3.94001931e-01 -1.30953744e-01
   3.02176565e-01  4.28311318e-01 -2.09164932e-01 -9.48582143e-02
  -1.91273659e-01 -1.28039405e-01  4.08293977e-02  3.91920283e-03
   8.25756490e-02  6.96201771e-02 -2.29973540e-01  2.92771965e-01
   7.22455457e-02 -4.03590620e-01  2.88070947e-01 -1.90275893e-01
   1.20205939e-01 -1.98874503e-01 -1.01758562e-01 -9.90580320e-02
   1.32956430e-01 -1.28320247e-01  2.77491152e-01  4.01966214e-01
   9.04330611e-02 -1.83929995e-01 -7.71041065e-02  6.06941804e-02
  -2.50450432e-01  2.94945985e-02  2.66090661e-01 -2.75155574e-01
   9.90269035e-02  8.46935883e-02  2.36538231e-01  1.20318130e-01
   3.60144526e-01  1.38740048e-01  1.39265895e-01 -1.93260506e-01
  -1.49514437e-01 -1.38263106e-01  2.53236502e-01  2.48171985e-02
   1.64160967e-01 -1.84374109e-01 -1.03617348e-01  2.13177782e-02
  -3.75371203e-02 -5.06104976e-02  2.52185851e-01  1.99460581e-01
   1.07877575e-01  4.48422432e-01  2.67503679e-01 -1.49854690e-01
   1.84897050e-01  1.78737044e-01  5.60957566e-02  1.65224642e-01
   5.67248762e-02  6.43949330e-01 -7.16340989e-02 -5.55569455e-02
   3.29926491e-01 -4.74935561e-01  1.08742334e-01 -1.84989586e-01
  -6.85024336e-02  1.22298956e-01 -1.22152343e-01  2.43078405e-03
   3.23004276e-02 -3.51748675e-01  6.37147874e-02 -1.45656038e-02
  -8.70097950e-02 -3.00890535e-01  3.21980774e-01  4.84844074e-02
  -6.07902817e-02  1.14951776e-02  7.00086728e-02  9.82165113e-02
   2.37880036e-01  1.38722211e-01  6.74194992e-02  2.73042440e-01
   1.19917840e-01  4.48782355e-01 -2.54407585e-01  3.25105369e-01
   1.10287614e-01  1.08683981e-01  5.25073528e-01 -8.26168433e-02
   2.11894870e-01  3.98518115e-01  8.11233371e-02 -2.45635927e-01
  -2.25711375e-01 -2.17475146e-02  2.28630647e-01 -4.89594089e-03
   1.72388762e-01 -2.50699490e-01  2.46453762e-01  2.65646160e-01
   3.21640670e-01 -1.41595498e-01  1.26490563e-01  3.95154813e-03
   5.56866586e-01  4.13602740e-02  5.14943302e-01 -2.48370796e-01
  -2.19165146e-01  1.15717284e-01 -4.85542044e-02 -2.52028108e-01
   2.88412422e-01  1.59324050e-01  2.23871931e-01  5.06766975e-01]
 [ 1.62290945e-03  1.70212984e-02  1.75088882e-01 -4.59400803e-01
   4.30691570e-01  3.39975446e-01 -5.84771335e-01 -3.44532847e-01
   8.86989571e-03  8.57825428e-02 -2.85323679e-01 -1.69846639e-02
   2.83255041e-01  7.96184689e-02 -6.43681586e-02  3.55555713e-01
   8.60315561e-02 -1.34591475e-01  1.39360398e-01  1.94767788e-01
  -1.71584666e-01 -2.32176423e-01 -8.04536641e-02 -4.23260003e-01
   2.40753159e-01 -1.87175885e-01  2.04442367e-01  1.47632375e-01
  -1.87978238e-01 -2.17818841e-01  2.04796642e-01  4.44202900e-01
  -3.40071827e-01  5.45089282e-02 -5.98261833e-01 -1.70930758e-01
  -1.35937363e-01  1.52744621e-01  6.96778446e-02 -2.63599545e-01
   6.15683347e-02  2.23458976e-01 -2.98161209e-01 -6.74340546e-01
  -5.15518665e-01  1.32676616e-01 -1.03167228e-01 -2.81140924e-01
  -1.02628298e-01 -6.57518208e-02  6.01656556e-01  3.41155529e-02
   6.31324202e-03  1.04273390e-03  4.06451613e-01  4.05070841e-01
   7.06358179e-02  3.25384200e-01  3.19223963e-02 -1.48640990e-01
   1.91036686e-01  2.81029552e-01  2.84319133e-01  5.49483955e-01
   3.61802801e-02  3.23275805e-01  3.96932304e-01  4.64542396e-03
   4.99626428e-01 -4.10348684e-01  1.36778548e-01 -5.51222384e-01
  -2.49394983e-01  2.90993918e-02 -1.25114813e-01  2.37402134e-02
   4.30366024e-02 -3.20551880e-02  2.18892694e-01  7.38241300e-02
   2.64860600e-01 -1.67068437e-01  5.12256622e-01  4.63919759e-01
   1.70774356e-01  5.21869026e-03  4.75275442e-02  5.31813800e-01
  -3.28220546e-01  1.02440417e-01  4.53965999e-02  8.12799856e-02
   5.51817417e-01  3.63845885e-01 -8.11719596e-02  1.24618083e-01
  -3.75213832e-01  6.61797971e-02  2.36518934e-01  3.03454578e-01
   1.10170297e-01  3.48292083e-01  6.19901810e-03 -1.00378424e-01
  -1.67088568e-01  9.23789814e-02  1.19365394e-01  1.91402480e-01
   1.72946051e-01  1.74979582e-01  2.45201260e-01  2.41638586e-01
   5.63987195e-01 -2.04411581e-01  2.16723271e-02  2.98896044e-01
   4.21806037e-01 -1.63503140e-01  7.92970657e-01 -8.20932031e-01
  -2.94628084e-01  3.05961877e-01  7.66088516e-02 -1.10705204e-01
   2.55365342e-01  1.54512361e-01 -4.19759154e-02  3.60658288e-01]
 [-2.50476062e-01 -1.05315402e-01  3.92814487e-01 -3.94938290e-01
   3.12421203e-01  3.58314186e-01 -4.97497648e-01 -4.52178448e-01
   2.94897407e-02  5.84816150e-02 -2.66987145e-01 -1.09596399e-03
   1.75122350e-01  4.97752905e-01  2.86360294e-01  3.29684675e-01
   2.00756758e-01 -6.38020858e-02  1.89692885e-01 -1.01290680e-01
   9.15032718e-03 -7.63875321e-02 -3.36677670e-01 -4.03712958e-01
  -1.08404629e-01  1.77141912e-02  2.14292511e-01  2.90839877e-02
  -1.36027470e-01 -3.15534994e-02  2.12757215e-01  3.38091701e-01
  -1.24412991e-01 -2.51684431e-02 -6.00673199e-01  1.15058318e-01
  -3.74191776e-02 -4.66391265e-01  7.99963325e-02 -5.14564395e-01
  -1.77941620e-01  3.34820449e-01 -3.55972648e-01 -2.18035728e-01
  -4.71321642e-01 -2.90361494e-01 -1.06368013e-01  3.79546806e-02
  -1.67242914e-01 -8.86780024e-02  2.48693958e-01  1.92446914e-02
  -5.62974289e-02 -7.26632550e-02  1.13630317e-01  1.97377995e-01
   1.16129369e-01  8.92067924e-02 -5.12535200e-02  1.92587107e-01
   6.53304309e-02  1.02551460e-01  1.39042914e-01  3.44952077e-01
   3.23706344e-02 -1.22862868e-01  2.85502046e-01 -6.53646141e-02
  -7.00651035e-02 -4.26721752e-01  2.73402333e-02 -1.93837956e-01
  -8.06508064e-02 -1.24343336e-01  7.15376064e-02  4.20109145e-02
  -3.77829522e-02  2.72804588e-01  1.71974927e-01 -5.06853731e-03
   3.93065773e-02  5.46876416e-02  3.67263734e-01  3.87829512e-01
   2.51761734e-01 -1.64034276e-03  4.76856902e-02  2.99072057e-01
  -6.78844929e-01 -2.46673562e-02 -7.90401944e-04  3.61075439e-02
   2.44094327e-01  3.67220312e-01  2.33491316e-01  4.59948741e-02
  -1.92757189e-01  8.61323625e-02 -2.40757167e-01  3.34357359e-02
   1.47393346e-01 -7.61261508e-02  3.19826245e-01 -1.89057618e-01
  -3.32548201e-01  1.37402520e-01  8.36883858e-02  1.04882471e-01
   7.86400679e-03 -1.02397196e-01  1.96206570e-01  1.28347442e-01
   1.45732062e-02 -3.68794620e-01  8.41662139e-02  2.11397558e-03
   1.56448260e-01 -2.49376670e-01  3.49794596e-01 -1.91016287e-01
  -3.82149071e-01  3.02789778e-01 -5.72168566e-02  2.35382646e-01
   9.85031128e-02 -2.92272896e-01 -2.69154519e-01  1.66362971e-01]
 [-5.13150215e-01  2.30830029e-01  4.78073925e-01 -1.92790911e-01
   1.68450877e-01  2.42424980e-01 -5.81138074e-01 -9.12029862e-01
   3.45231801e-01  8.37365985e-02 -3.14843714e-01  1.09971585e-02
   4.94309336e-01  2.45451987e-01  4.45012778e-01  4.86377925e-01
   5.60100019e-01 -1.14238955e-01  1.20583497e-01 -9.74348634e-02
   5.84714651e-01 -6.59296438e-02 -1.21857084e-01 -5.20243943e-01
   9.52781439e-02  2.53093183e-01  3.92327368e-01  6.08091466e-02
  -2.16588929e-01 -6.34781569e-02 -2.33140916e-01  3.06692421e-01
   5.61411045e-02  1.89306922e-02  2.65477560e-02 -2.72239923e-01
   3.84250998e-01 -5.99946141e-01 -2.75245160e-01 -4.81020451e-01
  -3.93189877e-01  3.49187940e-01 -7.82928228e-01  2.91161627e-01
  -1.33041099e-01 -2.18609422e-01 -1.60446092e-01 -1.20214321e-01
  -2.46605381e-01  2.16100216e-01  4.65908498e-02  4.87824157e-02
  -8.30038637e-03 -1.38824433e-02 -2.38925833e-02  2.92631596e-01
   1.76912174e-01  7.25275055e-02 -1.05570659e-01  3.33515793e-01
  -3.61911863e-01  1.01326853e-01 -3.50921243e-01  2.12055668e-01
   6.04871437e-02 -2.15414405e-01  6.21817231e-01  5.75679094e-02
   7.45164901e-02 -2.96901792e-01 -3.61875981e-01 -3.51929724e-01
   1.40922349e-02 -3.20164263e-01  1.39204515e-02 -3.16010863e-02
   2.64620855e-02  5.92065752e-01 -2.12633848e-01  3.71307731e-02
   4.48972970e-01 -2.89051104e-02  1.87066710e-03 -2.44787946e-01
   4.54512030e-01  1.23038178e-03  4.45305482e-02  1.29654497e-01
  -6.16927147e-01  7.35762119e-02 -5.33139929e-02 -1.19140744e-01
   8.90870690e-02 -2.19317138e-01  1.29990354e-01 -1.60493642e-01
  -2.56661534e-01  3.09148818e-01 -2.47520298e-01 -2.69879609e-01
   8.82234350e-02 -4.69761997e-01  3.54087770e-01 -3.19759607e-01
  -3.80810946e-01  3.29032451e-01 -2.65028626e-01  5.44152975e-01
  -5.49660742e-01 -9.85108018e-02  2.01264724e-01  3.32275242e-01
  -4.23608899e-01 -4.87024486e-01  2.04887956e-01  1.19409606e-01
  -3.46077770e-01 -2.97011118e-02  5.19304812e-01  1.02117121e-01
  -6.45866871e-01  3.91307265e-01  7.97178671e-02  5.51640764e-02
   1.43529534e-01 -7.10508347e-01  5.98193891e-02  2.09809974e-01]
 [-8.73545587e-01  4.99305367e-01  5.22539504e-02 -2.32870027e-01
  -1.58805460e-01  2.62133121e-01 -7.76901007e-01 -1.30752480e+00
   3.04766059e-01 -1.50968628e-02 -6.50327265e-01  8.90678074e-03
   4.55689371e-01  8.96901265e-02  4.02265817e-01  4.68571454e-01
   4.94053900e-01  6.82890192e-02  1.94951594e-01  2.37771180e-02
   5.00317156e-01 -1.28747433e-01 -7.23097771e-02 -3.96311015e-01
   2.98134148e-01 -2.75119115e-02  2.40070716e-01  4.37424481e-01
  -4.05749917e-01  6.49871677e-02 -5.76912642e-01  2.07990229e-01
  -1.01257443e-01  3.27579342e-02 -9.17594135e-03 -8.59422386e-01
   3.68944347e-01 -5.86214960e-01 -2.43170410e-01 -6.55693233e-01
  -5.58798909e-01  2.57232159e-01 -5.36759317e-01  6.55744374e-01
  -3.17374952e-02 -1.11244105e-01  9.25432444e-02 -3.91043544e-01
   7.43566230e-02  1.53839529e-01  3.25319797e-01 -1.03362449e-01
  -1.95319913e-02  1.16869882e-02 -1.24258801e-01 -8.90766829e-02
   1.99821621e-01  2.11513042e-01  3.26732174e-02  4.67070729e-01
  -2.31506322e-02  2.67682582e-01 -1.04567990e-01 -1.16860509e-01
   1.79667473e-02 -1.44585550e-01  3.40798914e-01 -6.61999434e-02
   2.72650331e-01 -2.82691270e-01 -5.80954432e-01 -1.68686658e-01
  -1.84833854e-01 -6.98492169e-01 -2.76116669e-01 -8.06665495e-02
  -3.36534856e-03  3.94787788e-01  2.63990879e-01  7.81381354e-02
   4.92975295e-01 -1.18040375e-01 -2.57020950e-01 -3.51978749e-01
   2.35019445e-01 -1.95488557e-02  3.56091559e-03 -2.99404383e-01
  -1.89721420e-01 -4.65130135e-02 -2.72212084e-03 -5.96315674e-02
  -4.15389866e-01 -2.05330878e-01  2.87072748e-01 -2.15968061e-02
  -2.52382755e-01  6.15474470e-02 -3.92092541e-02 -2.60983825e-01
   9.25100818e-02 -2.22562589e-02  2.94499367e-01 -3.26163143e-01
  -3.38528275e-01  2.29792282e-01 -1.52579218e-01  3.87059838e-01
  -5.63073814e-01 -5.26209235e-01  4.14952844e-01  3.34656477e-01
  -1.06646560e-01 -7.79719353e-01  2.54375041e-01  3.24572861e-01
  -5.62730849e-01  2.47963175e-01  5.04200935e-01  6.34610295e-01
  -4.65526134e-01  5.85464165e-02  3.61749018e-03  1.73385873e-01
   4.27994400e-01 -5.89423954e-01 -2.00637609e-01  4.62570965e-01]
 [-1.59295037e-01  6.15970194e-01  4.97278750e-01 -3.74900371e-01
  -1.59562543e-01 -1.01831667e-01 -7.95038342e-01 -7.90528834e-01
  -1.98538646e-01 -4.70044345e-01 -5.58844388e-01 -9.31742564e-02
  -4.28911388e-01 -1.03282683e-01  4.02282625e-02  6.08537756e-02
  -9.49626192e-02 -2.44819317e-02  3.42664093e-01  1.28832161e-01
   4.74563837e-02 -3.27354312e-01 -9.70677212e-02 -8.52726772e-02
   5.49597502e-01 -2.44663402e-01  2.90485352e-01  8.49054694e-01
  -4.56314415e-01  1.45008549e-01 -8.28738868e-01  1.36714935e-01
  -2.24487633e-02 -1.01942748e-01  2.13253260e-01 -6.57497168e-01
   2.52572417e-01 -4.77113813e-01 -2.19187438e-01 -6.66821375e-02
  -4.10110921e-01 -3.22159111e-01 -2.05510765e-01  1.44371912e-01
  -1.95737451e-01 -1.11714050e-01  6.17834628e-01 -1.63325459e-01
  -1.00901341e-02  1.15589283e-01  3.22198600e-01 -6.65502921e-02
  -3.03261876e-02 -3.26364189e-02 -6.68983683e-02 -2.61376917e-01
   2.63105333e-02 -2.15484679e-01 -3.84607315e-01  5.98473325e-02
   4.96351242e-01  4.18164693e-02 -2.88817659e-02 -1.49693206e-01
  -2.33509988e-02 -2.06615850e-01 -1.46205246e-01  5.53888232e-02
   6.66502237e-01 -9.86923873e-02 -2.87913412e-01 -2.40824983e-01
  -2.31701031e-01 -6.08043790e-01 -5.80885231e-01 -1.55534819e-02
  -7.74220228e-02  3.20292979e-01  5.21520317e-01  1.33956579e-04
   3.39558035e-01  8.78287554e-02  1.87673226e-01 -3.93516064e-01
  -1.72476470e-01 -2.03549899e-02  5.74835017e-02 -1.20792046e-01
   1.29314601e-01  1.03318915e-01  1.29714496e-02  1.26826540e-01
  -3.44902605e-01  1.61214069e-01  1.52026070e-02  3.68716478e-01
   1.12427413e-01  1.33310854e-01 -2.04677105e-01 -4.15063411e-01
   1.84043795e-01  2.56392900e-02  1.87743500e-01 -1.30421266e-01
  -2.44164485e-02  2.79034883e-01 -2.90753663e-01  1.36014938e-01
   3.09485495e-01 -9.07136649e-02  7.35211134e-01  2.63878852e-01
  -1.87439486e-01 -8.52501631e-01  8.00607875e-02  3.81774336e-01
  -8.19024861e-01  7.18896165e-02  4.24946278e-01  5.11035562e-01
  -2.46359855e-01 -2.19737422e-02 -4.12665680e-02  1.05958566e-01
   7.27011025e-01 -4.31909412e-01 -5.91798782e-01  5.24246454e-01]
 [-1.73708901e-01  7.47936964e-01  4.93083268e-01  1.37702495e-01
  -2.73149759e-02 -2.65331984e-01 -4.22167331e-01 -2.41763860e-01
   1.31339664e-02 -5.46899378e-01 -5.03072441e-02 -9.46696699e-02
  -5.71246684e-01  7.93098565e-03 -4.50557202e-01 -1.65875226e-01
  -1.55812889e-01 -1.27538323e-01  1.67615652e-01  4.06814635e-01
   5.48778987e-03 -2.50046074e-01 -2.59547979e-01  1.04170598e-01
   4.18166250e-01 -1.66573539e-01  5.63428819e-01  4.53107923e-01
  -1.86876714e-01  8.82338881e-02 -3.68292004e-01  2.57449329e-01
   3.79974768e-02  5.35716163e-03  2.54115134e-01 -1.57100707e-01
   3.10387388e-02 -3.31209689e-01 -2.30552517e-02  7.55130947e-02
  -4.52689737e-01 -5.64502701e-02  3.39173563e-02 -5.94994009e-01
  -5.38905501e-01 -2.16758415e-01  4.68694389e-01  2.13865504e-01
  -2.10757315e-01  3.23996395e-02  1.60594150e-01 -8.53998959e-02
   1.50492191e-02 -3.05146389e-02 -5.35963327e-02  8.85530114e-02
  -2.30529886e-02 -5.39520741e-01 -4.10266668e-01  1.01491854e-01
   4.32599604e-01 -2.58447856e-01 -4.53063229e-04  1.35203302e-01
   5.63523099e-02 -1.46834478e-01 -7.70445690e-02  1.49785271e-02
   3.52737993e-01  1.48957923e-01 -3.44549507e-01 -1.61939815e-01
   2.06210673e-01  6.00166917e-02 -5.77360570e-01  2.74004936e-02
  -4.54667024e-02  1.55555278e-01  1.49831936e-01 -1.00168996e-02
   1.05966516e-01  2.41912290e-01  1.80311911e-02 -3.92549723e-01
  -3.54803830e-01  2.39545852e-02 -7.51076713e-02 -2.74318662e-02
  -2.12235957e-01  3.70538421e-02 -1.31133990e-03  4.57987070e-01
  -2.28244737e-01 -1.63549706e-01 -1.36712313e-01  2.66666383e-01
   2.88113445e-01  5.06245017e-01 -4.99810666e-01 -3.92290562e-01
   4.64290343e-02  6.41681114e-03  4.66151565e-01 -9.70407948e-03
  -2.12523073e-01  2.81037480e-01 -5.04097402e-01  5.38026690e-01
   1.24506786e-01 -1.12696804e-01  6.08249545e-01  3.50901932e-01
  -5.62249005e-01 -4.25087661e-01  9.75652933e-02  2.31850341e-01
  -4.37226087e-01  5.85971810e-02  2.57224590e-01 -4.93961573e-02
   5.21144457e-02 -2.44797766e-01 -6.63090050e-02  3.40915531e-01
   6.11188948e-01 -7.66726211e-02 -4.84467655e-01  3.08990330e-01]
 [-3.40001941e-01  1.83092073e-01  1.18205778e-01  2.84163147e-01
  -5.68202175e-02 -5.35496652e-01  5.54273017e-02 -2.72182465e-01
   4.99708764e-02 -2.18100190e-01  6.67524993e-01 -2.63973046e-02
   6.17002174e-02 -9.57497954e-03 -3.28991950e-01 -3.67788225e-01
  -1.44282252e-01 -1.16849858e-02  4.87050600e-02  5.24776518e-01
  -1.09103523e-01  5.45172282e-02 -4.50740367e-01  5.55721581e-01
   3.80736053e-01 -2.31154561e-02  5.01355231e-01 -9.27676335e-02
  -7.00920895e-02 -6.88642589e-03  5.13743088e-02  2.42517591e-01
  -1.38723373e-01  6.44170046e-02  4.94036615e-01 -2.70051181e-01
  -7.00320676e-02 -2.95666158e-01  9.71291736e-02  1.46750629e-01
  -3.09696913e-01  1.59726396e-01  3.85448068e-01 -4.59454805e-01
  -4.25683528e-01 -1.52967721e-01  1.20653488e-01  1.12712614e-01
  -1.00688927e-01  4.26730402e-02  2.20469713e-01  3.26195881e-02
   3.66067439e-02 -3.98457907e-02  4.70522151e-04  1.54841363e-01
  -8.06206688e-02 -5.09187818e-01 -3.40489626e-01 -1.70320019e-01
   1.80891469e-01 -1.93355143e-01 -1.34351015e-01  1.44189104e-01
   4.59152386e-02 -2.68409938e-01 -1.38278946e-01 -1.57028586e-02
   1.50919303e-01  3.61829162e-01 -3.63644540e-01  1.42084733e-01
   6.75469518e-01  3.37836146e-01 -1.90582529e-01 -1.80488825e-02
   7.04849288e-02  4.43986923e-01 -1.63924262e-01  7.18376413e-02
   8.02803114e-02  1.42519414e-01 -1.56530455e-01 -4.17441308e-01
  -2.08085388e-01  3.63811105e-03 -8.00126567e-02 -5.88815063e-02
  -7.05874758e-03 -3.78389090e-01 -2.77001387e-03  3.82904142e-01
   3.82326767e-02 -4.63073879e-01  7.25724697e-02  2.51538962e-01
   7.28646740e-02  3.12436104e-01 -5.18332839e-01 -1.99532688e-01
  -1.05061270e-01  1.83064833e-01  4.95992720e-01  1.67446971e-01
  -4.00382802e-02  2.90685028e-01 -4.33563292e-01  5.42926729e-01
   4.12318595e-02 -2.62011826e-01  4.13171500e-01  1.03577280e+00
  -2.98678935e-01 -1.22459196e-01  1.08719766e-01  2.88773179e-01
  -1.92203254e-01 -7.96310380e-02 -1.20910764e-01 -2.21530139e-01
   1.03700664e-02 -3.17158401e-01 -8.70174244e-02  1.79680884e-01
   8.64653662e-02  1.11116201e-01 -1.26255974e-01  8.83616284e-02]
 [-5.75120747e-02 -2.35463023e-01 -1.81476846e-01  1.79783866e-01
  -1.45672690e-02  7.64313638e-02  3.40152919e-01 -4.35921043e-01
   1.96595863e-01 -5.69249690e-02  7.13176668e-01 -5.66775799e-02
   8.05522352e-02 -1.28781155e-01  1.40023781e-02 -1.23396978e-01
   3.46804559e-01  1.53819114e-01 -2.01418608e-01  2.77608305e-01
  -2.89587557e-01  5.92836030e-02 -5.22427678e-01  5.12480378e-01
  -1.14366226e-01 -1.65904388e-01  1.82332665e-01  2.75330897e-02
  -2.20120639e-01 -1.11129778e-02  1.65203184e-01  1.61579847e-01
   9.39666182e-02  1.10889720e-02  2.45764866e-01 -1.40088856e-01
  -4.51304138e-01  1.10593237e-01  3.64059001e-01 -1.12677151e-02
  -9.78938565e-02  5.66951074e-02  4.12259907e-01  1.10332243e-01
  -2.28504911e-01 -2.56191581e-01  1.25734666e-02  4.77322303e-02
  -5.54718487e-02  2.93962717e-01  5.38613833e-02 -7.23140165e-02
   5.22727594e-02 -1.94901060e-02  1.27645424e-02  1.35304093e-01
   2.69827340e-02 -7.26077631e-02  2.99007893e-01 -6.43267259e-02
   4.90169451e-02  2.34724134e-01 -1.63735673e-02 -2.30633661e-01
   4.35742959e-02 -1.61581293e-01 -1.72030225e-01  2.40079202e-02
  -2.64483988e-01  2.39525303e-01 -3.52144629e-01  1.56971857e-01
   5.70925891e-01  3.59988391e-01 -3.53821926e-02  7.01831207e-02
  -5.71255311e-02  3.79190028e-01  1.14590444e-01  4.68926691e-02
  -5.10262072e-01  3.15938354e-01  1.18910559e-02  3.24791782e-02
  -1.18643560e-01 -6.78637624e-02 -7.48225898e-02  3.59708011e-01
   2.39051476e-01 -2.61125118e-01 -8.73209089e-02 -5.73462993e-02
   1.50760472e-01 -1.08682811e-01  2.23476142e-01  1.18524514e-01
   4.69072498e-02 -1.94494516e-01 -3.40186924e-01 -2.12022230e-01
   4.57749143e-02  1.59278497e-01  3.87431830e-02  3.51248235e-01
  -1.95761308e-01 -1.00197263e-01 -2.44527659e-03 -2.39990592e-01
   1.44654050e-01 -3.12862575e-01 -1.10099740e-01  1.11713752e-01
  -1.45911416e-02  1.78152502e-01  4.42053191e-02 -1.25480801e-01
  -9.04920623e-02 -1.03805006e-01  1.09187886e-01  3.57444614e-01
   9.77821499e-02 -5.63520193e-01  4.99907089e-03 -1.40235003e-03
  -5.16581953e-01  5.84795773e-01  3.26135367e-01 -1.83883131e-01]
 [-1.49256706e-01 -1.42771363e-01 -1.08152777e-01  2.58151740e-01
  -6.01937100e-02  9.62406676e-03  4.04665172e-01 -1.18814990e-01
  -2.72773057e-01 -1.08122773e-01  5.88852346e-01  7.65847340e-02
  -7.36268461e-02 -1.08152382e-01 -1.82005644e-01 -3.56575586e-02
   1.63232028e-01 -1.20162070e-01 -1.18509099e-01  4.42445666e-01
  -3.43092650e-01  6.38258904e-02  8.22638199e-02  4.79643017e-01
   3.77432823e-01 -8.87309611e-02  1.37995303e-01 -1.06506340e-01
  -3.98959577e-01  7.19553009e-02 -1.89386621e-01  3.08291242e-03
  -1.82610214e-01 -7.69787431e-02  7.66762868e-02 -4.37675975e-02
  -1.24330550e-01  1.20843530e-01  1.57207146e-01 -2.43329540e-01
   2.02602297e-02 -1.82502400e-02  3.18901427e-02  6.56411573e-02
  -5.68275973e-02 -7.14671835e-02  9.20564160e-02 -1.02393568e-01
   1.19521424e-01  6.39213920e-02  2.36537121e-02 -4.72169183e-02
  -3.72005068e-02 -1.50840059e-02  8.96369591e-02 -5.12763299e-02
  -1.19999163e-01 -1.86884284e-01  3.72294366e-01  1.04233213e-01
   2.14242250e-01  4.64163460e-02  1.65858522e-01 -4.25433934e-01
  -1.90366991e-02  5.44206873e-02 -2.39321142e-01  6.52954951e-02
  -5.07738888e-02 -2.96905544e-02 -2.38248587e-01  5.22569865e-02
   4.24982101e-01  1.07823901e-01 -2.45935202e-01 -3.64725366e-02
   7.27867559e-02  1.07606679e-01  5.92149310e-02 -2.10975739e-03
  -4.20712888e-01  9.02924091e-02  1.40451565e-01 -3.25270325e-01
  -2.24568788e-02  1.84067190e-02  4.57452983e-03  3.65906149e-01
   3.90578151e-01 -4.69724797e-02  1.90463495e-02  4.63443510e-02
   6.23291023e-02  3.10219098e-02  1.48058042e-01 -6.43570945e-02
  -2.85318180e-04 -8.56850296e-02  4.51130345e-02 -2.85396159e-01
  -1.74760178e-01  3.50529291e-02  3.38132948e-01  4.34792601e-02
  -2.68115491e-01  5.39825633e-02  1.25202373e-01 -4.52478945e-01
  -4.59861197e-03 -1.71472952e-01  1.89931542e-01 -2.46798657e-02
   2.47964710e-01  5.98768964e-02  1.74475536e-01 -2.10965946e-01
  -2.09583372e-01 -7.97592327e-02  6.17780630e-03  1.32838905e-01
  -7.44046420e-02 -1.89001516e-01  6.49135485e-02  3.23519148e-02
  -2.64239430e-01  4.41812962e-01 -1.45876795e-01  4.15572599e-02]
 [ 9.24646333e-02 -5.02372198e-02  2.38899812e-01  2.83440560e-01
   3.33223119e-02  1.16466068e-01  5.75194508e-02  2.71885782e-01
  -4.62198019e-01  1.35626256e-01  1.02573328e-01 -3.69657800e-02
  -9.76026207e-02  7.80219585e-03  1.37410387e-01  4.39864658e-02
  -4.31747437e-02 -1.79085314e-01  1.23369187e-01  3.79865348e-01
  -1.17380343e-01 -1.17120400e-01  2.56572038e-01  6.33749217e-02
   4.11107212e-01  5.18636731e-03  2.79697888e-02 -5.05949818e-02
  -1.09317966e-01 -1.23255387e-01 -2.50665277e-01  3.72663409e-01
  -1.56218350e-01  4.03049588e-02  1.59955502e-01  3.09404563e-02
   3.08931112e-01 -2.83969361e-02  1.59757510e-01 -1.06485069e-01
  -8.22258368e-02  1.99036807e-01  1.55799434e-01  1.95567504e-01
   2.27242149e-02 -2.38423571e-01  2.10377648e-01  7.15978676e-03
   6.77708238e-02 -8.56278837e-02  1.03040799e-01 -8.10898989e-02
  -3.94381434e-02  4.17433679e-04 -7.71645755e-02 -2.90035531e-02
  -6.55077305e-03 -1.38999019e-02  2.11210310e-01  1.49577543e-01
   4.49279040e-01 -5.50405309e-02 -2.81140544e-02 -7.71697760e-02
  -2.44835839e-02  2.46200189e-02 -2.13550225e-01  3.59652936e-02
   3.26519459e-01  1.20184645e-01 -1.82175875e-01 -3.91163193e-02
   7.37248957e-02 -2.09112555e-01 -1.53188556e-01 -8.03432837e-02
  -6.78609014e-02  8.55177939e-02  2.53629923e-01 -7.35534579e-02
  -2.74581537e-02 -2.61675492e-02 -9.80857387e-02 -1.87902987e-01
  -1.12742253e-01 -5.52410334e-02 -3.67866494e-02  9.17079970e-02
   4.13084686e-01  1.90163270e-01  7.83480629e-02  1.97800830e-01
   1.34495854e-01  4.09698308e-01  1.74455345e-02  6.65813778e-03
   4.35806885e-02  3.85475755e-02  2.98597753e-01 -1.12210043e-01
  -1.44719025e-02 -5.08650303e-01  7.54830480e-01  1.15773052e-01
   1.10952079e-01  2.49835864e-01  1.98120162e-01 -5.08007407e-01
   5.94626041e-03  1.22543558e-01  2.85766989e-01 -5.46035618e-02
   2.92170525e-01  6.75759614e-02  1.69040188e-02  1.68057717e-02
   1.38209552e-01  1.98557511e-01 -1.15877687e-04 -2.89901972e-01
  -1.13624446e-02  1.50016099e-01  7.40495324e-02 -1.62531510e-02
   2.10039452e-01 -8.97040665e-02 -3.80868286e-01  1.26576528e-01]
 [ 2.96007171e-02  3.37323368e-01 -1.22467443e-01 -1.79057956e-01
   6.40335158e-02 -2.88203895e-01 -2.20237687e-01 -1.38250947e-01
  -1.21131934e-01 -3.78911048e-02 -1.34592235e-01 -4.73772287e-02
   5.29041737e-02  8.49780291e-02  1.41402572e-01  1.64599761e-01
   7.78134242e-02  1.35791376e-01 -6.81111515e-02  1.91044152e-01
  -6.01963103e-02 -3.55887637e-02  5.15221544e-02 -2.45089512e-02
  -1.12177044e-01 -1.00740470e-01  1.54564306e-01  3.06102335e-02
  -2.40142271e-01  1.86117619e-01  2.78069228e-01  6.55785725e-02
  -2.05283210e-01 -3.31767648e-03 -1.03032468e-02 -3.21686596e-01
  -6.25583977e-02 -2.30191827e-01  1.66258186e-01  3.92223224e-02
  -2.65068319e-02 -1.88928172e-01 -8.32001120e-02  2.02027306e-01
  -2.06400454e-01 -1.80205315e-01 -9.57720280e-02 -8.60371217e-02
   1.06240481e-01  2.33499501e-02 -6.59523532e-02  3.10229771e-02
   4.21919525e-02  1.87228993e-02  2.60039359e-01  1.69828147e-01
  -1.20695621e-01  2.90036589e-01 -8.49724710e-02 -1.66614011e-01
  -8.37207437e-02  2.62909830e-01  9.30770710e-02 -2.16986060e-01
  -2.36349590e-02 -8.60311091e-02  9.72085968e-02  6.34074286e-02
   1.04334429e-01  8.04491565e-02  1.47036403e-01 -1.40576750e-01
   3.96915883e-01  2.72580743e-01 -1.15697663e-02 -2.02736370e-02
  -4.56039831e-02  2.79132426e-01  3.37921351e-01 -3.58896032e-02
  -2.85581440e-01  8.66399854e-02  1.83430657e-01  2.59384096e-01
  -1.76924676e-01  7.55104497e-02  1.75587907e-02  1.28007978e-01
  -7.55255967e-02  1.63121801e-02 -2.41509452e-02  2.97170766e-02
   1.70454204e-01 -2.15306193e-01 -5.04476577e-03  7.02011213e-02
  -1.14832949e-02  5.97331561e-02 -1.79213792e-01 -2.91758720e-02
  -3.42586897e-02 -1.22017980e-01 -1.46243110e-01  1.42488450e-01
   1.15207784e-01 -2.99653672e-02  1.67997882e-01 -1.36604294e-01
   2.45256573e-01 -1.80831864e-01  3.17132324e-01 -1.18570253e-01
  -1.40596718e-01 -1.06172383e-01  1.92461070e-02  3.68908733e-01
   6.23240508e-02 -1.08024724e-01  3.33085328e-01  6.39137998e-02
   1.69051766e-01 -3.14754993e-01  1.30764851e-02  1.70251261e-02
   2.75625110e-01 -1.13532230e-01  4.04754698e-01 -1.79955475e-02]
 [ 2.96399415e-01 -1.47542566e-01  8.62040743e-02 -1.76982254e-01
   5.63881472e-02 -3.75706583e-01 -1.40526831e-01  2.73374885e-01
   4.51941192e-02 -7.58312643e-02 -1.73739180e-01 -2.54212394e-02
  -7.40495771e-02 -2.10179277e-02  3.58141899e-01 -2.84634590e-01
  -3.35546046e-01 -2.34971955e-01 -1.90734521e-01  2.10824292e-02
  -9.09966156e-02  7.24409521e-02  6.16649278e-02  3.10503513e-01
   1.78554699e-01 -1.68010190e-01  7.97082633e-02 -1.47337794e-01
  -7.62226060e-02  1.43048286e-01  5.09863719e-02  2.03988522e-01
  -3.22427861e-02 -3.19268368e-02  9.41092744e-02 -1.50187939e-01
  -2.07952678e-01  2.53952090e-02  2.72442341e-01 -1.43064350e-01
   4.08725627e-02  1.79764945e-02  1.14724249e-01  1.61972597e-01
  -1.29375324e-01 -1.68234527e-01  1.28030986e-01 -3.66476700e-02
  -3.04463450e-02  8.05941671e-02 -1.15370236e-01 -1.98855996e-04
  -6.47833645e-02  7.72288442e-03  4.11778204e-02 -8.58930200e-02
   5.92427179e-02  1.54826537e-01 -1.44868225e-01 -3.22089434e-01
  -2.90314853e-01  4.36312795e-01  1.59665450e-01  4.58883643e-02
   7.31404796e-02 -1.09451517e-01  2.41544485e-01  2.12173611e-02
  -3.07656169e-01  8.58074240e-03 -9.46100205e-02  6.65420201e-04
   4.34810340e-01  4.96625692e-01 -4.11442183e-02 -5.39018735e-02
  -4.74256352e-02  6.75386041e-02  4.54742193e-01  5.12323529e-03
  -6.18581101e-02  2.04932839e-02 -1.32915556e-01  7.00593293e-01
  -1.52668133e-01 -4.98403087e-02 -5.90777546e-02 -2.12693349e-01
   3.37357000e-02 -9.49861705e-02  1.30358487e-02 -2.18414977e-01
  -6.24605492e-02 -2.16982905e-02  2.92225610e-02  1.80795714e-01
  -2.76470751e-01  1.92878898e-02 -5.10620713e-01  2.81343330e-02
  -7.14622587e-02 -1.26980260e-01  8.47704932e-02 -1.61549374e-01
   1.26766786e-01 -6.88274503e-02  2.15038478e-01 -1.70177504e-01
   5.87179959e-01 -1.59277588e-01  2.97505468e-01  1.91570044e-01
  -2.66818795e-02  2.39822254e-01 -7.53500462e-02  2.43902549e-01
   2.26561371e-02 -2.06800282e-01  4.99149673e-02 -2.91411966e-01
   3.95426974e-02 -2.39298925e-01  3.22686806e-02  1.16410404e-01
   2.79306144e-01  1.60501018e-01  6.04136195e-03 -1.23212345e-01]
 [ 2.06491992e-01  2.12468401e-01  1.35037288e-01 -2.11513475e-01
  -6.32984415e-02  5.46515763e-01 -1.84572428e-01  1.11518376e-01
  -1.16111182e-01 -1.53733432e-01 -3.87633830e-01  5.93733415e-02
  -7.82900825e-02  4.55071256e-02 -2.29705945e-01  3.04446429e-01
   4.25487816e-01  7.77952746e-02 -3.66417825e-01  1.18874758e-01
   9.78628248e-02 -1.16432391e-01 -2.89857686e-02 -2.00405240e-01
   1.35005474e-01  5.23800924e-02  1.38725117e-01  6.27464280e-02
   2.69280560e-02  4.05777693e-02 -4.72356146e-03  2.50218779e-01
   2.12577414e-02 -3.58724482e-02 -2.26288429e-03 -3.19666147e-01
   1.78350344e-01  2.76477724e-01  3.47201198e-01  2.38642111e-01
   1.33054271e-01 -8.67387559e-03  1.12028569e-02  1.25017643e-01
  -1.10841535e-01 -2.35199064e-01 -6.52613938e-02 -1.59674838e-01
   1.28607407e-01 -9.64282602e-02 -2.43988499e-01 -6.59818947e-03
   7.11344406e-02  2.50634626e-02  1.70404300e-01 -3.31534096e-03
   1.85192432e-02  4.17220980e-01  2.94966698e-01 -1.69070512e-01
  -1.82392314e-01 -1.09462596e-01  5.11284471e-01 -1.84880331e-01
  -3.13505568e-02  1.12544589e-01  2.46451497e-01  7.64928833e-02
   3.37811597e-02  1.40203372e-01  2.80337688e-02 -2.26878449e-02
  -3.17958236e-01 -3.25742029e-02  2.39256620e-01  5.55144772e-02
   4.46149036e-02  1.42514050e-01  3.88969779e-01 -1.99005418e-02
  -3.27644534e-02  1.72618762e-01 -1.62503958e-01  2.90001720e-01
  -1.48558661e-01  5.36602363e-02 -7.99068585e-02 -2.90011466e-01
   1.03756774e-03  4.82962042e-01 -2.69279256e-02 -1.51733775e-02
   1.00943632e-01  1.76878288e-01 -5.24771363e-02  1.28231004e-01
  -4.08686429e-01 -4.46106866e-02  4.21196103e-01 -2.43934449e-02
  -9.49209780e-02  1.15188375e-01 -1.15340687e-01 -2.48905830e-03
  -1.68969750e-01  5.83513230e-02  4.23961461e-01 -1.36583239e-01
   4.72271830e-01 -2.42857896e-02  2.98448235e-01  1.14568405e-01
   1.63031504e-01  8.19313079e-02  8.02881569e-02  3.43613088e-01
  -3.39431554e-01 -7.58520141e-02  6.35227382e-01  9.68744382e-02
   1.16455875e-01 -1.28543466e-01 -3.79010960e-02  5.45004234e-02
   3.81755918e-01  2.64947047e-03 -2.98648357e-01  3.29340190e-01]
 [-6.79265782e-02  1.18064590e-01 -1.24870837e-02 -4.04441684e-01
  -5.13284132e-02 -2.57935494e-01 -3.10893476e-01 -3.62107567e-02
  -7.08992854e-02  2.29864687e-01 -6.23492040e-02  5.97813800e-02
   1.56110346e-01  8.85773301e-02 -1.02256864e-01 -2.71739751e-01
   7.06071258e-02  2.47785777e-01 -4.51623857e-01 -7.35278055e-02
   8.59063938e-02  5.10130674e-02  4.83814627e-03 -1.28035903e-01
  -2.01412231e-01 -1.49819657e-01 -4.03395072e-02 -3.22491467e-01
  -8.17045495e-02  2.59452462e-01  2.83767074e-01  1.69303194e-01
  -1.10944033e-01  7.52978846e-02  3.77421826e-01 -4.41736490e-01
   1.49373800e-01 -2.43087471e-01  2.79478759e-01 -2.41390258e-01
   9.95571539e-02  1.57388166e-01 -3.05975467e-01  7.15115219e-02
  -4.61614966e-01 -4.91757900e-01 -2.18796462e-01 -3.85462120e-02
  -2.24807346e-03 -2.20981374e-01  4.67397161e-02  6.02928028e-02
   3.34334821e-02 -5.21465391e-02  1.93952724e-01 -2.59112264e-03
  -4.84022386e-02 -8.38684961e-02 -1.25969276e-01 -2.06415936e-01
  -3.25164288e-01 -4.86490168e-02 -6.61506131e-02 -3.30020666e-01
  -7.09389150e-03  2.21715137e-01  4.94942486e-01  4.38873023e-02
  -1.43818498e-01 -1.09154798e-01 -1.13170467e-01  1.56637263e-02
   3.33961844e-01  3.79319817e-01  3.03268969e-01 -6.41786531e-02
  -8.56319070e-03  2.99796551e-01  1.90883614e-02 -7.82093480e-02
  -4.51557189e-01  1.07832804e-01  5.65137714e-02  3.17775905e-01
  -1.97954625e-01 -3.43446434e-03  1.98281556e-03 -1.66605145e-01
  -3.55675071e-01 -2.06310987e-01  4.70929518e-02  1.43488497e-02
   3.82291712e-02 -3.35859030e-01  2.26471677e-01 -9.09897536e-02
  -3.88140380e-01  1.92226246e-01 -9.93647277e-02 -1.55974150e-01
  -2.03664735e-01 -2.17319131e-02 -2.85676360e-01 -1.51611725e-02
  -1.37586772e-01 -5.11875004e-02  4.02016521e-01 -2.43047744e-01
   2.02437952e-01 -3.58203888e-01  2.14876663e-02 -1.84150130e-01
  -3.50537121e-01  1.24739170e-01  3.41663845e-02  3.73051077e-01
  -2.83494473e-01 -4.20705497e-01 -5.08229919e-02 -2.06229668e-02
   1.34350136e-01 -3.53471190e-01 -3.79226767e-02  2.23836154e-01
   2.80970097e-01  1.38892651e-01 -1.69714928e-01  1.70292914e-01]
 [-2.85940945e-01  3.86020631e-01  1.43086642e-01 -6.78285956e-02
  -2.62750555e-02 -1.65633515e-01 -1.40913427e-01 -4.06553328e-01
  -1.33592382e-01  1.04969420e-01  1.41937360e-01 -1.12296287e-02
   3.08367789e-01 -7.04853609e-02 -1.66317433e-01 -4.81627166e-01
   1.31823331e-01  1.87731013e-01 -3.87278587e-01  1.54246032e-01
  -2.62189806e-01  2.10898127e-02 -3.07329506e-01  6.25017360e-02
   1.78052470e-01 -1.42625362e-01  5.27274087e-02  1.48071200e-01
  -5.55529892e-01  8.47303122e-02  1.61010817e-01 -1.63510501e-01
  -2.14272421e-02  7.15138242e-02 -6.89523071e-02 -4.79707778e-01
   8.56744647e-02 -4.09777313e-01  1.92833066e-01 -3.07908654e-01
  -9.06038135e-02  4.22283821e-02 -6.87525198e-02 -3.02033097e-01
  -4.79003608e-01 -6.01368964e-01  5.60320318e-02 -4.42937724e-02
   1.47774771e-01  2.11567953e-02 -1.23844892e-01 -6.65803701e-02
   1.50976405e-02  4.63109538e-02 -9.43066366e-03 -6.41093552e-02
  -1.32046759e-01 -4.27073359e-01 -2.07282647e-01 -1.96604088e-01
  -2.29375780e-01  7.65409544e-02  9.36852172e-02 -3.47052455e-01
   1.03021488e-02  6.26120940e-02  2.92437077e-01  4.25438471e-02
  -2.33668774e-01 -2.05795035e-01 -2.98210382e-01  2.19079037e-03
   2.29968429e-01  1.75018638e-01  1.38472885e-01  6.61596283e-02
   5.28372824e-03  2.51413882e-01  2.35358298e-01 -6.85027626e-04
  -1.67500630e-01  3.94019596e-02  3.12389284e-01  2.55776793e-01
   1.26080513e-01  7.04009905e-02  6.12993911e-02  1.55825242e-01
  -2.80719459e-01  4.02273014e-02  6.88776514e-03  3.65751050e-02
  -5.01898080e-02 -1.22022822e-01  1.99886277e-01  2.09202632e-01
  -1.43332943e-01 -4.11619954e-02 -3.29662919e-01 -2.32355908e-01
  -1.84285179e-01  1.79963876e-02 -2.26139605e-01 -1.26070455e-01
  -3.39187920e-01  8.11082497e-02  4.03380692e-01 -2.80964226e-01
   4.00815129e-01 -3.65606606e-01 -3.67130786e-01 -2.22630590e-01
  -3.96123707e-01  2.70924598e-01  2.77747232e-02  3.38522613e-01
  -4.23880368e-01 -3.38333517e-01  4.34088148e-02 -2.03796864e-01
  -1.07783899e-01 -6.98616922e-01 -2.16426253e-02  2.67089158e-02
   1.46134198e-01  3.21778923e-01 -3.89868379e-01  2.03984842e-01]
 [-3.18266332e-01  2.66714305e-01  2.45441779e-01  3.39064330e-01
  -7.96544552e-02 -2.69971102e-01  3.06753308e-01 -1.76312417e-01
  -4.33096811e-02 -1.78518638e-01  6.69326007e-01 -6.22188300e-03
  -2.87931170e-02  2.63399482e-02 -3.28508019e-01 -5.92368484e-01
  -3.67526054e-01 -1.51770115e-01 -2.34581292e-01  1.92588076e-01
  -6.74471706e-02 -1.02869272e-02 -3.11592966e-01  6.20790184e-01
   2.16278031e-01  4.91944924e-02  1.46417484e-01 -5.90165973e-01
  -2.90069669e-01  4.97444645e-02  3.07317436e-01 -4.28961264e-03
  -1.56244457e-01 -6.28864840e-02  1.27541915e-01 -4.30776209e-01
  -4.17179406e-01 -4.41702932e-01  2.60183960e-02  8.35617706e-02
  -3.03553224e-01 -1.58184081e-01  3.18436533e-01 -1.48937449e-01
  -3.12767178e-01 -7.01478660e-01 -5.41366413e-02  1.56633005e-01
  -1.75220206e-01  8.49771276e-02  2.10451409e-01 -6.06022601e-04
   7.85741955e-03  6.72204569e-02 -1.88223734e-01  3.06969434e-02
  -2.21317232e-01 -3.79648119e-01 -2.20683202e-01 -3.24652076e-01
  -1.37152031e-01 -6.29374310e-02 -7.64977420e-03  2.43104115e-01
  -4.71433923e-02 -2.87176847e-01 -4.57952172e-02 -4.67348322e-02
  -2.91159570e-01 -1.62138090e-01 -4.78999883e-01  3.18684369e-01
   5.62702715e-01  2.14413330e-01  1.19697750e-01 -3.77240516e-02
   4.21209261e-02  5.88711314e-02  5.14830910e-02  2.59092823e-02
  -3.65850002e-01  7.62655884e-02  3.18836793e-03  9.58066061e-02
   2.69128889e-01  5.26391044e-02 -2.99264640e-02 -2.86947787e-01
   1.03578925e-01 -1.69343144e-01 -4.40151654e-02  4.87939149e-01
  -1.33550763e-01 -4.08247381e-01  1.03849910e-01  3.18614095e-01
   9.49267894e-02  3.24686803e-02 -4.64934319e-01 -2.76422501e-01
  -1.31284315e-02  6.90060928e-02 -7.62289837e-02  4.73300442e-02
  -1.11448213e-01  3.07053149e-01 -1.90789551e-02  7.19374120e-02
   2.57136494e-01 -1.42502293e-01  1.75242469e-01  2.29627132e-01
  -5.41129112e-01  5.34801260e-02 -1.27753481e-01  3.31299752e-01
  -3.15022081e-01 -3.92254740e-01 -2.45086387e-01 -1.26603022e-01
  -1.77589402e-01 -5.22868216e-01 -5.65100610e-02  3.28802675e-01
  -3.37425590e-01  3.08689862e-01 -3.41731757e-01 -2.43926108e-01]
 [-1.36490270e-01  6.40289783e-02  3.26208547e-02  1.32763669e-01
  -8.29584971e-02 -7.76226819e-02  9.21934918e-02 -1.61603794e-01
   1.46921799e-01 -2.88350284e-01  5.24976850e-01 -6.81646243e-02
  -2.31437609e-01  3.48475985e-02 -3.64343189e-02 -2.62983352e-01
  -2.33884081e-01 -1.99879199e-01 -2.55787939e-01  2.39899665e-01
  -3.59884240e-02 -1.36119291e-01 -1.40921980e-01  5.61531067e-01
   4.54437792e-01  5.82720861e-02  1.00512840e-01  1.06033497e-02
  -5.60895324e-01  1.25728041e-01 -7.04347994e-03  8.90585706e-02
  -6.38090447e-02 -3.24963182e-02  2.63682038e-01 -3.17589939e-01
  -1.49659634e-01 -4.07210648e-01 -2.38695189e-01  2.69214422e-01
  -5.64636648e-01 -3.20438594e-01  2.40652114e-01  9.76177454e-02
  -3.44427824e-01 -3.82968664e-01  2.65841216e-01  4.76880707e-02
  -1.86118081e-01  7.70385116e-02  1.98314503e-01  5.29395416e-02
   7.14514926e-02 -2.97486670e-02  2.08258983e-02 -2.49062311e-02
  -1.63257688e-01 -2.21799150e-01 -2.42839098e-01 -2.13453427e-01
   1.10440090e-01 -9.41402614e-02  2.32046336e-01  1.35217473e-01
  -6.67876229e-02 -7.07285181e-02 -3.26673418e-01 -1.43239377e-02
  -1.41486824e-01 -2.07817808e-01 -6.18055940e-01  2.52616674e-01
   3.43815535e-01 -2.61990309e-01 -4.01124746e-01  4.09267098e-02
   8.10103491e-02 -3.46865028e-01  1.83548763e-01  8.31355676e-02
  -4.81166840e-02  9.54407975e-02  9.11383331e-02 -1.90514371e-01
   4.61947113e-01 -4.61451672e-02  5.08367345e-02  8.04429427e-02
   8.96311030e-02 -2.10896075e-01  1.60526820e-02  1.81947649e-01
   1.51733816e-01 -1.70029894e-01 -1.91399738e-01  3.41129869e-01
  -2.17823803e-01 -3.35239470e-01 -3.27961385e-01 -7.13406578e-02
  -5.63255325e-02  1.86021253e-02  7.98622444e-02 -4.75910977e-02
  -1.47884324e-01  3.42132568e-01 -1.07312612e-01 -2.42520154e-01
   2.59805828e-01 -8.75078067e-02 -3.46269347e-02 -2.31370494e-01
  -5.07588327e-01 -3.03705364e-01 -5.63167855e-02  2.66054809e-01
  -1.58081084e-01 -3.17981988e-01 -1.85573205e-01  2.65489995e-01
  -4.84508485e-01 -6.01169188e-03  6.57034442e-02  8.61993209e-02
  -1.00260854e-01  1.47324204e-02 -4.77154940e-01  1.17722135e-02]
 [-2.53985733e-01 -1.23553112e-01  2.64790565e-01  3.58940214e-01
  -1.91135153e-01 -2.16382429e-01  9.06432196e-02  1.87350109e-01
  -2.93818533e-01 -3.82162929e-01  3.02598715e-01 -4.43048179e-02
  -1.64826170e-01  6.08341843e-02  6.15871660e-02 -2.29171097e-01
  -5.98689355e-02  1.10973958e-02 -3.13236237e-01  1.16072550e-01
   1.55681610e-01 -5.37834875e-02  5.82747646e-02  5.16283154e-01
   9.09363404e-02 -7.70815685e-02  1.25259280e-01  1.59645706e-01
  -1.70931756e-01  2.43806347e-01 -1.68561473e-01  4.40276116e-02
   1.53108731e-01  5.23096137e-02  1.06540821e-01 -3.28189313e-01
   4.79839742e-02 -5.88823795e-01 -1.22293182e-01 -2.49590740e-01
  -6.02986634e-01 -2.50119358e-01  6.59146756e-02  1.21336006e-01
  -3.89638662e-01 -3.36503657e-03  7.25728750e-01  3.00108939e-01
  -2.53454059e-01  1.34866998e-01  1.45160496e-01 -5.71671985e-02
   1.37230912e-02  1.11148506e-03 -4.58278358e-01  7.34083354e-02
  -2.55851150e-01 -3.32716197e-01 -2.31321082e-01 -1.57040119e-01
   2.65806556e-01  6.36057928e-02  1.42808840e-01  9.26067606e-02
  -3.00152451e-02 -5.08327663e-01 -7.39782155e-02 -5.81605397e-02
   2.10932896e-01 -2.67582536e-01 -8.50478649e-01  1.46623194e-01
   2.35411137e-01  3.77158634e-02 -7.21639931e-01  7.19602183e-02
  -8.05880874e-03 -6.59970105e-01 -1.07998125e-01  7.51688033e-02
   7.00166821e-03  2.59632617e-01  8.29993412e-02 -3.41146231e-01
  -7.03327805e-02  4.90374193e-02  3.45912874e-02  2.54413998e-03
   2.57175453e-02 -3.15178424e-01 -6.83434531e-02  1.84202164e-01
  -1.99987218e-01 -1.10170007e-01 -2.70735264e-01  5.33750534e-01
   2.01659605e-01 -8.19060951e-03 -5.12652636e-01  2.73248982e-02
   1.01632103e-01 -3.97886187e-01 -1.44463331e-01 -2.09270030e-01
  -3.75018954e-01  4.25876200e-01 -3.75927120e-01 -3.53042573e-01
   3.11843097e-01 -8.47656652e-02  2.79509395e-01 -2.25954592e-01
  -2.72231579e-01 -6.34814322e-01 -9.26384851e-02  4.74477708e-02
  -6.88300490e-01 -3.01422775e-01  9.80945490e-03  2.23377109e-01
  -8.98561180e-02  2.88119137e-01  7.45453089e-02 -1.07078075e-01
   4.76365499e-02  1.67461097e-01 -5.29399991e-01 -6.75770417e-02]
 [-3.50514770e-01 -5.05386949e-01  3.90440166e-01  2.01930180e-01
  -3.62674206e-01  4.14990522e-02  3.18826467e-01 -3.14148009e-01
   2.06179485e-01  7.33555257e-02 -2.17587054e-02  8.08106177e-03
   1.61519974e-01 -2.92779535e-01  5.02296686e-01 -1.72075257e-01
   1.57006122e-02  2.11231187e-02 -5.72194397e-01 -1.92663103e-01
   2.77041234e-02  2.01415736e-03 -2.59227663e-01  2.96694815e-01
  -1.07764378e-01  2.12233499e-01 -1.78408399e-01 -3.12828898e-01
   7.86193088e-02  1.04202509e-01  8.63506496e-02 -2.95946151e-02
  -4.54491228e-02 -1.42617421e-02 -1.98792815e-01 -6.35233343e-01
   1.97255969e-01 -7.08655179e-01 -1.08680539e-01 -8.00436139e-01
  -5.35957992e-01  9.77993384e-02 -2.52168000e-01  3.60631227e-01
  -2.31598198e-01 -3.86741757e-01  3.42506647e-01  2.45384991e-01
  -2.04396918e-01  2.26209592e-02  1.29551113e-01 -7.63102025e-02
  -1.76463444e-02  3.64078134e-02 -5.62951803e-01  5.37139624e-02
  -1.12078160e-01 -1.83871627e-01  5.31822853e-02 -6.85242191e-02
   1.24083020e-01 -4.38141376e-02 -1.42353594e-01 -4.22943868e-02
  -1.34037435e-03 -2.06523880e-01  1.34992421e-01 -5.99725880e-02
  -1.29848421e-01 -3.20894510e-01 -4.35993284e-01  1.04711428e-01
  -5.85148446e-02  2.12331966e-01  4.16514166e-02 -5.85121661e-02
   5.43242060e-02 -5.76848745e-01 -2.04779729e-01 -8.00332054e-03
   4.04490381e-02  3.45563769e-01  3.03947162e-02 -2.34076336e-01
  -2.38549337e-01 -6.79107308e-02  4.16798741e-02 -1.18037134e-01
  -3.01805854e-01 -3.29438567e-01  7.17889285e-03  1.92131214e-02
   1.92317870e-02 -2.85388738e-01  1.74114630e-01 -2.69449558e-02
  -1.53392181e-01 -2.82733262e-01 -2.15648517e-01  2.37676904e-01
  -1.03750877e-01 -5.11442542e-01 -1.83897853e-01  4.61744890e-03
  -3.62767667e-01  3.42332393e-01 -3.34617078e-01 -2.13544473e-01
  -1.81053802e-02 -3.75704944e-01 -1.51201740e-01 -1.93276584e-01
  -4.49750960e-01 -3.89266200e-02 -2.06485927e-01 -2.64675380e-03
  -2.02249065e-01  5.61490981e-03  9.05853435e-02  1.22757412e-01
  -2.22308770e-01 -2.45444402e-02  2.97060963e-02  1.65189192e-01
  -3.02414417e-01  8.60859081e-02 -4.04447138e-01 -1.60524279e-01]
 [-5.43172173e-02 -3.91948491e-01  5.53479679e-02  1.62174240e-01
  -2.66234547e-01  8.45947266e-02  2.78097749e-01 -4.82528597e-01
   1.02131255e-02 -3.50973755e-02  9.65512767e-02 -5.40150190e-03
   7.09178597e-02 -3.07378769e-01  5.40629447e-01 -2.08923697e-01
   7.42588788e-02  5.04045822e-02 -5.58313608e-01 -1.78690534e-03
  -1.43756136e-01 -2.07196131e-01 -2.95523047e-01  2.73697376e-01
   1.54216960e-01  1.73176661e-01 -1.63484320e-01 -1.61879450e-01
  -2.36181706e-01 -1.07188495e-02  6.51031435e-02  2.00995039e-02
  -2.50176787e-01  3.91809680e-02 -7.06886232e-01 -1.02745497e+00
   3.42638344e-02 -2.57537633e-01 -4.82591428e-02 -2.61209369e-01
  -8.39640498e-02  2.71387011e-01 -2.06267074e-01  1.03152089e-01
  -1.39690116e-01 -2.14622930e-01  3.89317006e-01 -2.33318321e-02
  -6.70748875e-02  8.55535492e-02  3.86834472e-01  5.28931133e-02
  -2.71276589e-02 -3.39620784e-02 -2.59922206e-01  6.13437369e-02
  -2.17967004e-01 -2.89972365e-01 -1.12325074e-02 -2.06148058e-01
  -6.93088099e-02  7.65801035e-03 -6.78944364e-02 -1.59226090e-01
   5.36001548e-02 -1.90579906e-01  1.37532324e-01  3.11660301e-02
  -4.70316894e-02 -3.30653906e-01 -2.95294762e-01 -4.67986315e-02
  -3.38060439e-01 -6.01854958e-02 -5.71312010e-02 -8.04350227e-02
   5.55193517e-03 -4.42986906e-01 -6.60786852e-02  2.67645484e-03
  -1.27744287e-01  8.21787678e-03  1.86652407e-01  5.58942854e-02
   1.83136746e-01 -2.53798366e-02  6.22570589e-02  2.03472115e-02
  -5.90059936e-01 -1.27135307e-01 -2.03155242e-02 -7.75033236e-02
   9.97943953e-02 -1.56965449e-01  3.42932135e-01  1.57220811e-01
  -1.18076548e-01 -2.92896390e-01 -4.00061831e-02  2.50108570e-01
  -9.44525823e-02 -1.75752535e-01 -2.46075243e-01  1.80916131e-01
  -1.88371286e-01  2.13720128e-01 -1.87751040e-01 -7.99175873e-02
   2.67995298e-01 -3.33019406e-01 -1.12151496e-01 -2.62363791e-01
  -7.67301202e-01  3.44749279e-02 -2.08519354e-01  1.86608344e-01
   2.40006313e-01 -2.96680368e-02  1.36556685e-01  3.79681922e-02
  -2.77903557e-01 -1.11212470e-01  1.09885819e-02  8.19854736e-02
   5.01713268e-02  3.43562603e-01 -5.06574273e-01 -1.10681467e-01]
 [ 2.43268102e-01 -1.28954664e-01  1.68646023e-01 -9.23345909e-02
   6.18603490e-02  2.16942400e-01 -1.10164516e-01 -1.95226938e-01
  -7.65554160e-02 -3.23387116e-01 -2.04274505e-01 -7.50242472e-02
  -2.13467047e-01 -1.01852380e-01  1.44178599e-01  6.54502213e-02
  -2.86176242e-02 -6.13803044e-02 -2.87909269e-01  1.93498522e-01
  -3.68935704e-01 -4.28969234e-01 -9.55992639e-02 -9.52975303e-02
   4.27334607e-01 -4.21805345e-02 -2.67983042e-02  1.68856382e-01
  -1.58908963e-01 -2.39088580e-01 -1.52359739e-01  3.02196965e-02
  -1.26604155e-01  3.51711363e-02 -9.03217733e-01 -1.36049345e-01
  -1.53438002e-01  3.93803507e-01  4.85244021e-02 -5.20275831e-01
   4.67357129e-01  1.16625182e-01 -4.18247163e-01 -2.03034192e-01
  -3.43183398e-01 -6.81541562e-01  2.76192725e-01 -2.03856513e-01
  -2.79997170e-01  9.86649916e-02  4.13447410e-01 -3.23334672e-02
  -8.64447877e-02 -4.73500825e-02  3.34327370e-01 -8.56450871e-02
  -2.12350264e-01  1.08638266e-02 -1.25167938e-02 -3.89182180e-01
  -9.70178172e-02  2.38098353e-02  2.37066612e-01  1.04955405e-01
   2.96163708e-02  1.56592816e-01  5.82520105e-03 -3.11723333e-02
   2.96173990e-01 -3.23780984e-01  3.73431683e-01 -4.12972450e-01
  -7.20382512e-01 -2.20607698e-01  4.54209074e-02  5.61672859e-02
   7.46924728e-02 -4.45164382e-01 -1.74504787e-01 -2.16233507e-02
   2.15863183e-01 -2.24264473e-01  2.01779410e-01  1.41798452e-01
   3.27260137e-01 -4.27758507e-02 -6.46407902e-03  1.76267982e-01
  -6.04054809e-01  1.36930391e-01 -3.49863223e-03  5.89414965e-03
   2.78179962e-02  4.70792532e-01 -1.95988640e-03  1.47354439e-01
  -4.53909397e-01 -4.82539535e-01  4.31028843e-01  7.54534230e-02
  -6.51827753e-02 -2.58087534e-02 -1.01505339e-01 -1.23840630e-01
   1.80303067e-01  2.75359064e-01  2.82025814e-01  2.44258523e-01
   3.22823167e-01 -3.92022461e-01  5.61326563e-01  1.10622235e-02
  -7.09469840e-02 -1.04612350e-01 -3.12424242e-01  1.77897096e-01
   8.81913453e-02 -1.32631078e-01  7.09976703e-02 -2.08683580e-01
  -1.98783889e-01  6.94271624e-02  4.57170382e-02 -3.13156843e-01
   4.01460201e-01  1.19978115e-01 -4.99227107e-01  2.69985497e-01]
 [ 1.12733416e-01 -1.85864672e-01 -8.83258283e-02  1.49970695e-01
   3.52391183e-01 -7.20615033e-03 -2.24813586e-03 -9.88501757e-02
  -7.28568435e-02 -1.55388013e-01 -4.08651233e-01  1.88768879e-02
   2.41256282e-01 -1.84072524e-01  2.42089197e-01  1.33464158e-01
   3.48814219e-01 -3.18073452e-01 -1.18575156e-01  3.04944307e-01
   1.34470478e-01 -2.99132824e-01 -2.73575246e-01 -1.35892788e-02
   1.87535331e-01 -1.47135034e-01 -5.41472323e-02  3.98812890e-02
   1.60994276e-01 -2.51961529e-01 -1.48854867e-01  7.24359900e-02
   2.53773537e-02 -4.60623652e-02 -8.47638965e-01 -2.88555413e-01
  -1.56059995e-01  3.18546712e-01  4.00510803e-02 -2.52296329e-01
   3.21091235e-01  3.96909714e-01 -3.81841771e-02  5.14269024e-02
  -3.17228407e-01 -1.44331872e-01  2.83970237e-01 -3.23250294e-02
  -1.64099395e-01  7.23101124e-02  4.41496998e-01 -2.79976130e-02
  -6.82371333e-02 -7.54842609e-02  1.72521219e-01 -7.55180642e-02
  -1.99692458e-01  9.04557779e-02  1.37332588e-01 -6.78393468e-02
  -6.36859462e-02  1.73166871e-01  3.43538791e-01  3.19723785e-01
  -2.74054706e-02  2.13756353e-01 -7.70445960e-03  2.87110242e-03
   2.55713016e-01 -4.15601403e-01  3.96292210e-01 -3.16787481e-01
  -8.15194428e-01  9.15141404e-02 -5.30498736e-02  2.31274888e-02
  -8.68068859e-02 -2.48833492e-01 -3.78373772e-01 -2.07193401e-02
   2.84098238e-01 -2.02423081e-01  6.57890588e-02 -2.15238687e-02
   7.28343427e-02  2.70728972e-02  1.16757527e-02  8.14264938e-02
  -1.58255339e-01  8.64295289e-02 -5.74277043e-02 -1.82849258e-01
  -4.47375067e-02  6.01868182e-02 -4.73822141e-03 -1.36095539e-01
  -2.03908652e-01 -2.55300224e-01  1.34117737e-01 -5.65787889e-02
  -2.21459061e-01 -9.05111656e-02  1.69662610e-01 -3.85952264e-01
   1.17096737e-01  2.08843812e-01  1.68130189e-01  1.70374840e-01
   4.59447177e-03 -6.61732480e-02  2.55741090e-01  1.35491729e-01
   1.86848760e-01  2.79112756e-02 -6.31068796e-02  1.00069702e-01
  -6.49576113e-02 -2.59835497e-02  2.50122249e-01 -3.08937490e-01
   1.26610128e-02 -7.85170943e-02  4.46785018e-02  9.40964967e-02
   3.03035408e-01  2.68262029e-01 -4.54728305e-01  9.75651667e-02]
 [ 2.86380872e-02  1.25610456e-01 -3.86729948e-02  2.21083730e-01
   2.23521903e-01 -3.21152620e-02  1.90780893e-01  1.94302574e-01
  -6.93283305e-02 -6.61584549e-03 -2.52617478e-01 -7.42887855e-02
   1.95738971e-01  8.39083865e-02  3.54286321e-02  1.75250992e-01
   8.73580500e-02 -4.53027070e-01  1.49630576e-01  1.29936978e-01
   1.94181681e-01 -7.73190856e-02 -1.20470978e-01  1.68621793e-01
   3.21844704e-02  2.28717830e-02  1.50771528e-01  3.47830467e-02
   2.87744343e-01 -2.05361307e-01 -1.26409799e-01  1.20008670e-01
  -6.54446483e-02 -3.14488560e-02 -4.28602099e-01 -2.95547545e-01
  -2.20895912e-02  1.54440910e-01  1.54841974e-01 -5.66486791e-02
   1.66386202e-01  2.22111996e-02  6.76362813e-02  6.28161058e-02
  -1.54608879e-02  5.63504025e-02  3.12589854e-01  1.24309370e-02
   8.05068836e-02 -1.08820796e-01  2.76137650e-01 -1.52854109e-02
   6.83074966e-02 -7.64588490e-02 -4.27661091e-03  8.31801742e-02
  -1.62145764e-01  1.63939431e-01  1.34753153e-01 -6.25646785e-02
  -1.58666641e-01  1.30565315e-01 -1.66269615e-01  2.94646353e-01
  -4.89676632e-02  1.88717678e-01 -9.77549180e-02 -3.39104123e-02
   8.92351791e-02 -2.36171424e-01  2.37703115e-01 -2.38281861e-01
  -4.32873249e-01  1.79092005e-01 -1.17738992e-01 -2.39996240e-02
  -3.88793387e-02 -1.48247361e-01 -1.43750846e-01  2.31404626e-03
   1.14811853e-01 -1.85313269e-01  1.05975896e-01 -1.23498276e-01
  -7.23628178e-02 -2.71245576e-02  2.98040733e-02  6.27029166e-02
  -5.03707156e-02  5.08754104e-02 -4.19636779e-02  5.58024868e-02
   1.10155307e-01 -3.13289128e-02 -6.31492734e-02 -4.36790287e-02
   8.28105025e-03 -1.67041004e-01 -1.51860759e-01  2.00211823e-01
  -1.00024827e-01  1.56917945e-01  3.17966402e-01 -3.72322470e-01
  -1.22592682e-02 -8.53422731e-02  3.90600190e-02  5.83229735e-02
  -6.23632409e-02  6.70931190e-02  2.06500217e-01  3.29570144e-01
   1.35862544e-01  1.16082184e-01 -2.33464148e-02 -9.86158401e-02
   1.84652418e-01  3.24605517e-02  2.85102189e-01 -3.72713536e-01
  -1.05190657e-01  3.13776225e-01  2.86353249e-02  1.49919558e-02
   1.70336500e-01  1.80461749e-01 -6.09322116e-02  2.37265714e-02]
 [-1.27672348e-02  1.03371575e-01  7.31885061e-02  1.76393569e-01
   1.12501942e-01  6.22639917e-02  5.34539074e-02  1.71169546e-02
  -1.63257614e-01  1.02427728e-01  1.30455866e-01 -7.33529925e-02
   7.87345916e-02  5.83599918e-02 -1.50737382e-04  6.24617115e-02
  -7.88239986e-02 -4.14790899e-01  2.26890847e-01  1.91555351e-01
  -1.80207789e-02  4.40020896e-02  5.98459095e-02  1.04496501e-01
   4.72447909e-02  1.39870510e-01 -8.94078165e-02  2.02282630e-02
   9.53505039e-02 -8.09981152e-02  1.01918153e-01  3.65759879e-02
   2.79161818e-02 -9.02246907e-02  2.00681776e-01 -1.29649490e-01
   1.38755050e-02 -1.00278705e-01  1.22414060e-01  1.67777151e-01
   1.27463192e-01  8.22392292e-03  2.65582860e-01  9.49471220e-02
   8.22205991e-02 -1.79940485e-03  9.84388962e-02  2.76283056e-01
   1.83285903e-02 -2.39143029e-01  1.68227315e-01 -7.39748999e-02
   6.60323026e-03 -8.98052081e-02 -1.46119520e-01  1.42555032e-02
  -3.98865826e-02  1.73311606e-01  8.52325559e-02 -1.13515347e-01
   1.02209695e-01  4.36474755e-02 -3.58032614e-01  1.19942993e-01
  -5.24031743e-02  2.52055377e-01  2.09465679e-02 -4.17986177e-02
  -2.30589569e-01 -3.18415701e-01 -1.77461445e-01  1.03260294e-01
   1.30835950e-01  3.14915717e-01 -1.31167471e-01 -4.57080379e-02
   4.33732495e-02 -2.12803498e-01  9.76520479e-02 -7.59027675e-02
   6.76958039e-02 -2.02595070e-01 -3.66578903e-03  3.32375392e-02
  -8.52190256e-02  2.12875530e-02 -2.33695023e-02 -6.21417537e-02
   6.74897730e-02 -1.80555154e-02  5.41182607e-02  6.94221929e-02
   3.37429702e-01  3.50973271e-02  1.60476476e-01  1.45997673e-01
   2.23089397e-01  3.41208905e-01  3.43481428e-03  2.37736329e-01
  -4.68317866e-02  3.82475972e-01  1.17406800e-01 -5.95523641e-02
  -5.40379547e-02  3.07760816e-02 -4.95911986e-02 -2.04189211e-01
   2.01966062e-01 -4.81467135e-02 -7.54555166e-02  2.28117898e-01
   3.20579559e-02  1.60699293e-01 -1.11437790e-01 -5.56991510e-02
   1.06268592e-01 -3.53897363e-02  1.33104444e-01 -1.65064797e-01
   1.96506113e-01  3.63738626e-01  6.47759065e-02  7.21207708e-02
   5.00648506e-02  1.00996658e-01  9.94708315e-02 -8.91301855e-02]
 [ 8.09016079e-02  2.43713945e-01  3.06633972e-02  6.15854822e-02
  -2.61157900e-01  2.05411226e-01  2.94269472e-02  1.06766157e-01
  -9.11849216e-02  1.60986096e-01 -1.10006049e-01 -8.55133608e-02
   4.54755127e-02  2.43413091e-01 -1.00432061e-01  2.79609591e-01
  -1.37087228e-02 -6.94372475e-01  5.94652668e-02 -2.05067158e-01
   2.80794352e-02 -1.38583379e-02  4.30572070e-02  7.26008043e-02
   6.49349540e-02  1.82229970e-02 -2.06653699e-01 -7.93294311e-02
   2.37996250e-01 -1.18006557e-01 -1.31410751e-02 -6.23779604e-03
   4.73689362e-02 -2.45921630e-02  2.14973971e-01 -7.98171014e-02
   3.51874754e-02  6.98635206e-02  2.29729012e-01  2.57219940e-01
   1.82513341e-01  5.04568070e-02  1.86679900e-01  1.55530721e-01
   3.00692692e-02 -1.10021345e-01  1.64828226e-01  2.20882162e-01
   2.04682216e-01 -2.84586579e-01 -2.98729956e-01  2.29991544e-02
   2.24863868e-02 -2.87341904e-02  1.32665008e-01 -4.08131517e-02
   6.29759058e-02  3.32752973e-01  9.46874917e-02 -7.43963793e-02
   6.80017471e-02 -5.44503424e-03 -4.67940271e-01  1.29972443e-01
  -3.16913798e-02  3.07545960e-01  3.78029794e-02  2.87954201e-04
  -1.01609901e-01 -6.38507903e-01  6.46247435e-03 -1.96920857e-02
   8.00499097e-02  2.51206785e-01  1.38465405e-01 -4.67514098e-02
   4.24587652e-02  1.88812558e-02 -4.23211344e-02  3.05644888e-02
   1.17610052e-01 -7.32967183e-02 -1.84751406e-01 -9.15432349e-02
   6.64875731e-02  4.04687375e-02 -5.03672808e-02 -2.48300001e-01
   1.40039697e-01  9.27843079e-02  5.87970726e-02  4.81855348e-02
   1.86775252e-01  2.44663104e-01 -1.58666104e-01  4.51841615e-02
   1.20976381e-01  1.64265499e-01  1.93195000e-01 -8.07346497e-03
   2.75983006e-01  4.01292086e-01  1.37506515e-01 -5.51576428e-02
  -1.32519543e-01  3.48625481e-02  1.10654309e-01 -1.36348726e-02
   1.74611315e-01  1.58674091e-01  1.80201337e-01  2.81360716e-01
   6.57817274e-02 -1.27338050e-02 -1.49390265e-01 -2.44011462e-01
   3.61111611e-01  1.52351215e-01  1.97324142e-01 -2.73821890e-01
   1.74171269e-01  2.72986203e-01  6.84534237e-02 -6.90434277e-02
   1.04338951e-01  1.38090789e-01 -1.79287251e-02  2.49520108e-01]
 [ 8.91437083e-02  2.84857631e-01  4.46912320e-03 -2.02192813e-02
  -2.79511243e-01  2.42608339e-01  1.69134270e-02  1.87850595e-01
  -1.66459918e-01  1.37725130e-01 -4.89948422e-01 -5.32639511e-02
   1.25550956e-01  3.49399239e-01 -3.03818405e-01  4.02860820e-01
   6.27056323e-03 -3.16678882e-01  1.51503952e-02 -4.55294490e-01
   8.26571137e-02 -8.29301700e-02  1.43071488e-01  7.49768838e-02
  -7.09818956e-03 -1.14053190e-01  1.15707591e-02  6.97639883e-02
   2.05761671e-01 -1.75712883e-01 -3.37150581e-02 -2.06453487e-01
   2.92371958e-02 -2.14345045e-02  2.15646565e-01 -1.90128721e-02
   2.75977284e-01  1.63389966e-01  1.66231707e-01  2.36333743e-01
   2.24207193e-01  6.32764697e-02  2.15198129e-01  8.91779736e-02
   5.56686334e-02 -1.16037212e-01  2.11272255e-01  1.91156954e-01
   6.05535693e-02 -7.57241994e-02 -5.80026448e-01  2.53015459e-02
   6.55324087e-02  5.79058863e-02  2.07556665e-01 -9.75285396e-02
   1.66631341e-01  3.61788779e-01  1.09269068e-01  8.24532211e-02
  -6.99021667e-02 -1.16569601e-01 -4.12510335e-01  3.64675261e-02
  -3.38485055e-02  3.41199398e-01  1.68264620e-02 -8.80665481e-02
   7.88672566e-02 -5.45022607e-01  2.00429022e-01 -1.75481498e-01
   1.46951787e-02  1.61997661e-01  8.53641406e-02 -3.30038927e-02
  -1.10021777e-01 -1.33931890e-01  7.25950301e-02  7.95070082e-02
   1.28321841e-01 -6.96841776e-02 -2.34232277e-01 -9.19410661e-02
   1.29997462e-01 -5.68131171e-02  9.27097350e-03 -2.59436965e-01
   1.80232704e-01  2.97678471e-01 -3.53540406e-02  2.70325318e-02
   2.08428636e-01  2.64118254e-01 -1.94622576e-01  3.13966982e-02
  -4.98521561e-03  1.51790962e-01  2.16314584e-01 -1.10447839e-01
   1.47024244e-01  4.37808126e-01  3.79573368e-02 -3.49080652e-01
  -1.91777498e-01 -5.33041805e-02  2.29031056e-01 -1.02159165e-01
   2.78491881e-02  3.45256001e-01  2.07550704e-01  3.35038096e-01
   2.06361674e-02 -2.38833372e-02 -2.03414515e-01 -3.67825091e-01
   3.94863665e-01  4.49520536e-02  1.34336427e-01 -4.55742627e-01
   1.48517594e-01  1.07635066e-01  2.33879592e-02 -5.87280095e-02
   3.04822326e-01 -7.14421049e-02  8.74081999e-02  2.38179773e-01]
 [-4.58554402e-02  2.24768549e-01 -2.00658403e-02  2.24288970e-01
   3.83397453e-02  9.15390626e-02  1.71637774e-01  5.95041439e-02
  -1.86027229e-01  2.66124815e-01 -3.56817469e-02 -1.11218229e-01
  -3.89259122e-02  1.59942448e-01 -2.92329155e-02  3.53097051e-01
   1.47330806e-01 -4.99321580e-01  2.59283036e-01 -3.05924833e-01
   6.42191172e-02  2.09191162e-02  9.48716030e-02  1.45144209e-01
  -2.40155220e-01  4.56925854e-02 -5.74696176e-02  3.78010385e-02
   3.97888094e-01 -2.27582425e-01  1.11031704e-01  1.92919616e-02
  -2.31505394e-01 -8.69793594e-02  2.81621307e-01 -3.22681591e-02
   3.25350985e-02  5.80168106e-02  1.07533626e-01  2.27772906e-01
   1.33937880e-01  8.39957409e-03  3.12264353e-01  1.50556579e-01
   2.87284315e-01 -7.46495873e-02  2.03768209e-01  3.29687804e-01
   1.52555868e-01 -1.32942021e-01 -8.28420743e-02  2.39385758e-02
   1.02796573e-02 -3.14396918e-02 -1.09613493e-01 -6.87934011e-02
   2.19560981e-01  3.80970091e-01  2.80762255e-01  1.16657481e-01
  -1.95294604e-01 -1.70633614e-01 -4.12528962e-01  9.65311155e-02
  -2.77874321e-02  3.74484360e-01 -1.01540618e-01 -8.53778869e-02
  -1.38676450e-01 -5.88704824e-01 -1.22118197e-01 -4.53965440e-02
   1.71360627e-01  2.50692397e-01  1.27655163e-01  5.22057526e-02
   3.78486477e-02  1.30096212e-01 -1.01279631e-01 -4.72696535e-02
  -7.98840672e-02 -2.26311982e-01 -2.04922393e-01 -4.21813801e-02
   4.73551676e-02 -7.86938146e-02 -8.00359249e-02 -1.07366398e-01
   1.47985443e-01  4.45707329e-02 -7.59352073e-02  2.31796652e-02
   1.17700629e-01  3.86790410e-02 -7.21471235e-02 -8.10581297e-02
   1.89831242e-01  5.30227602e-01  9.27629098e-02  7.86545947e-02
   1.09423414e-01  2.23896563e-01  3.05111080e-01 -2.14653239e-01
  -8.54746625e-02 -8.74951407e-02  6.11696504e-02 -8.84091333e-02
   3.60809490e-02  2.09581822e-01 -4.87236939e-02  4.43495452e-01
  -9.86701623e-02  2.82419473e-01 -1.65882692e-01 -3.06507498e-01
   1.11362316e-01  2.43768886e-01  1.00843117e-01 -2.34661385e-01
   1.17826216e-01  4.24770713e-01  2.58717667e-02  6.02478236e-02
  -4.46698181e-02  1.73663348e-01  3.61458957e-01  8.58945251e-02]
 [-5.61887026e-02  1.13279678e-01  2.95745917e-02  2.54544467e-01
   2.14165792e-01  6.07717549e-04  8.86340588e-02 -1.14680193e-02
   3.45249400e-02  7.28714168e-02 -1.75609738e-01 -1.46270096e-02
   2.15033412e-01  1.95405111e-02 -2.79201716e-02  3.15709621e-01
   2.30940223e-01 -7.05101669e-01  3.23679805e-01 -2.89293695e-02
   3.00755948e-01 -1.05240578e-02 -2.89987903e-02 -1.90676764e-01
   2.96917707e-02  8.30077846e-03  1.17469028e-01  9.51887760e-03
   3.35380554e-01 -2.65679955e-01  2.99399998e-02  1.97207451e-01
  -1.38285309e-01  6.26948401e-02 -2.69328445e-01 -1.34218752e-01
  -2.35679615e-02  1.65682673e-01  7.81697258e-02 -1.03427328e-01
   1.58835977e-01  1.88743144e-01 -4.76604216e-02  1.71286929e-02
   7.26633295e-02  1.84874490e-01  1.48044005e-01  7.17857853e-02
   6.50163218e-02 -7.78530389e-02  6.46243170e-02 -4.20628265e-02
  -2.44311639e-04  5.52489087e-02  6.67790249e-02 -4.09391075e-02
   2.23113105e-01  2.05658644e-01  7.02306852e-02 -2.55587846e-02
  -2.31535118e-02  2.91408133e-02 -1.85281485e-01  3.46371233e-01
   6.01398339e-03  3.76025200e-01  8.68585035e-02 -3.53621766e-02
   1.71792895e-01 -4.38838065e-01  1.76444203e-02 -2.85836339e-01
  -2.33096212e-01  1.35680646e-01  1.55912802e-01 -2.21800134e-02
   2.50554290e-02  3.05233076e-02 -1.72260717e-01  1.76211409e-02
   2.15045542e-01 -3.15941066e-01  9.67438295e-02 -6.04779124e-02
  -1.07318468e-01 -5.21650799e-02 -1.59673020e-02  3.13732207e-01
   4.23480831e-02  1.74219638e-01  5.53220101e-02 -4.83961403e-02
   1.50830662e-02  2.08477788e-02 -8.49906430e-02 -6.03793189e-02
  -1.02147259e-01  1.96887851e-01  5.64825833e-02  1.92464575e-01
  -1.39062628e-01  2.22234711e-01  3.06800842e-01 -1.46455467e-01
  -2.86579967e-01  1.76508442e-01  3.76317091e-03  1.23360075e-01
  -2.21087784e-01 -4.89280000e-03  4.02284861e-02  3.02834451e-01
   4.60334085e-02  4.06327173e-02  1.71442583e-01 -7.76417702e-02
   2.76896060e-01  6.13941215e-02  5.54487288e-01 -3.86645764e-01
  -1.41600892e-01  4.15649384e-01 -3.91282402e-02  9.54207033e-02
   1.20083980e-01  1.57272428e-01  2.06124812e-01  1.05406024e-01]
 [ 8.92560929e-02 -1.09465504e-02 -3.84663381e-02  6.26578927e-02
   1.41660035e-01 -5.05673364e-02  1.89604629e-02 -5.20201884e-02
  -4.06474946e-03  5.30671552e-02 -3.97669226e-01  3.62007762e-04
   4.89939600e-01 -1.87376942e-02  7.13760629e-02  2.98255801e-01
   2.70360649e-01 -2.53299624e-01  2.18143594e-02  4.14869726e-01
   1.96589321e-01 -3.82364720e-01 -1.97838455e-01 -1.56032205e-01
   1.24555662e-01 -2.00861454e-01 -1.92762956e-01  4.16179411e-02
   3.68604511e-01 -3.72699201e-01 -7.01375380e-02 -4.81323563e-02
  -1.00034699e-01 -5.49858510e-02 -7.90547132e-01 -1.88673705e-01
  -5.01665147e-03  3.77603292e-01  7.09702447e-02 -3.00394952e-01
   3.54427516e-01  4.28581387e-01 -1.86523601e-01 -2.04569623e-01
  -2.61831015e-01  1.23313151e-01  2.59994775e-01 -1.14324287e-01
   5.54016791e-02 -5.03261089e-02  4.06370819e-01 -5.89828603e-02
  -8.88686404e-02  6.57660067e-02  1.60185486e-01 -8.56010392e-02
   1.90000951e-01  1.61075354e-01  1.59058690e-01  6.99264929e-02
   4.60196584e-02  1.71301499e-01 -1.51734799e-01  4.17478144e-01
  -5.73732182e-02  6.66743517e-02  5.44474199e-02 -6.98665380e-02
   2.79700249e-01 -2.36069977e-01  5.23566663e-01 -4.54927444e-01
  -6.45261168e-01 -6.72934111e-03  1.34961054e-01 -1.90078765e-02
  -1.00681759e-01 -2.25041178e-03 -4.54570144e-01 -3.51568274e-02
   4.21651214e-01 -1.79210961e-01  3.52759771e-02 -7.23173022e-02
   1.21676870e-01  7.73622422e-03  5.74364588e-02  2.63050735e-01
  -1.15765296e-02  2.65397608e-01  4.79477607e-02 -1.62723318e-01
  -2.05978587e-01 -4.94463369e-02 -2.23350987e-01 -1.89279228e-01
  -4.30659264e-01 -3.91420238e-02  6.57288209e-02  1.30829185e-01
  -1.18455455e-01  7.76578858e-02  1.84883982e-01 -9.56478044e-02
  -1.27974167e-01  1.65403768e-01  9.06145573e-03  2.77462542e-01
  -3.45918387e-01 -7.49288127e-02  1.39094681e-01  2.28408203e-01
   4.08424646e-01  3.16751115e-02 -1.06266379e-01 -2.70387307e-02
   1.18674971e-01  1.25866190e-01  4.92569149e-01 -4.18185860e-01
  -3.69266301e-01 -1.31972218e-02 -7.50383511e-02  1.55324889e-02
   3.00527453e-01 -8.42294022e-02  3.15727154e-03  2.76558459e-01]
 [ 2.00162873e-01  1.43430561e-01  1.47104800e-01 -2.00320736e-01
  -8.33566561e-02  2.07094863e-01 -1.32743239e-01 -2.25655302e-01
  -1.39681637e-01 -9.96205881e-02 -5.75197816e-01 -1.12444192e-01
   2.75838673e-01 -7.08599167e-04  2.82626748e-01  2.66269594e-01
   4.48581018e-02 -1.44848034e-01 -8.55971593e-03  2.58228093e-01
   1.08346090e-01 -3.39163393e-01 -1.30107671e-01 -2.45087057e-01
   1.43043742e-01 -4.15408276e-02 -3.78809571e-02  2.52439082e-01
   3.75051126e-02 -3.78700972e-01 -6.15695976e-02 -1.05550468e-01
  -5.85180596e-02  6.27622083e-02 -1.23730183e+00  7.94395208e-02
   1.69579551e-01  5.09128213e-01  1.89535469e-01 -5.47374368e-01
   4.22261238e-01  3.63895088e-01 -1.85513988e-01 -2.21615463e-01
  -4.10611004e-01 -2.25371510e-01  2.71944433e-01 -2.68153697e-01
  -9.66063663e-02  4.53294218e-02  4.33157891e-01 -4.33483645e-02
   2.14186329e-02  3.38839144e-02  3.96339178e-01 -2.04223752e-01
   1.08998574e-01  1.39187202e-01  9.93527696e-02 -2.15158258e-02
   6.29234612e-02  1.57940641e-01  6.27632067e-02  1.25576705e-01
  -1.72545761e-03 -7.48186037e-02  1.55021340e-01 -7.11779892e-02
   1.68653697e-01 -4.12649989e-01  3.27206254e-01 -3.71479779e-01
  -8.36218536e-01 -1.89622730e-01  3.04465815e-02 -3.22141573e-02
  -2.72418503e-02  1.85864374e-01 -2.72031695e-01 -2.60635037e-02
   7.04829693e-02 -9.35981348e-02  5.53240553e-02  1.08486377e-01
   2.31407419e-01 -1.48162842e-02  1.21496171e-02  1.48206130e-01
  -3.05662036e-01  3.61801982e-01 -8.71982649e-02 -3.34149785e-02
  -1.76188275e-01  1.89007550e-01 -2.65830779e-04 -1.24970801e-01
  -6.47935927e-01 -3.75758231e-01  2.90498108e-01 -2.92675011e-02
   3.72637808e-02  3.78196314e-02  8.06349367e-02 -4.43257065e-03
  -5.14164045e-02  9.09932032e-02  2.62807608e-01  2.14756310e-01
   6.54565170e-02 -3.14839743e-02  3.40629607e-01  1.09770887e-01
   3.72736543e-01 -2.00658679e-01 -6.04526438e-02  1.16382822e-01
   1.87944248e-01 -2.82522775e-02  3.22407514e-01 -2.25751773e-01
  -3.62192839e-01  4.53585759e-02 -7.21591488e-02 -4.38910007e-01
   5.26341259e-01  1.99070588e-01 -3.12625051e-01  2.14846432e-01]
 [-1.46294311e-01 -3.86964642e-02  2.51988858e-01 -5.51227890e-02
  -6.78315002e-04  3.27123731e-01 -3.00431699e-01 -4.62088138e-01
   9.06373113e-02 -1.72638282e-01 -1.92557409e-01 -5.32197580e-02
   5.89119531e-02 -8.84783417e-02  1.41386330e-01  2.72341371e-01
   1.06531650e-01 -4.12965827e-02 -1.14042787e-02 -1.37291271e-02
   8.65241364e-02 -2.24546134e-01 -1.62892342e-01 -4.34012860e-02
   2.09218755e-01  1.40772372e-01  2.84601808e-01  4.05292995e-02
  -2.17771530e-01 -8.05850103e-02 -1.94153234e-01  1.06549986e-01
  -7.43975714e-02  2.68992726e-02 -8.15527976e-01 -5.30421972e-01
   1.40776306e-01  1.32451607e-02 -1.03158444e-01 -4.59159791e-01
